{
    "Layers": [
        {
            "Weights": [
                [
                    0.06176539058376145,
                    0.08404927015913057,
                    -0.0728149317003838,
                    0.0652825906774149,
                    -0.023001594748976287,
                    0.009444198377608081,
                    -0.07695985422736593,
                    -0.024976933300043542,
                    0.01926181372947716,
                    -0.02860583638247675,
                    -0.011006880773686582,
                    -0.0412107676895576,
                    -0.07855234169354268,
                    -0.08723206025221505,
                    0.04358320887754431,
                    -0.012238949243798444,
                    -0.07643668251256222,
                    0.08515092795942845,
                    0.012210269005861614,
                    0.011513731510711821,
                    0.03792435752807914,
                    -0.052146213028350714,
                    0.018715658606324518,
                    -0.07978656526790917,
                    -0.05275040060959701,
                    0.041165164268537016,
                    -0.043677953956961585,
                    0.03222338302435692,
                    0.0490021266184794,
                    -0.010684096360979192,
                    0.08436949464442618,
                    0.02676524790924679,
                    0.02097117364185051,
                    0.06747452672201065,
                    0.024576999018395017,
                    -0.0718688433813555,
                    -0.08289050260701122,
                    -0.08923970441391536,
                    -0.038155853481764826,
                    0.013108293051992768,
                    -0.08121002359975528,
                    -0.13647116730885983,
                    -0.018796106773067117,
                    -0.09164963364013094,
                    -0.020070532609790803,
                    0.03176985415859378,
                    -0.07311258488471924,
                    0.007534322034230367,
                    -0.07443761096504117,
                    0.037766801829027224,
                    0.024311335639505365,
                    -0.08641864398151074,
                    -0.006021412360849651,
                    -0.07789525940640425,
                    -0.025185912761132967,
                    0.07320707962502698,
                    0.02703671680264462,
                    0.04432481371364673,
                    0.06162985442271299,
                    -0.03432723227189775,
                    -0.005734895793550843,
                    -0.03971823425543325,
                    0.04379551368996695,
                    -0.00938475891001271,
                    -0.0526554609632368,
                    -0.047402200488501384,
                    -0.09344675175517093,
                    -0.14207443201057282,
                    -0.2562492608433433,
                    -0.2712323275681067,
                    -0.280785556392902,
                    -0.16246291109849006,
                    -0.24048742310449928,
                    -0.13352955073629988,
                    -0.22084691551482055,
                    -0.17280956992332674,
                    -0.03361181377985309,
                    -0.0794446316782923,
                    0.010190386664670412,
                    -0.10022197807709184,
                    0.015298286387108107,
                    0.06397023929615889,
                    -0.0662309158702984,
                    -0.06268132109710561,
                    -0.04865954050942932,
                    0.0786355465020998,
                    -0.06430727574504866,
                    -0.043106242067179806,
                    -0.07844892858658847,
                    -0.06605950794616118,
                    0.03792984338386717,
                    -0.03312348708023072,
                    -0.07747085726456834,
                    -0.012528948562087127,
                    -0.11729273700322973,
                    -0.05376516820500649,
                    -0.203769443687204,
                    -0.10046819341556648,
                    -0.27178003464000305,
                    -0.2839773889373268,
                    -0.2232645642064879,
                    -0.11523275791592148,
                    -0.21605695535574476,
                    -0.17324769771053153,
                    -0.21536439668596238,
                    -0.15347918250627218,
                    -0.12877904780510657,
                    -0.03333895932982547,
                    -0.09434790567027057,
                    -0.0440088639009629,
                    0.005772143461191096,
                    0.018720924010526628,
                    -0.05099098415964731,
                    -0.03985820081458681,
                    0.012503223170729869,
                    -0.07081180940443658,
                    -0.08752091969412894,
                    -0.09542362589788068,
                    -0.02677162014274038,
                    0.04203688255662666,
                    0.03977210294693038,
                    0.005303462813937842,
                    0.08838170211003504,
                    0.03296981634839652,
                    0.16326779879062364,
                    0.04760788535853177,
                    0.08439086099286293,
                    0.01927219638507593,
                    -0.013681988718702449,
                    -0.011352262139707378,
                    0.06405087555072624,
                    -0.05751957471518367,
                    -0.08602969461439056,
                    -0.18424040298602884,
                    -0.07865975681613581,
                    -0.07610858407218835,
                    -0.09397012816571555,
                    0.052984776473225186,
                    0.037710357511226644,
                    0.013811004786404448,
                    -0.041786073128108656,
                    0.03772164741240081,
                    0.02633640349578413,
                    -0.06781244848626462,
                    0.01563293288947777,
                    -0.08578873507622559,
                    0.023604962298443333,
                    0.03862258066577134,
                    0.17977255565294206,
                    0.10649511058110174,
                    0.11721518965513505,
                    0.15926324028319228,
                    0.10105657580348507,
                    0.10298562979273931,
                    0.16862653407985653,
                    0.04974857614857929,
                    -0.010634898474596699,
                    0.04481261327427395,
                    0.07538357564941917,
                    0.00530250768031146,
                    -0.039855745062116185,
                    0.05136941662104239,
                    0.006865889872511472,
                    0.00702977145948715,
                    -0.06985236686822788,
                    0.08100049978881348,
                    0.02940720449580286,
                    0.024818010828420344,
                    -0.03253149450590358,
                    0.020858780463647697,
                    0.026240284426319448,
                    0.004585449711376536,
                    -0.1375877913771184,
                    -0.003079224267118136,
                    -0.04401052119722118,
                    0.17298984413515348,
                    0.12428446066307736,
                    0.1100092470418727,
                    0.1911834153381969,
                    0.040747015161277475,
                    0.07709989234406879,
                    0.1791460031418723,
                    0.06145315502484824,
                    0.1668025461136833,
                    0.10786439492862666,
                    0.14121299714157545,
                    0.12222389483237131,
                    0.13112615730911603,
                    0.22118969757440174,
                    0.12489372823415575,
                    0.25014204174085863,
                    0.18123611963357625,
                    0.01534649530185917,
                    -0.025208911805406523,
                    0.05040112141834145,
                    -0.05476080887212136,
                    0.013985366522964705,
                    0.060432389955094666,
                    -0.04990400978178436,
                    -0.07203490124540131,
                    -0.07024870905152199,
                    -0.031102631521975753,
                    0.14138029398648508,
                    0.054173414502981763,
                    0.1801262006453863,
                    0.18483730823960726,
                    0.13782112133205499,
                    0.1440244693099711,
                    0.2688885788278098,
                    0.42747670884499794,
                    0.1815093310181116,
                    0.24278667213821417,
                    0.3159118458819108,
                    0.14308807526466835,
                    0.24777961751457486,
                    0.14335909619940712,
                    0.060882479083982,
                    0.13719257918603592,
                    0.2720567249009548,
                    0.17235878587439205,
                    0.12720232212410695,
                    -0.012994845212051489,
                    0.06790035997528768,
                    -0.05085399153674445,
                    -0.07689979962032359,
                    -0.026031594239790207,
                    0.05197300690400204,
                    -0.04022081104153685,
                    -0.03750272005886343,
                    0.09296900783987967,
                    0.24744105258377905,
                    0.2606077274930932,
                    0.31323463353616,
                    0.2502137595629545,
                    0.327178365882368,
                    0.3832666341983786,
                    0.41358979846835947,
                    0.5027310086764709,
                    0.6157706816766108,
                    0.5371011735345002,
                    0.3754655185325816,
                    0.28110542081832857,
                    0.29411235816357284,
                    0.17515394498934206,
                    0.15630158022707544,
                    0.16485140536112936,
                    0.28610538129295937,
                    0.3579358678570088,
                    0.20626708161698482,
                    0.1330104124051066,
                    -0.014026214700141284,
                    -0.03102747104174502,
                    0.044466534278335725,
                    0.08151512191771258,
                    0.026850969261352917,
                    0.024419913433667575,
                    -0.049488477414413055,
                    0.11211257193423874,
                    0.13144911771877288,
                    0.0753182619766592,
                    0.04240243925720068,
                    0.41087317576375365,
                    0.4343528880325132,
                    0.5647319675601296,
                    0.5649572876420017,
                    0.6448146050776009,
                    0.5007618733164384,
                    0.2212939426862398,
                    0.23001318770553414,
                    0.2191299902842511,
                    0.3787456012867448,
                    0.21693116777080274,
                    0.10397838569293662,
                    0.215191407410669,
                    0.14748460876643008,
                    0.2372835025679209,
                    0.11065138844605442,
                    0.09125050938682625,
                    0.0477822813938179,
                    0.06935477074883678,
                    0.07310930976389042,
                    0.012071745062574616,
                    0.064629444746573,
                    0.01525767320093669,
                    -0.0289153526864302,
                    0.20168860706142142,
                    0.20812581252876558,
                    0.0053638340175550005,
                    0.12890006996900694,
                    0.30651462333621,
                    0.3319920745834254,
                    0.48162425548001925,
                    0.4315510073798135,
                    0.21965968431103028,
                    0.014583345297814533,
                    -0.12994663795203598,
                    -0.3256461266225451,
                    0.01956670316931111,
                    0.07927909211303256,
                    0.02140293406237234,
                    0.05394271248465624,
                    0.11266101272400134,
                    0.12234021052105735,
                    -0.012831450577278986,
                    -0.0037470640423144467,
                    0.07304005226339698,
                    0.027746838136582214,
                    0.04606001440906306,
                    0.05275924395939263,
                    0.07440599630390696,
                    -0.050886867230230906,
                    -0.07210927232939905,
                    0.007974711298285869,
                    0.14107981243228643,
                    0.04806309805821804,
                    -0.05811357366093801,
                    0.0884031853052294,
                    0.12066691476339925,
                    0.08604010481523781,
                    -0.1475256122182873,
                    -0.12098219709627195,
                    -0.23361559802166285,
                    -0.39781273635998743,
                    -0.2842680835415116,
                    -0.32451049754513156,
                    -0.3210014801968408,
                    -0.25077207175349986,
                    0.00638119595199493,
                    0.03902371244902985,
                    0.0961846290146449,
                    0.10323163613104108,
                    -0.10948975167804549,
                    0.029494666885067376,
                    0.13315839362647802,
                    -0.030479314351831134,
                    0.04498855959026391,
                    -0.01666615894737259,
                    0.08146074293871584,
                    0.05041357567286461,
                    0.06953944173492119,
                    0.1083779805591939,
                    -0.0268509874687205,
                    -0.08227281709217853,
                    -0.3027782046277405,
                    -0.11383188623622005,
                    -0.14725299497238994,
                    -0.238496760104744,
                    -0.3536817116163649,
                    -0.2856279054796977,
                    -0.14064390122768955,
                    -0.22737812959012593,
                    -0.15103969665534753,
                    -0.4161683275173825,
                    -0.21395670719947826,
                    -0.15829508555393068,
                    0.0561215407080355,
                    -0.00214078076705307,
                    0.07233878539108983,
                    0.037643273606054815,
                    -0.11699347019015335,
                    -0.06639860154743872,
                    0.04135397350541537,
                    0.07534413694454582,
                    0.0038283201642643028,
                    -0.018333015538899263,
                    0.0661069599957783,
                    -0.03374109020953289,
                    -0.007482080444668884,
                    0.06770488011373235,
                    -0.11054717188092027,
                    -0.2143141153486772,
                    -0.18267255917512212,
                    -0.23053837117280085,
                    0.04708101619555062,
                    -0.07472407774660565,
                    -0.07382821251100158,
                    -0.029050922406597082,
                    -0.021445046151321635,
                    0.019986357258583835,
                    -0.1897812096492444,
                    -0.1861986790808593,
                    -0.03408028747172438,
                    -0.08398289429854809,
                    -0.17440972989328576,
                    -0.025439740102180117,
                    -0.140267356289278,
                    -0.017468648835840577,
                    -0.20014470062165288,
                    -0.032575187286004434,
                    0.19967863920768095,
                    0.045115956676738,
                    0.037933060042637565,
                    0.053515990506965226,
                    0.05834762723958975,
                    -0.08154531660789609,
                    0.0799315024149184,
                    0.12512313870881447,
                    0.0249896451800913,
                    -0.09798754642852728,
                    0.023556574511604672,
                    0.03159880845334215,
                    0.04218985890935713,
                    0.060407294980570826,
                    -0.016808473866060682,
                    -0.16755554336255427,
                    0.1658186713236374,
                    0.05218406757786773,
                    -0.04518832847654055,
                    -0.24460974604667104,
                    -0.05863399472716689,
                    -0.040743932394211736,
                    -0.189848009664884,
                    -0.2532386266902909,
                    -0.16048293400258254,
                    -0.10172092324900564,
                    -0.06409877100059853,
                    0.05831660345461282,
                    0.08734598643203255,
                    0.10655784531564665,
                    0.0080097456227377,
                    -0.06560663862422493,
                    -0.036930163545036095,
                    -0.022302111713605077,
                    0.12887228589449065,
                    0.16929912504808237,
                    0.11464817313899735,
                    0.02794516773134326,
                    0.11956311859631646,
                    0.3292736861384489,
                    0.16482329713056676,
                    0.22057252707787228,
                    0.02739519610877072,
                    0.0039233107004036415,
                    0.17685028558251756,
                    -0.026441265018503666,
                    0.05876624515833674,
                    -0.09577214627868078,
                    -0.11376413245226845,
                    -0.12398891703599269,
                    -0.20888141075131264,
                    -0.3070958028477301,
                    -0.2703381807121614,
                    -0.08460631273279082,
                    -0.08981571426731834,
                    0.039083478383998414,
                    0.06282548165025677,
                    0.11587798387430645,
                    -0.05083041176239548,
                    0.040086654280918455,
                    0.03285473633015019,
                    -0.036471344459407265,
                    0.03496936684036589,
                    0.021959294708983168,
                    0.050374490697627214,
                    -0.07439608087012628,
                    0.07777170914447884,
                    0.3700970240537518,
                    0.3282116281658795,
                    0.15078164784361525,
                    0.033743140584078186,
                    0.4290958432513261,
                    0.2610570141004998,
                    0.1366325526936058,
                    0.10394039737440644,
                    0.15095777606358132,
                    0.07709395742241736,
                    -0.05786320233509611,
                    -0.08826543616672759,
                    -0.2048825495932408,
                    -0.021188763877585375,
                    -0.08428101165439102,
                    0.06037394872239523,
                    -0.0033393125476473186,
                    0.21042684085062627,
                    0.1374633393319939,
                    0.030785677513352566,
                    0.06290622995292089,
                    -0.05927627972983616,
                    -0.10802384292671666,
                    -0.09633246156802437,
                    0.08823785443384725,
                    -0.005557451371257872,
                    -0.12524388181074322,
                    -0.08949857555031039,
                    0.04580627954918025,
                    0.04258895153322883,
                    -0.007775890969770556,
                    -0.040499549588862975,
                    0.011969032180426425,
                    0.09898343188762854,
                    0.14334217788501266,
                    0.28355580396128943,
                    0.1923090569299075,
                    0.030870759791549282,
                    0.04855754524862477,
                    -0.18078690649533966,
                    -0.012465697998349509,
                    0.0026040296020601495,
                    -0.09674854125229765,
                    -0.037408798219266355,
                    0.21766895799957717,
                    0.14028885197018734,
                    0.01049818663721766,
                    -0.007790891690153817,
                    0.003768282250119117,
                    0.03468845273140088,
                    -0.07287030424618375,
                    -0.15724276534091355,
                    0.014641993174191365,
                    0.07920575215129914,
                    -0.12690021073497154,
                    -0.2221303435186046,
                    -0.2627241074437541,
                    -0.2519713706824623,
                    -0.18531166883158562,
                    -0.34052726315850834,
                    -0.4632011442337711,
                    -0.3174406325457932,
                    -0.15982007281473432,
                    -0.0337616036885377,
                    -0.005286623342006861,
                    0.06789052773208366,
                    -0.05121245464224648,
                    0.1078804572311446,
                    0.12393886997629454,
                    -0.06910443582928234,
                    -0.07148617474581254,
                    0.22156595936758985,
                    0.2976763289828211,
                    0.20221879017422467,
                    -0.031097842451109053,
                    -0.049602956471800276,
                    -0.056799551219921765,
                    -0.03533787506737905,
                    0.008309656540017796,
                    -0.17424523881569462,
                    -0.01669845671761011,
                    0.1597091451628099,
                    0.1342901780977722,
                    0.006140981034632252,
                    -0.17390228586196885,
                    -0.24449101015727437,
                    -0.2556569574414067,
                    -0.5829400173395,
                    -0.7950017986931627,
                    -0.4420731568833601,
                    -0.3358367563855231,
                    -0.08223521812916817,
                    -0.021423980559573997,
                    0.006453001962332265,
                    0.03756598159066769,
                    0.11510999344402442,
                    0.11820415234578373,
                    0.06359378867160512,
                    0.1621235457839733,
                    0.18296872912016493,
                    0.1856878077240861,
                    0.059809521091380234,
                    -0.00801728127567255,
                    0.07051117246166395,
                    0.009591812818854612,
                    -0.007474756557636413,
                    -0.02453148119871203,
                    -0.11109192667759767,
                    0.003729148725201093,
                    0.13730138578401496,
                    0.14033622710228646,
                    0.028058758636916675,
                    -0.004948108241046049,
                    -0.2646451675545107,
                    -0.21366416907232988,
                    -0.1825653912615017,
                    -0.2987150302076231,
                    -0.3991650547915597,
                    -0.39181219414809276,
                    -0.06444820259135577,
                    -0.12513994557646468,
                    -0.156346644511686,
                    -0.2538320340058058,
                    0.05932413003842025,
                    0.12273090699481248,
                    0.29988531751476316,
                    0.39841758564965857,
                    0.19937288109305065,
                    0.2088373391451666,
                    0.004768019466176032,
                    -0.06507677179948831,
                    0.013468933833805154,
                    0.07942215537712767,
                    -0.03556103151208868,
                    0.04817348083062354,
                    -0.028114441268272377,
                    0.026808569500951947,
                    0.17406308515394753,
                    0.12432941196239419,
                    0.14900758603543288,
                    0.07655133300509623,
                    0.08827510725937791,
                    -0.15833666708990046,
                    0.03331656027053101,
                    -0.11402215757087854,
                    -0.2254777454261076,
                    -0.222953898300595,
                    -0.1184845186902516,
                    -0.20963862149994872,
                    -0.25287374888466924,
                    -0.12910324760192032,
                    0.0816706030415022,
                    0.32189354617179805,
                    0.2665201601151979,
                    0.3189604804485067,
                    0.26772585854699105,
                    0.0768674133796083,
                    0.040621546300145334,
                    0.06519538313138838,
                    0.06612068283556981,
                    0.021087722835870792,
                    0.06478854615835934,
                    -0.02780425670762336,
                    -0.04171981195960203,
                    0.028974875666227685,
                    0.03143612614353147,
                    0.07186909881078678,
                    0.11637081299411263,
                    0.18719420896264255,
                    0.05367068828322776,
                    0.11336675723772315,
                    0.13498884215788223,
                    0.07504325157613226,
                    -0.052381525270663164,
                    -0.033275120095699086,
                    -0.18864512913060685,
                    -0.08973096085319537,
                    0.02068907406361235,
                    0.0921132875547318,
                    0.26534200139713193,
                    0.33931988003464514,
                    0.22812659911387298,
                    0.16827185619226387,
                    0.13000777459080698,
                    0.04655017348749908,
                    0.040485750725043526,
                    -0.015088895650831036,
                    -0.03702638378626076,
                    -0.04690179035263843,
                    0.03872898584756678,
                    -0.015685279145406728,
                    -0.02573291061876246,
                    -0.09438422682580692,
                    -0.09273065560725897,
                    -0.18502796868235724,
                    -0.12624588322097224,
                    0.022764002049680078,
                    -0.019505939928191194,
                    0.09843825433124809,
                    0.13620353167884192,
                    0.18917936745441954,
                    0.16730206616808935,
                    0.3258327977486379,
                    0.26243094370944153,
                    0.35681595624612855,
                    0.22949180980167447,
                    0.18774102536991086,
                    0.24128860890938097,
                    0.21544327394518403,
                    0.24138576215472227,
                    0.19257049990176436,
                    0.07116703498203424,
                    0.0027853696049117914,
                    0.04530190342908313,
                    -0.0883889033121854,
                    0.043482805019099825,
                    -0.0765182833894401,
                    -0.03513290373374454,
                    -0.05188947961429365,
                    -0.017845238323469258,
                    0.00046392445071924133,
                    -0.05718188511170203,
                    -0.16625005193799136,
                    -0.08396649160763674,
                    -0.08285066960851759,
                    0.06668804219527696,
                    0.031404147990152294,
                    0.31448959218607203,
                    0.2790788148715743,
                    0.24662081599128963,
                    0.24505454798710333,
                    0.2531527939563332,
                    0.22156384698540452,
                    0.20438985307836885,
                    0.13908428089959365,
                    0.131910527576093,
                    0.05262384590530583,
                    0.1324313221840461,
                    0.06927835970940961,
                    -0.04460192025508675,
                    0.00518449380151334,
                    0.04180407247634566,
                    0.08081272173390212,
                    -0.04579894803454049,
                    0.0004599887344663706,
                    -0.08018803452937404,
                    0.01610758461307813,
                    -0.037559109546106986,
                    0.04376883189981425,
                    0.017367940352284,
                    -0.004937970247586872,
                    -0.11437099949205218,
                    -0.06383542396063943,
                    -0.038705005915036485,
                    0.13417770569239987,
                    0.12705352426743977,
                    0.03249689187505792,
                    0.03770701621676508,
                    0.11753940399236845,
                    0.06379409148578852,
                    0.0467747956922448,
                    0.1507329337708435,
                    0.11724288408745474,
                    0.030623660797371863,
                    0.08543276954542448,
                    0.008704050156096354,
                    -0.021691108899897716,
                    0.08358870503580705,
                    -0.02713480877515157,
                    0.017698598968634467,
                    0.08265316184747001,
                    -0.06534606013206613,
                    0.0030131338110455166,
                    -0.03755240149757003,
                    0.05632621630867919,
                    0.05722083286548457,
                    -0.08650691641691767,
                    0.006929587400718473,
                    0.07068876584186277,
                    -0.056497189521027696,
                    0.06258461164539036,
                    0.061138065106462275,
                    0.07380086779709509,
                    -0.0020953661387540924,
                    -0.02320032666470903,
                    -0.04391022979788747,
                    0.025809410199669494,
                    -0.04932274927292135,
                    0.004293289304591032,
                    0.03109418614630795,
                    0.008458637517403,
                    -0.05502481566490343,
                    -0.06500961961233427,
                    -0.05192487569345028,
                    -0.017903284059410413,
                    0.04472056297966167,
                    0.07033288962038403,
                    -0.07085000151106194,
                    0.031110709492856114,
                    0.06962329370399978,
                    0.08238186660309241,
                    0.03666702594247953,
                    -0.08029956208161697,
                    0.07319617314600785,
                    0.07318441397224468,
                    -0.018270773991082487,
                    -0.056767783819925276,
                    -0.032143308339386834,
                    0.08281534814508919,
                    0.05074444123473213,
                    0.05550830490870214,
                    0.04329489500822182,
                    -0.04175272008242175,
                    -0.07498418183675747,
                    0.05122528123858293,
                    0.036358967947410795,
                    -0.022173576979867528,
                    -0.027598852037933837,
                    0.06511780867755201,
                    -0.004348911761633581,
                    -0.05345026006461695,
                    -0.07590468014791128,
                    0.07752457523694666,
                    -0.06190638179131488,
                    0.06207701290893301,
                    0.06640481945210022,
                    0.017215865849819517,
                    0.07415944386316377
                ],
                [
                    0.05742204300641834,
                    0.014840175247639836,
                    -0.018012777563089565,
                    0.06428895887208765,
                    -0.05988370823622233,
                    -0.06610883435288524,
                    -0.025666907017195817,
                    0.057039630781874906,
                    -0.04980411374506291,
                    -0.00028907676129908696,
                    -0.0014790057029656072,
                    0.026076175813968868,
                    -0.007670311057089368,
                    -0.01669095373861274,
                    -0.06867678141442339,
                    0.024383608321500598,
                    0.021325737230371046,
                    -0.0417818555975604,
                    -0.05876708913933911,
                    0.07180295222734898,
                    -0.07432788514539831,
                    -0.08100783450463256,
                    -0.02497086404148753,
                    -0.08303941002114741,
                    -0.060098048470854405,
                    0.06259067496408971,
                    0.05532444000437007,
                    0.003606295264497227,
                    0.08089302307353537,
                    0.07622487272366633,
                    0.03808791937889491,
                    0.021961344497370968,
                    0.08369601538481582,
                    0.0852169484019159,
                    -0.03075186399903691,
                    -0.03975231559809724,
                    -0.08018333686273937,
                    -0.050420877655115,
                    -0.075549654859519,
                    0.07903339264807437,
                    0.011525400108792567,
                    -0.06250547495466553,
                    0.00721652233218412,
                    -0.08319427571125128,
                    0.03637484694328124,
                    0.08656986996019028,
                    0.02353753264097743,
                    0.06197595255207552,
                    0.07488807384789045,
                    0.005827370943394138,
                    0.05730858807111056,
                    -0.014965768771454536,
                    -0.05565922259364429,
                    0.051468953525298775,
                    -0.035356732166165895,
                    0.0723974674945371,
                    -0.04509905740775868,
                    0.07379326557636844,
                    0.058722673547312525,
                    -0.06057007158758472,
                    0.06763447102123342,
                    -0.05894182172728339,
                    -0.04028704975440605,
                    -0.07531374009012178,
                    0.05720406756609048,
                    -0.013811409580376044,
                    0.10017759079895325,
                    -0.02353661744114061,
                    -0.03654810314982115,
                    0.07190879814793312,
                    0.009391883159016044,
                    0.12291480535529095,
                    0.06805005582086185,
                    0.10651756138417064,
                    0.10405800302903451,
                    -0.024824211123259256,
                    0.03373947495606155,
                    -0.03419352005094009,
                    -0.06456845782187365,
                    0.015149478856116056,
                    -0.04710590827583081,
                    -0.038373843133663904,
                    0.06185709807418946,
                    -0.07339421700637962,
                    0.06365829505836296,
                    -0.02777719716315025,
                    -0.0020422837916361544,
                    0.08289678172495081,
                    -0.016256902511034982,
                    -0.09060330069200512,
                    0.046487304296229964,
                    -0.03817420812202574,
                    0.046417991195779,
                    0.10050435201767936,
                    0.18746295045360958,
                    0.2309989986045533,
                    0.10067671305165124,
                    0.2922016792229038,
                    0.15709335589373383,
                    0.10650137902766174,
                    0.1140584867737307,
                    0.10791330083635968,
                    -0.07133566822504225,
                    -0.020563685349009746,
                    -0.20715564997383734,
                    -0.03610951208118789,
                    0.02670007415155812,
                    0.03241294590145295,
                    0.05163051290686917,
                    0.009963371704531127,
                    -0.028345157635255844,
                    -0.033074226427786194,
                    -0.004527595860328113,
                    0.04612507831208918,
                    -0.05506503280187247,
                    -0.02795664276517289,
                    -0.04960522660172197,
                    -0.0036286768605980663,
                    -0.21327247076058586,
                    -0.0750309296848179,
                    -0.24612378699969148,
                    0.007926099772064373,
                    -0.0570427494025341,
                    -0.009153838745838114,
                    -0.061664450301535736,
                    -0.23704274878356263,
                    -0.08149319213513427,
                    -0.08757572886110533,
                    -0.0010620251380291938,
                    0.026335214141254424,
                    -0.04868438960578744,
                    -0.08886264770495939,
                    -0.16065122191359865,
                    -0.11573064954763655,
                    -0.08854173358753999,
                    0.00885863343963792,
                    0.0873370816341312,
                    0.05081806703932767,
                    -0.08603319929082472,
                    0.050237227611684074,
                    -0.007869592389194924,
                    -0.06224570939043947,
                    -0.012909989414325607,
                    -0.10208101341690197,
                    -0.01722143435873675,
                    -0.307114296248329,
                    -0.2559301485009826,
                    -0.15019754498204232,
                    0.03654523012552903,
                    0.10335504713890394,
                    0.25155638873634256,
                    0.42123444828632833,
                    0.301499995535612,
                    0.21133329218804373,
                    0.2356911969527126,
                    0.07204521362554732,
                    0.111522486699924,
                    0.049698971342723997,
                    -0.02433147579004168,
                    -0.2997851460889275,
                    0.03874974672373369,
                    -0.05899408930566183,
                    0.014562086615236508,
                    0.03341012352991064,
                    0.08564405025465918,
                    -0.008492551639715282,
                    -0.04589789135695551,
                    0.04526343092477913,
                    -0.003869050311681859,
                    -0.05554404925660731,
                    -0.039553439306318064,
                    -0.1375893682496915,
                    -0.1188220159794828,
                    -0.21152016914696678,
                    -0.3269479963772289,
                    0.06979449647755229,
                    -0.009065467188125256,
                    0.0002920224812901364,
                    -0.11293684747423545,
                    0.013720668696326021,
                    0.05272535689916349,
                    0.02596242282188644,
                    0.08635711662700395,
                    -0.059325459353389835,
                    -0.14831395726585533,
                    -0.24728514169894666,
                    -0.24007378135340485,
                    -0.25228288087853656,
                    -0.230682700742417,
                    -0.17872529497064682,
                    -0.11219517414667397,
                    -0.045923782716224715,
                    0.0544804536491971,
                    0.14189545864334133,
                    0.029706870381920762,
                    0.02173253180447859,
                    -0.0618384902147626,
                    0.07686487572138238,
                    0.09004654228023906,
                    -0.07066296336204622,
                    -0.18786836356553213,
                    -0.08086556658112704,
                    -0.036582058190460356,
                    0.0011905715637680896,
                    0.23491611781203953,
                    -0.018104319584695484,
                    -0.04398723406852179,
                    0.17551261229928328,
                    0.0436008652455151,
                    0.15715049531171554,
                    -0.10294527285663728,
                    -0.23997628981853322,
                    -0.24470778650737224,
                    -0.3921277363326628,
                    -0.34526638683913496,
                    -0.2893417284497847,
                    -0.35437087182201166,
                    -0.12295706605536282,
                    -0.22989077990131043,
                    -0.1934450080770847,
                    0.14456665438678604,
                    0.08950601508374686,
                    0.011616905425835117,
                    0.011360933549942111,
                    0.005708410682165252,
                    0.029058122364824513,
                    -0.04958833832561299,
                    -0.21724528380353356,
                    -0.2193411172357073,
                    -0.10388404576987392,
                    -0.010717420059577022,
                    0.04161123146679136,
                    0.08355663774628616,
                    0.10807225952132518,
                    -0.010353132877417027,
                    0.17928549203331925,
                    -0.17393141285735292,
                    -0.24234534440306457,
                    -0.1699677349560429,
                    -0.3750732050468215,
                    -0.31825490613492247,
                    -0.3451629321053633,
                    -0.3424416933040465,
                    -0.11017572253720223,
                    -0.2818566726895272,
                    -0.24535329094346595,
                    -0.3610941693698086,
                    0.04729472677670739,
                    0.27303926039806614,
                    0.17520784366107453,
                    0.0030453314932176708,
                    0.005025790001415428,
                    0.04924535160328534,
                    0.054420253640524816,
                    -0.07253371133169449,
                    -0.18547760695658141,
                    -0.36878960422996115,
                    -0.07628654331602863,
                    0.06475599282573373,
                    0.03934248445323401,
                    -0.07539270312353827,
                    -0.008546041277432343,
                    0.17056416307543032,
                    0.3223634366524419,
                    -0.006606508032106737,
                    -0.2393759412937031,
                    -0.23926539782980305,
                    -0.10157122394430865,
                    -0.08311315114877543,
                    -0.21610338466707946,
                    0.0713683366052067,
                    -0.08439518135323837,
                    -0.26845030475201004,
                    -0.20517384965025465,
                    -0.36059155535097764,
                    0.07473376332466379,
                    0.23592828505765934,
                    0.25287493521085697,
                    0.07713487142945809,
                    -0.06974032734007157,
                    0.04200260598698291,
                    -0.0669085553439967,
                    -0.02432409107504843,
                    -0.07894538274910481,
                    -0.26389424432261205,
                    0.13649947765096834,
                    0.21086005316710993,
                    0.12067700800010388,
                    0.07928393293641905,
                    0.2017380019233925,
                    0.49086635691541064,
                    0.2449725786713846,
                    -0.1467342955497666,
                    -0.5166420232289324,
                    -0.403414815935721,
                    0.03470442679881035,
                    -0.0843057500905092,
                    -0.2572955840464461,
                    -0.06110928473618595,
                    -0.2211159650247747,
                    -0.2938764826161626,
                    -0.2709966148511961,
                    -0.13658724856702553,
                    0.08152556796214779,
                    0.39398886331520505,
                    0.1185866248042973,
                    0.01952354298343763,
                    0.05865371096787362,
                    -0.07739401531367711,
                    -0.06883461704906674,
                    -0.08657262763686936,
                    -0.06520562445969202,
                    -0.19905345690618062,
                    0.11728325001921233,
                    0.34785775485602644,
                    0.21186727293343555,
                    0.2536187052937267,
                    0.3153303356105967,
                    0.28061109796028016,
                    -0.30707163494746886,
                    -0.7739214621244381,
                    -0.8601981849406821,
                    -0.6734193678216108,
                    -0.32006680128687226,
                    -0.12353083974678797,
                    -0.1438910194412157,
                    -0.1312846591005117,
                    0.05397090731417325,
                    -0.21613404104243641,
                    -0.06950005203648357,
                    -0.08352289972476422,
                    0.11922278312126636,
                    0.3802567609473786,
                    0.11106824643194699,
                    0.012594862159715644,
                    -0.06819385729151667,
                    0.0165377479737644,
                    -0.005141139968697337,
                    0.010153512640617418,
                    -0.013126574103558691,
                    -0.09369436459742782,
                    0.13114739122777946,
                    0.14771101623440402,
                    0.09072574252807274,
                    0.1487963438391211,
                    0.36203780315963646,
                    0.06822386013876924,
                    -0.4930328133588257,
                    -0.7809657997703314,
                    -0.6224376572244894,
                    -0.7829739993526574,
                    -0.5585357098770535,
                    -0.30690869827129535,
                    -0.09035072924466094,
                    -0.11901136622411868,
                    0.15978340334740967,
                    0.18154689469622246,
                    0.2095384250562127,
                    0.039832279952119805,
                    0.06340911498259315,
                    0.1337608498403317,
                    0.06160330998158551,
                    -0.0485241454511274,
                    0.05780609685523952,
                    0.08527569412066117,
                    -0.0537087703586193,
                    0.03720033469237508,
                    -0.06369470822210212,
                    -0.022185338088356425,
                    0.13792179445373698,
                    0.16954801767501912,
                    0.19512371214015314,
                    0.37938555896789494,
                    0.3838324294794414,
                    0.3455003126898859,
                    -0.11443826172885904,
                    -0.2632765689266862,
                    -0.3060082343646664,
                    -0.31598984141207803,
                    -0.3876415277063731,
                    -0.25371569724312104,
                    -0.21019547093321073,
                    -0.14395244912619296,
                    -0.03685218541191267,
                    0.04812776182128792,
                    0.2112292839952115,
                    0.2493825964680063,
                    0.30848635767085164,
                    0.29155608698345875,
                    0.1826250755698033,
                    0.009610242699847931,
                    0.09877363205952701,
                    -0.014629268954213622,
                    -0.04690810747119849,
                    -0.07385942968489101,
                    -0.006810107230838941,
                    0.06504475763771629,
                    0.008411215711686048,
                    0.25653758815830774,
                    0.4109866808331466,
                    0.48280916754021375,
                    0.6218046343987884,
                    0.5302879241398512,
                    0.2286665750847024,
                    -0.163036948543979,
                    -0.14233648743150254,
                    -0.10533414640909733,
                    -0.1847406936803665,
                    -0.07179986964672921,
                    -0.1090850280703578,
                    -0.05220802706960766,
                    -0.006472057547555285,
                    -0.012871375130315279,
                    0.06265703371477878,
                    0.13027760068675778,
                    0.29347591763452796,
                    0.34844963572847343,
                    0.21839094949513974,
                    -0.00867853455556612,
                    0.01528287993764006,
                    -0.05518700503419123,
                    -0.09972782883200663,
                    -0.00799651584909833,
                    0.12794749917253553,
                    0.04847994158686942,
                    0.16656137137673024,
                    0.28727514723884806,
                    0.43322857752495486,
                    0.39447813985335645,
                    0.31995688276864886,
                    0.32604329567848345,
                    0.1445219694796299,
                    -0.057281484743211764,
                    -0.1017812762131041,
                    -0.28658164834651334,
                    -0.2505378113972671,
                    -0.08705119770064415,
                    -0.1331381906069654,
                    -0.047300562217466376,
                    0.016557522649575256,
                    -0.2018746895813491,
                    -0.1805669368094539,
                    -0.2689677134877205,
                    0.12944259133084413,
                    0.3600614477531412,
                    0.2736777221491317,
                    0.004721365894180681,
                    -0.05377083622094568,
                    -0.04690699728916995,
                    -0.03937232220923403,
                    -0.10263199278222267,
                    0.030749186098121054,
                    -0.06862967102565083,
                    0.25212188715592637,
                    0.2445764469168706,
                    0.1947459662579275,
                    0.13081859455514006,
                    0.14243815184343966,
                    0.2736851734271372,
                    0.3970543142436993,
                    0.20148193129957911,
                    -0.030026518820771616,
                    -0.07817777903498514,
                    -0.13332750988409142,
                    0.13618262231030856,
                    0.1193003702173294,
                    0.0019869566572273223,
                    -0.1442017074677267,
                    -0.2716935812734914,
                    -0.13379086964902207,
                    0.015664987497501764,
                    0.29537027413050776,
                    0.5160741026469641,
                    0.2697807561949682,
                    0.16331469042437605,
                    -0.024032907919816694,
                    -0.006112383307841296,
                    -0.02687168080420147,
                    -0.1125488335390999,
                    0.04476632504053591,
                    0.05254294712595547,
                    0.07540394760279166,
                    0.3217432245192513,
                    0.18821324874579826,
                    0.10439351776023993,
                    0.301938957579035,
                    0.44617177855966056,
                    0.5495666012420062,
                    0.4762508602273723,
                    0.2129194992438358,
                    -0.19577597999486246,
                    -0.17579256210681793,
                    0.030010982243928716,
                    0.191336583979361,
                    0.028687890231442578,
                    -0.025781391011969603,
                    -0.060486767160438486,
                    -0.02481797377103188,
                    -0.11745721492066138,
                    0.29004071766339645,
                    0.4941884291265308,
                    0.3251758175139383,
                    0.15599071761645555,
                    -0.057533375098631656,
                    0.03143064224319185,
                    0.07972766533673756,
                    0.020864843176110648,
                    0.0014941261257819852,
                    -0.060877328554885715,
                    0.003295428008298158,
                    0.27034547088673205,
                    0.40116030205445213,
                    0.1525385440588409,
                    0.22798932367479977,
                    0.4809441580958438,
                    0.40254182804440714,
                    0.5532744926496119,
                    0.13459247646150255,
                    -0.07066295953669763,
                    -0.1829354603988343,
                    -0.02417747002661393,
                    0.07449080839514542,
                    0.001300321170160355,
                    -0.018538350640439592,
                    -0.007913995073991209,
                    -0.06927757859436037,
                    0.10233174980203098,
                    0.6412851412560114,
                    0.5990276333006598,
                    0.10833169018306844,
                    -0.03696406381562636,
                    -0.007090189757948642,
                    0.07814134428906044,
                    0.057167740050875146,
                    0.047816773267843525,
                    -0.0027188464309758436,
                    -0.0519834286412008,
                    -0.10117917731114313,
                    0.040404360821473764,
                    0.3041209006348072,
                    0.2003631740577468,
                    0.20398586205922256,
                    0.23675236874277453,
                    0.5482730927002087,
                    0.42814723113065417,
                    0.42079347125006433,
                    0.04096305960191203,
                    0.06443226128180371,
                    0.05623753950718038,
                    -0.08018969658598575,
                    0.008860221632073586,
                    0.0693558081813895,
                    0.17014978334766964,
                    0.14868409157137386,
                    0.19631106141239185,
                    0.5322017540115592,
                    0.22755523327511742,
                    0.09475543986658296,
                    0.023136934478698624,
                    0.02551933197343691,
                    -0.04167532259651972,
                    0.014734858807955295,
                    0.09659291578592924,
                    0.08606868805262086,
                    0.1691229007929842,
                    0.033831216505890424,
                    -0.16367908553138766,
                    -0.07110622237536618,
                    -0.12941837194445607,
                    0.04795066671086799,
                    0.08828954919765197,
                    0.36903627656873406,
                    0.3830345091080235,
                    0.2821600244236543,
                    -0.1425302401148225,
                    0.2535398662648385,
                    0.13697297438599584,
                    -0.05599110239424397,
                    0.06728298679939006,
                    0.18372172368103123,
                    -0.05780559463783816,
                    0.16118000159363924,
                    0.24434229648307165,
                    0.4244120931484909,
                    0.22446442876905243,
                    0.10386944277511756,
                    -0.031842608835162795,
                    0.04318252328932714,
                    0.030175805369795992,
                    -0.05517671359399223,
                    -0.03698535536379114,
                    0.1350352998159382,
                    0.050392181329929384,
                    0.15347715698638345,
                    0.09191855906823844,
                    -0.04092265857935613,
                    -0.053673210236103976,
                    0.07780374532206087,
                    0.01596006784343713,
                    0.10169841199508321,
                    0.2597601322305607,
                    0.3128485634542634,
                    0.1931297224833141,
                    0.11496314878833157,
                    0.05504317569102514,
                    0.1490657338353042,
                    0.11416973048055895,
                    0.001511853134087709,
                    0.011760839991136671,
                    0.21230872225023012,
                    0.3534850607165543,
                    0.44158867398757956,
                    0.1451125016022298,
                    -0.00780139692304273,
                    0.05602102846986216,
                    0.010525119024031856,
                    0.027973546955513708,
                    0.07352790833351003,
                    -0.05561017072457563,
                    0.10896431882655261,
                    0.05914936438179761,
                    -0.10665547677441609,
                    0.014973770953867739,
                    -0.04419060559655306,
                    0.10546108157195246,
                    0.18491598048795274,
                    0.020928922672050054,
                    0.1852495869948159,
                    0.16438635042444188,
                    0.22241524198686508,
                    0.22290684546445685,
                    -0.01617156394882519,
                    0.16043720831800906,
                    0.0491638354956966,
                    -0.026312807033853657,
                    -0.1281721053053168,
                    0.08481634798437902,
                    0.45559138530720206,
                    0.4264334293647152,
                    0.2572864496678634,
                    0.12741651903869752,
                    -0.03081134215137046,
                    0.07083998969740975,
                    0.0020126693335090675,
                    0.007088400241834725,
                    -0.03841827355246047,
                    0.041839110043896476,
                    0.016082126933738883,
                    -0.06510504976508692,
                    -0.11825006464809192,
                    -0.3123953790855327,
                    -0.23416671962832397,
                    0.16498314673716172,
                    0.2099767717190934,
                    0.10784503950752711,
                    0.07718308103988727,
                    0.16575954555034667,
                    -0.0016098235949313035,
                    0.12088637548968713,
                    -0.12056294507749882,
                    -0.04019442037193262,
                    -0.01647592618975289,
                    0.10785439252672467,
                    0.18266935327527445,
                    0.4211789774938043,
                    0.5494246719195333,
                    0.4095108320148668,
                    0.24590659013067853,
                    0.0702884684646967,
                    -0.0358500442572489,
                    -0.03473037833798157,
                    -0.03581761025185147,
                    -0.020165281620060954,
                    -0.029565178947124796,
                    0.03466436368291579,
                    -0.14787974983420163,
                    -0.15141777747223253,
                    -0.2731699297014829,
                    -0.4253621942157156,
                    -0.5083111375959912,
                    -0.30341291002753523,
                    -0.3150777796255261,
                    -0.39400723479147776,
                    -0.11179747359666961,
                    -0.150998039891763,
                    -0.14321292332318358,
                    -0.00924806098425507,
                    -0.030760033430409117,
                    -0.0704906453624194,
                    -0.04719387130451059,
                    0.07654155091845039,
                    0.20826273806297896,
                    0.20358974270433378,
                    0.30928554209598547,
                    0.26755403901981084,
                    0.16749857261657866,
                    0.1002966179766363,
                    0.08230039027881292,
                    0.01272944923116568,
                    -0.049763047255435504,
                    0.015275721301008658,
                    0.02568051177272503,
                    0.06322200755027473,
                    -0.03793376098630326,
                    -0.014647312893904916,
                    -0.012170156913141827,
                    -0.0817222703858538,
                    -0.27687758488047254,
                    -0.39411238550523486,
                    -0.5038868963875424,
                    -0.4528299359567789,
                    -0.5194411749583863,
                    -0.48300037785967725,
                    -0.34496317398685583,
                    -0.1962053228220297,
                    -0.16837929345745023,
                    -0.046479678215393117,
                    -0.1013387155017003,
                    -0.04294694221006923,
                    -0.1247291279684181,
                    -0.02249450267420174,
                    0.016386189436303187,
                    0.02988054490687554,
                    0.03345314908181566,
                    -0.007317893608945741,
                    0.03544306866518792,
                    -0.02355877470050311,
                    0.033900054002784105,
                    -0.02802095899981489,
                    0.009502862411858036,
                    0.03911796204784855,
                    -0.04579499047691898,
                    -0.011843866432476006,
                    0.09405636211309447,
                    -0.024860387313359326,
                    0.03743694238998161,
                    -0.020877390641433107,
                    -0.1165928694442981,
                    -0.1032682971034278,
                    0.05025507529716885,
                    0.12949152902137456,
                    0.1700260244368759,
                    0.003737663269960087,
                    0.004837662811457947,
                    0.018214560608642332,
                    -0.0019167148643046599,
                    -0.019094513981475807,
                    -0.07942124200930106,
                    0.02433835549496567,
                    0.06204499379838244,
                    0.06330834124391427,
                    0.06019741936098108,
                    -0.08425892517490312,
                    -0.017549159270708835,
                    -0.08096333776173402,
                    -0.08333170540755509,
                    0.03245798258491129,
                    0.06811222098257173,
                    -0.0280807803777716,
                    -0.05438993993820373,
                    0.019546853210796456,
                    0.03508883450844135,
                    -0.029330002698128438,
                    -0.024298177371481038,
                    0.04894994742180056,
                    -0.011958883538366563,
                    -0.07620590260537542,
                    -0.05061774804821314,
                    0.07576115732756042,
                    0.04755643446054495,
                    -0.013826926058297193,
                    0.04733751780670217,
                    -0.09402143770619639,
                    -0.08762597155764237,
                    -0.08393236575413668,
                    -0.009394096631822566,
                    0.0029099188076724194,
                    -0.0014893534342008614,
                    0.06279720914459504,
                    -0.021536542904013436,
                    0.07883282823186713,
                    0.020726442944333064,
                    0.05146342794025324,
                    -0.025739772384571646
                ],
                [
                    0.07973863968399496,
                    -0.06519347349316615,
                    0.06361012127389877,
                    -0.058203594938271555,
                    0.012661954923010216,
                    -0.013460315559475843,
                    0.04634003470567053,
                    0.04642926204488549,
                    0.06410753508394083,
                    0.03879485340106466,
                    0.05891438467464526,
                    0.03698420601192849,
                    0.017107745472969376,
                    -0.038427006782410664,
                    0.0004331380055288195,
                    0.013037497393991728,
                    0.048339752037354494,
                    0.007514406534819738,
                    -0.050875862147760804,
                    -0.04203469344587125,
                    0.009059845534326639,
                    0.03232444997820302,
                    0.04510035767222794,
                    -0.01934152726443416,
                    0.003987027889424577,
                    -0.07010730427979789,
                    0.009420514781681742,
                    -0.009604149622956915,
                    0.025994884464893488,
                    0.04324450824082271,
                    0.05223277707262527,
                    -0.016733304345851158,
                    0.03683496851427268,
                    0.04757137171043145,
                    0.0761503409963367,
                    0.058294825604628106,
                    -0.05123950996592978,
                    0.03469153789546376,
                    0.057007515579763475,
                    -0.053233514280626816,
                    -0.07496602929677636,
                    -0.07728631200199176,
                    0.03905598460699929,
                    -0.039057899523876914,
                    0.026553785838636646,
                    -0.019566456893303472,
                    -0.08521165322972724,
                    0.035338980403548784,
                    0.017438758348502188,
                    -0.010981466264304018,
                    0.05472411203326337,
                    0.06248791767823982,
                    -0.05909920622748295,
                    -0.04926364097055366,
                    0.022528942877685677,
                    -0.06317507968559974,
                    -0.0027520937512568126,
                    -0.0559414434358787,
                    0.04038594209618436,
                    -0.06637302080251258,
                    0.020447339695778888,
                    -0.040309689560250876,
                    -0.07297180737983186,
                    -0.05748360566601288,
                    0.058721177517516474,
                    0.02032558740717777,
                    -0.08061605830664925,
                    -0.10232028574858736,
                    -0.12854501112773484,
                    -0.09788104427092861,
                    -0.16497467963925577,
                    -0.09601718886837857,
                    -0.06888619529325553,
                    -0.13022076935072524,
                    -0.08365589099961603,
                    -0.03298576747762142,
                    -0.042248772058430153,
                    0.007225046977506673,
                    -0.012534718038695391,
                    0.034797801547749946,
                    -0.012529495178838735,
                    0.012499107783498213,
                    -0.011302737229853947,
                    0.03870439830236746,
                    -0.08192894668839198,
                    0.07301949896513293,
                    0.0335561405744426,
                    0.029821324768623016,
                    0.027985489304942827,
                    -0.06278293387745272,
                    -0.024962796850361024,
                    -0.06652001207345903,
                    -0.12093195437368118,
                    -0.004623893175264917,
                    -0.1707948924440238,
                    -0.11119035424183911,
                    -0.2846067664177908,
                    -0.1850871694324257,
                    -0.1577606141775751,
                    -0.10912076847372269,
                    -0.03112731888803063,
                    -0.10730016399120898,
                    -0.1837813102413855,
                    -0.05518775986797128,
                    -0.07391950572239342,
                    -0.024284875228392015,
                    0.023139355517916498,
                    -0.03681089929962483,
                    -0.0503663172149623,
                    -0.0743886561624633,
                    -0.07708406051439545,
                    -0.04041669746837693,
                    0.04617671498148636,
                    -0.0017929295621861019,
                    -0.040446688907635864,
                    0.07472299631388502,
                    0.06354953448571063,
                    0.07639358839190019,
                    -0.08656327800359338,
                    -0.08942739437165939,
                    -0.02350621183644061,
                    -0.15559593163481844,
                    -0.27587738072378176,
                    -0.36533018209950296,
                    -0.30572730565455364,
                    -0.2988642084087746,
                    -0.3550749507328221,
                    -0.3474358351309236,
                    -0.3205878685624464,
                    -0.24498770027039155,
                    -0.17171328512255485,
                    -0.17944443715425562,
                    -0.060834841368868256,
                    0.05381758605148098,
                    0.04979862620587431,
                    -0.06344857607570231,
                    0.06818004502444736,
                    -0.004650765701493137,
                    -0.0558935362725285,
                    0.08090086246979813,
                    0.055304001837977915,
                    -0.08558827021319458,
                    0.07763381700863375,
                    0.04127194812146593,
                    0.07713286075237465,
                    -0.06163410114137739,
                    0.09139950106289511,
                    0.023787571916957826,
                    0.02561538753188187,
                    -0.08879852655320539,
                    -0.1644707962644574,
                    -0.3527233761296461,
                    -0.4067911294383809,
                    -0.3604206103859586,
                    -0.4501712667651008,
                    -0.4502460243083461,
                    -0.37346995840293584,
                    -0.39572180845958743,
                    -0.2309814478193259,
                    -0.3223803261753398,
                    -0.12259604025151905,
                    -0.1878832324369762,
                    -0.021959604674355277,
                    0.06710549342019491,
                    0.08022523016955398,
                    -0.029826663185806943,
                    -0.048337196477087035,
                    -0.04970223424898967,
                    -0.037175111529162384,
                    0.04150249978957066,
                    0.007490103981592447,
                    0.08522466118531152,
                    0.07486958745119135,
                    0.07197578423034343,
                    0.10325958745531637,
                    0.11240542298538218,
                    0.08201982694022168,
                    0.0019516335286930719,
                    -0.1938106331028466,
                    -0.14784521468437442,
                    -0.1366054779243615,
                    -0.23952880252516615,
                    -0.18894953538829995,
                    -0.21489050374385224,
                    -0.11571570005640089,
                    -0.11336191674724952,
                    -0.10687122016842235,
                    -0.2094070728638604,
                    -0.19571614856119487,
                    -0.10424330116916179,
                    -0.07488474444066502,
                    -0.09653418836256109,
                    -0.05398006760729722,
                    -0.0198823514741744,
                    0.06589972497627541,
                    0.0076811714460958205,
                    -0.08264170728555356,
                    -0.06211211939167917,
                    0.07718610455698606,
                    0.10010724380568596,
                    0.07034831462696528,
                    -0.03765926399381731,
                    0.14935829666781386,
                    -0.019002734322236606,
                    -0.042580602291718436,
                    0.003758538257851347,
                    0.06363939517762394,
                    -0.0691963352530298,
                    -0.026499941543309792,
                    0.08550079297963627,
                    -0.03547719614954042,
                    -0.024386771493891048,
                    0.09324251332658208,
                    0.04124008422137138,
                    -0.02102067468061292,
                    -0.08327256440017539,
                    -0.034958263302932245,
                    -0.11261123563417448,
                    -0.09487126076750428,
                    -0.14235942908054325,
                    -0.021805367501597905,
                    -0.13106900801013852,
                    0.06144712895481819,
                    -0.06840192733510789,
                    -0.07880166568003664,
                    0.01779521270758067,
                    0.03516918672862263,
                    0.012169957403273113,
                    0.08426136254262385,
                    -0.031855003991028655,
                    0.061505633496342776,
                    -0.03794348057750194,
                    -0.00041149316352652975,
                    0.0038737478735528874,
                    0.03575907884633698,
                    0.12252577698554212,
                    0.12872956272487662,
                    -0.04466048941139524,
                    0.05080780262470839,
                    -0.0826810155034363,
                    -0.1976166072899942,
                    -0.02263767088260835,
                    -0.03218146716106588,
                    -0.1426997948245475,
                    -0.05750877320539114,
                    -0.25073194405634763,
                    -0.21018232268786077,
                    -0.1586283312799218,
                    -0.12987772460746502,
                    -0.16738107187037296,
                    -0.08885235277794709,
                    0.04765118724263964,
                    0.04658953248416445,
                    -0.019418016401588266,
                    0.08450431831950427,
                    -0.028907080780182556,
                    0.015212765335414598,
                    0.0916876224096692,
                    -0.039966334009529834,
                    -0.012734252286936632,
                    -0.09207677281952177,
                    0.057514386748051156,
                    0.20338246581490277,
                    0.23758472226611405,
                    0.2689530593546446,
                    0.1384543491796808,
                    0.060393539232025825,
                    0.09638442670398537,
                    -0.034861297130554275,
                    0.09484484817167023,
                    0.0924637870727097,
                    0.03153735609645134,
                    0.07894368655997376,
                    -0.18781870722097657,
                    -0.023905313229312632,
                    -0.34271913678050003,
                    -0.3084923447627586,
                    -0.2773289108617633,
                    -0.14251496028370964,
                    -0.06708137544660568,
                    0.028527172700113217,
                    0.04038142754592914,
                    0.07166901985513584,
                    0.06635455784266149,
                    0.04574106720852114,
                    0.00014130027729572985,
                    -0.023555420889042628,
                    0.06506840087642735,
                    0.04339981272071606,
                    0.22447668668359438,
                    0.19793259497658142,
                    0.048510438376664335,
                    0.23820849388713777,
                    0.2249231264984498,
                    -0.03892011709549332,
                    0.11977996134983462,
                    0.08119290644525885,
                    0.025696483531444464,
                    0.15979485812742,
                    0.07139180204436033,
                    0.1775279453429872,
                    -0.02426688041308488,
                    -0.11710156083387553,
                    -0.39572651200200815,
                    -0.4720563095628962,
                    -0.3056701856274873,
                    0.003121898278554207,
                    -0.04652335386056324,
                    -0.04405542495898653,
                    -0.03239881795486292,
                    -0.05077320897844331,
                    0.046091837753522547,
                    0.03391976935069733,
                    0.018761945952489225,
                    0.21010382215998746,
                    0.2624932019877833,
                    0.23526381713228256,
                    0.17760675004211485,
                    0.17131843679875616,
                    0.2119389520917126,
                    0.031602177957483706,
                    -0.17829519307602285,
                    -0.11091855639626481,
                    0.4164727109996175,
                    0.28967182604061814,
                    0.2611169976199277,
                    0.27290251002811156,
                    0.06506960050895637,
                    0.14688244897651867,
                    0.07394809424479297,
                    -0.10955000744816625,
                    -0.38647676728761376,
                    -0.5022422686873791,
                    -0.23336394193520554,
                    -0.10361422566284866,
                    -0.007885274275064937,
                    0.023686443498182323,
                    0.05707231330044559,
                    0.09505470457448398,
                    0.06870437531287511,
                    0.03312400387708118,
                    0.07062696956536764,
                    0.14151418167739097,
                    0.16599099538778656,
                    0.20051388341530946,
                    0.007839847111286045,
                    0.1548460883525174,
                    0.1266215956116168,
                    -0.08094592681190113,
                    -0.3458031324766333,
                    0.051247047374624544,
                    0.34519578101722825,
                    0.4166492267262963,
                    0.3221796116488905,
                    0.28477278348039464,
                    0.2516131089652043,
                    0.235005455042079,
                    0.16555556001927405,
                    -0.060027479000919176,
                    -0.20269286852836432,
                    -0.13998154784712302,
                    -0.037506148245911856,
                    0.036597905666578966,
                    -0.0549594493313572,
                    -0.013359478932541474,
                    -0.07865729717169992,
                    0.04050125597705804,
                    -0.06653992136957369,
                    0.07562728425355539,
                    0.07820465688691566,
                    0.27156870135114036,
                    0.061072243401499804,
                    0.010260199976055694,
                    -0.07120686526007931,
                    0.03672792910701625,
                    0.028218380761340076,
                    -0.24399170867638503,
                    -0.17461017903119738,
                    0.1249720890516371,
                    0.3417769258814522,
                    0.3028178357328843,
                    0.29897746416063226,
                    0.2078343833220022,
                    0.08888046491730106,
                    0.25547216944569134,
                    0.21076682161512458,
                    0.0953954593964898,
                    -0.06379508211117915,
                    -0.05976064680590867,
                    0.08610491564624696,
                    0.016504115571301034,
                    0.036827428256353545,
                    -0.01149111681592328,
                    -0.06230322173483213,
                    0.03836160073278851,
                    -0.038557691867037815,
                    0.13374868810226687,
                    0.08269554413860361,
                    0.2111694091900463,
                    0.14794994237358686,
                    0.12881323253793026,
                    0.06709263046742331,
                    0.014643127484062766,
                    -0.038145060572321365,
                    0.001110000174845518,
                    -0.1558070862149039,
                    0.09449682223384326,
                    0.3953637976633374,
                    0.4417056636966333,
                    0.4125234675383171,
                    0.3192989955881308,
                    0.4004931766199488,
                    0.2278129709221622,
                    0.09123867964958067,
                    0.16532436936638384,
                    0.030947886947607427,
                    -0.11584031206330861,
                    0.05996004227862074,
                    -0.00013780201720327734,
                    -0.05074666043026336,
                    0.027112879053170714,
                    -0.037082306707459406,
                    -0.08071179308747096,
                    0.02442761750606511,
                    0.14034243985616185,
                    0.15149459607972984,
                    0.16718841598371367,
                    0.020182635676631668,
                    0.13127374690824464,
                    -0.07698150357003956,
                    0.08237894800305919,
                    0.037326981300439446,
                    -0.04240120868844471,
                    -0.0993648105733886,
                    -0.016701743858791387,
                    0.3285655093495219,
                    0.23431047896997373,
                    0.4816309763602587,
                    0.2795719433818309,
                    0.34946084513329306,
                    0.21296068415575828,
                    0.1513997316220949,
                    0.14792054340915362,
                    0.08972559073359648,
                    -0.12048821264625922,
                    -0.03228175759634106,
                    0.10642322516917116,
                    -0.025593989201978338,
                    -0.028776069310947554,
                    0.03629728746939101,
                    0.014345856674018333,
                    -0.08044617412390581,
                    0.0163263618149813,
                    0.07910998039608505,
                    0.1709834611481596,
                    0.38280398855152753,
                    0.24436458968976613,
                    -0.02988904116132361,
                    -0.12842842612186728,
                    -0.07314762852363131,
                    -0.11819688514908872,
                    -0.11748496778733528,
                    0.019816566597016784,
                    0.39538936758766247,
                    0.30916879041306616,
                    0.48924979045925854,
                    0.3207579612193471,
                    0.2531365662758274,
                    0.2015751615655678,
                    0.2478905466110171,
                    0.13502282377429262,
                    -0.09428868523925506,
                    -0.056944071286081636,
                    0.02603288783806615,
                    0.08209378712313675,
                    0.03272868884364375,
                    0.035379507966586864,
                    0.02077498226323445,
                    -0.030070743010478358,
                    0.039905377542956394,
                    0.04540490806048442,
                    -0.020973532295825523,
                    -0.010432200284385365,
                    0.17300782929998995,
                    0.18883858907041978,
                    -0.05861190103154755,
                    0.011149381786671686,
                    0.0074534043644372714,
                    0.059392370858433505,
                    0.06928896769399398,
                    0.33699028615117205,
                    0.5060647573650315,
                    0.2763609510071672,
                    0.22605783515789157,
                    0.2578981263116136,
                    0.0905764709227867,
                    0.18827512070309943,
                    0.0627907682745866,
                    -0.11055350139871596,
                    -0.053965060733399406,
                    0.02130888163187497,
                    0.03627973244594547,
                    -0.06262292048041934,
                    -0.031120567731570025,
                    0.017743617483195268,
                    0.004161545836757498,
                    -0.050211231925061196,
                    0.04537899040035467,
                    -0.007181735295793421,
                    -0.171049193614112,
                    -0.13001712590011968,
                    -0.18079302755273496,
                    -0.06509697493584939,
                    -0.2423335008475803,
                    -0.3012723822831538,
                    -0.040344066690385004,
                    -0.010669068487745518,
                    0.04088112828334376,
                    0.14144023851438897,
                    0.18341959561427396,
                    0.06394767249445778,
                    0.03806584910247536,
                    -0.05857447075907561,
                    0.04173036591213308,
                    -0.005257426444823094,
                    -0.0293376678273256,
                    -0.13879382138922433,
                    -0.08707322036323499,
                    0.019796849312733494,
                    0.05614561015450125,
                    0.0517470127894133,
                    -0.05113271587082346,
                    0.04766252181398828,
                    -0.008918683841410332,
                    0.0071299295242585456,
                    0.008497764031895066,
                    0.06482306800109985,
                    -0.19756465247453261,
                    -0.2614030157572973,
                    -0.2845998474098142,
                    -0.38984914115072855,
                    -0.5024374830281432,
                    -0.4967482585808177,
                    -0.2837036713988386,
                    -0.45926239966295973,
                    -0.3497482649346887,
                    -0.15544208595248818,
                    -0.2865896544040153,
                    -0.2956840415125642,
                    -0.4392367995254099,
                    -0.45951540833808174,
                    -0.2605339119381292,
                    -0.23951877021276255,
                    -0.1717860039859716,
                    -0.34055363783574577,
                    -0.10938492367602198,
                    -0.05597592459122985,
                    0.08705245317490232,
                    0.07432812977171875,
                    -0.06418223988677123,
                    0.0057811996006901945,
                    -0.022845377739740918,
                    0.010264406917767688,
                    0.021700290804301883,
                    0.003037158753054783,
                    -0.24661406583779108,
                    -0.41923790874649386,
                    -0.47396697433793245,
                    -0.6670290645314376,
                    -0.641060194018025,
                    -0.7190015662203404,
                    -0.5784017456850703,
                    -0.5615612133417487,
                    -0.5195594680166907,
                    -0.544701496565387,
                    -0.4223640541281191,
                    -0.39173928745990777,
                    -0.5006362819430051,
                    -0.4858703492711506,
                    -0.366892909127022,
                    -0.4071321739086582,
                    -0.36993571501866007,
                    -0.26223249256322584,
                    -0.2712156771290722,
                    0.08087280707386392,
                    -0.00017849060764178396,
                    0.015634480469040004,
                    -0.04359956366728713,
                    -0.01631713036880177,
                    0.019744416109433203,
                    0.03150508729351289,
                    -0.05931819465074003,
                    -0.057520759093484274,
                    -0.2286895851968293,
                    -0.41193821619458865,
                    -0.4344909248061605,
                    -0.32510756119503403,
                    -0.4499778198200381,
                    -0.3899579745477573,
                    -0.3026975878530692,
                    -0.34764400654190697,
                    -0.38956312714853436,
                    -0.5283113483157633,
                    -0.5263244953076466,
                    -0.3313469761726292,
                    -0.49873943285905736,
                    -0.46793937463856844,
                    -0.3991760520559964,
                    -0.40697835774019,
                    -0.31673782230905534,
                    -0.28873685053927356,
                    -0.09317651421634059,
                    0.04057011956917561,
                    -0.05926110489268377,
                    -0.08113038377737546,
                    -0.016763535593436973,
                    0.07981881270264558,
                    -0.04423887157228709,
                    -0.023583863962009205,
                    -0.06290239917175225,
                    -0.035633780919735236,
                    -0.2008531819010256,
                    -0.22421857833315087,
                    -0.07352066135456371,
                    -0.21072630681419674,
                    -0.21210101660613417,
                    -0.0939207778947273,
                    -0.20232511577849882,
                    -0.17060074248543214,
                    -0.29132865708530054,
                    -0.19743292482383956,
                    -0.32486950570068224,
                    -0.3240590479363993,
                    -0.3405304472946505,
                    -0.46265174743085574,
                    -0.24044642230518537,
                    -0.4269749448128028,
                    -0.36058062912816335,
                    -0.2391892380563472,
                    -0.15294861375856542,
                    -0.05217849433288455,
                    -0.0627857312577778,
                    -0.024223961968740066,
                    0.0435792926415346,
                    0.03059673832441032,
                    0.045844313011621785,
                    -0.08301335374825404,
                    0.0364883515765934,
                    -0.11830236835071006,
                    -0.0202784226819505,
                    0.04983879194583769,
                    0.10753329625226554,
                    -0.10752642387276624,
                    -0.18269268736000158,
                    -0.15807897686822794,
                    -0.16125115799258913,
                    -0.2733022549688519,
                    -0.195258926472556,
                    -0.16463026652597723,
                    -0.4501823136567591,
                    -0.30857737611221414,
                    -0.26225512065090933,
                    -0.22412575076719324,
                    -0.25799691749906284,
                    -0.3558232769148977,
                    -0.21350446798145786,
                    -0.10290708258901864,
                    -0.0440025779200359,
                    -0.11052471515316466,
                    -0.08430559038332748,
                    -0.024726424978285942,
                    -0.08569183020739511,
                    0.06808738220896661,
                    0.012807019797590692,
                    -0.0229887965305773,
                    -0.0922073245461563,
                    0.07963782240198239,
                    0.11412197549714995,
                    0.20617705584636833,
                    0.1931423597200629,
                    0.03370290735536572,
                    -0.01786980049785199,
                    0.011438276098595405,
                    -0.0712436727501851,
                    -0.2614755943197348,
                    -0.2903416781190936,
                    -0.2895677390262202,
                    -0.25590527195415397,
                    -0.14168838899067354,
                    -0.17463485963824465,
                    -0.14686839817990405,
                    -0.10020644959679363,
                    -0.12482686224486497,
                    -0.010507362847750794,
                    0.015692956753956384,
                    -0.07608273202436322,
                    0.007758504287833858,
                    -0.08225053168454896,
                    0.04031651112448423,
                    0.029458248902783764,
                    0.03180861382217593,
                    0.05991783797520068,
                    0.05145025432810688,
                    -0.07844178144472108,
                    0.057369112447016354,
                    0.0654563161716665,
                    0.10896805366158778,
                    0.14211390680829,
                    0.04907219740239246,
                    -0.06597818859640549,
                    -0.050028859059344885,
                    -0.005470329307327288,
                    -0.01149413689199696,
                    -0.10526919164083012,
                    -0.10771320858273319,
                    -0.08739701819209873,
                    -0.06780228004671646,
                    -0.13320700107177325,
                    -0.16615430021253955,
                    -0.04469624566035241,
                    0.021635771720787497,
                    0.02863861237898123,
                    0.01010280867749627,
                    -0.009859455541527095,
                    0.035889969291033025,
                    0.06432665013608757,
                    0.08523501556324943,
                    -0.037601094911168635,
                    -0.07895216076905624,
                    -0.07231695811787546,
                    -0.06785011863267434,
                    -0.02050863939169036,
                    0.03411197239507304,
                    -0.006308880482673103,
                    0.016093546640988356,
                    0.05174891131272293,
                    0.00045307556503381563,
                    0.14445757370196585,
                    0.16507019853401675,
                    0.03543990233882248,
                    0.0005910587907730568,
                    0.09998732268248277,
                    0.2163465838774661,
                    0.1892140017486697,
                    -0.017308777488574935,
                    -0.014560147428283253,
                    0.004195808937220877,
                    -0.038183735465183694,
                    0.010053403054594531,
                    0.10416890036947224,
                    0.08205005358112505,
                    0.0438238151406578,
                    0.06329895482716422,
                    -0.07821818844916609,
                    0.029477151187300384,
                    -0.01893432884761854,
                    -0.01077509951474798,
                    -0.06430877005592608,
                    -0.042702626752073355,
                    0.08428935540647406,
                    -0.07613011201257375,
                    -0.025944782357993492,
                    -0.04978921129075199,
                    0.012071252085076218,
                    0.08080313131494792,
                    -0.07307540883501808,
                    -0.055615861773000576,
                    0.07300734342285768,
                    0.0031257813608475834,
                    0.045457243437227374,
                    -0.0029415373831869988,
                    0.01721069443377271,
                    0.09442660161715268,
                    0.01883215783964776,
                    -0.00551866554501237,
                    0.07805163915743557,
                    -0.00784625754692726,
                    0.006393151814402028,
                    0.06123288991125765,
                    0.06044845651697359,
                    0.06645937802656202,
                    0.0383183018650332,
                    -0.047128311037517814,
                    -0.012937661754798001
                ],
                [
                    -0.03308221078300795,
                    -0.02431024150998247,
                    0.027433817204531457,
                    0.013179286647312822,
                    -0.06870451921329498,
                    0.08328788795479346,
                    -0.00982959454928532,
                    -0.02266646679957936,
                    -0.02595119949337626,
                    0.0742633676928753,
                    -0.08483913334251188,
                    -0.06757687557961993,
                    0.0011083874344829437,
                    -0.08993826546295777,
                    -0.06955554009612341,
                    0.0034771404075461883,
                    0.03492007420303088,
                    -0.08494270617720946,
                    0.07396297768182071,
                    -0.07152323790660084,
                    0.03648420095483769,
                    -0.03517100764502831,
                    -0.057067629160380315,
                    0.058749641353469,
                    0.07849931292077211,
                    0.05945688665824764,
                    0.027244079146838643,
                    -0.08268437082665635,
                    0.0720511107889041,
                    0.00746238996526302,
                    -0.054002782738932095,
                    0.04328512287845591,
                    -0.037153765948869454,
                    0.05639828782171514,
                    -0.052754855230323534,
                    -0.0663740705888812,
                    -0.11297403881499198,
                    -0.0009385904668324195,
                    -0.06109534355718277,
                    -0.07339339551016248,
                    -0.05741983215737833,
                    -0.10555936337800564,
                    0.01825786678110676,
                    -0.05391142369807681,
                    -0.0008575186665092515,
                    -0.06186742785019697,
                    0.05045075981405155,
                    -0.06998789060999254,
                    -0.09212033318383483,
                    0.04512486942439282,
                    -0.06723182058089522,
                    -0.012519951992633368,
