{
    "Layers": [
        {
            "Weights": [
                [
                    -0.07441243440292497,
                    0.0868998421071735,
                    -0.021028067790719703,
                    -0.01714772495811799,
                    0.07508433863388446,
                    0.03407579087895572,
                    0.06962404841729364,
                    -0.05146730540501986,
                    -0.03267264354739339,
                    -0.09645034699295232,
                    0.07842710375660572,
                    0.01309401312301578,
                    -0.02579964998097976,
                    0.005783419086320919,
                    -0.021723938458163613,
                    0.02730427897419371,
                    -0.03417918338127716,
                    -0.017938752065493172,
                    -0.035571332014656294,
                    -0.06377919399457647,
                    0.026937218614177475,
                    0.0035650438881191186,
                    -0.037137342398123455,
                    0.13606430448622744,
                    -0.024508023656302145,
                    0.0017366785616201841,
                    -0.020011271775407756,
                    0.055267964287926595,
                    0.029347550503477215,
                    -0.06497094824698904,
                    -0.06172124389502542,
                    -0.07531353437431157,
                    0.08392511022417115,
                    0.05243524827567685,
                    0.00857929732657852,
                    -0.01677935528324001,
                    -0.01262144014182942,
                    -0.025154112357520547,
                    0.02832436048987255,
                    -0.11071067542311883,
                    -0.021799333456575625,
                    0.019374543229897134,
                    -0.009418591699357265,
                    0.03498682589564244,
                    -0.046506372405790156,
                    0.02000484549968834,
                    0.03634361052667015,
                    -0.03423708538910612,
                    -0.008894809386204502,
                    0.014320698186847,
                    0.0940830344422227,
                    -0.11732266792827857,
                    -0.01872567894971184,
                    0.03287095750103566,
                    -0.03929183776783424,
                    0.039019831251973766,
                    -0.011246504524900154,
                    0.027643881884038057,
                    -0.023673567258661845,
                    -0.05161422329833485,
                    -0.007616066900498713,
                    0.021984373781679795,
                    0.025329173501075213,
                    0.04853488389303806,
                    -0.032507153713945754,
                    0.002039936716859588,
                    -0.035036202341371406,
                    -0.07345366695238456,
                    -0.03957227432354869,
                    0.003454250968190914,
                    -0.08212060676414375,
                    -0.06908177870766,
                    -0.07398970253131153,
                    -0.07019108901361411,
                    -0.038224901852829216,
                    0.07218593991992653,
                    -0.05545992048004081,
                    -0.02272953975766993,
                    -0.034300762706917086,
                    0.017155859865873018,
                    0.003048764862285092,
                    0.002424551670699921,
                    -0.018395056747542046,
                    0.046789126321403404,
                    -0.0170726924537225,
                    -0.08916851038360403,
                    0.03429245474583052,
                    -0.037357852946254246,
                    0.06319335428186049,
                    -0.01016917405850224,
                    -0.028965544321726357,
                    -0.012953835296240723,
                    0.0026039180907100282,
                    -0.0039435130556492335,
                    -0.1050067303338843,
                    -0.0383632178166295,
                    0.024124699163990227,
                    -0.07606314228904619,
                    -0.07698482801336827,
                    -0.13271462591361713,
                    -0.14225899033211942,
                    -0.003571297000483224,
                    -0.014182918062463188,
                    0.02656646897206559,
                    -0.06129202322579607,
                    0.00770257768383616,
                    0.09885242737386048,
                    -0.0014593046969256492,
                    0.01978736243622806,
                    -0.023403958172890465,
                    -0.02090313252794337,
                    0.07240526452893017,
                    0.052599225723160434,
                    0.05508093502495958,
                    0.02542892592461699,
                    0.018735438623809855,
                    -0.06491887134425425,
                    -0.05328333004144557,
                    -0.07391514686391534,
                    -0.05333971543136311,
                    -0.047622500305508755,
                    -0.05063787823409122,
                    -0.10700320241550507,
                    -0.07606311861656871,
                    -0.018161648370143994,
                    -0.1738768623171651,
                    -0.10124707115215911,
                    -0.18043803199800812,
                    -0.004870077716394922,
                    -0.04752811029308055,
                    -0.0718020813603466,
                    0.02471463716159956,
                    -0.011694184827142412,
                    0.0005761165366231251,
                    -0.03291352391374276,
                    0.02832979369508066,
                    0.04679185306198303,
                    -0.055602148459547286,
                    -0.029591497571871763,
                    -0.00223051946562537,
                    -0.022507342187798825,
                    0.09654876104744921,
                    0.07084662922528576,
                    -0.0914723983445,
                    0.03839359616119898,
                    0.02376552474737727,
                    0.06771080364978016,
                    -0.04141739658577111,
                    -0.11133262474258324,
                    -0.08373823261774935,
                    -0.004778245661064647,
                    -0.06706377928740782,
                    -0.03479714313337495,
                    -0.08944524915608802,
                    -0.08047987825197571,
                    -0.0025045185970608876,
                    -0.06066499737950476,
                    0.01420526828105663,
                    -0.012654915248210863,
                    0.04642664811639448,
                    0.07148963626718609,
                    -0.016977109609134847,
                    0.049379119160332205,
                    0.06290313295937434,
                    0.0995991115585613,
                    -0.023939671412564485,
                    -0.026443138378097298,
                    0.03236451995090768,
                    -0.04212254812360401,
                    0.08861723697412952,
                    -0.015496125957454785,
                    0.07831577194061597,
                    -0.08160918289875689,
                    0.08123959560546822,
                    -0.021299249285930417,
                    -0.005055281716079965,
                    0.006666586827922853,
                    -0.07352284434295027,
                    -0.03530851946413289,
                    -0.017873784712593488,
                    -0.021026314618421096,
                    -0.029071949084566315,
                    -0.08142546132114309,
                    0.040549206520044144,
                    -0.0668193083268251,
                    -0.11254631621871769,
                    -0.06672060581699876,
                    -0.08926159170952391,
                    0.025995623629206467,
                    0.07039527868810436,
                    0.084582364485645,
                    0.04822949229068424,
                    0.012418369223217677,
                    0.030092428153688098,
                    0.05708154126669195,
                    -0.0354080396860232,
                    0.07991310939411331,
                    0.07708937425732917,
                    -0.01875820458548415,
                    0.016170134246434476,
                    0.13717222352577577,
                    -0.0467933672455756,
                    -0.05841711274314835,
                    -0.008494080645907787,
                    -0.05456665354565033,
                    0.01911633056988386,
                    -0.0650358431442409,
                    0.08833154544921452,
                    0.03168496184723298,
                    -0.027129916052102264,
                    -0.012948228264128427,
                    -0.04456360343752509,
                    0.005675519557850764,
                    -0.0022538020146039596,
                    0.019623088679743453,
                    0.09780075993877106,
                    0.013365616028274158,
                    0.11140627194098789,
                    0.05994458503784787,
                    0.13160304212382495,
                    -0.06687591200734669,
                    0.028602831560183752,
                    0.11001191677705345,
                    -0.016808398035509847,
                    0.04542736433958386,
                    -0.013885840477265031,
                    0.027524323176444206,
                    0.029326567433704372,
                    -0.008219845262103266,
                    -0.013702316428259033,
                    0.013650670604690218,
                    -0.022290511322144244,
                    -0.06225866628489631,
                    0.018005891400685477,
                    -0.06422801458904771,
                    0.0201220316319142,
                    0.09419300189260812,
                    -0.05836924511691778,
                    -0.029940068188775773,
                    0.032142753330813144,
                    0.030411486671300357,
                    -0.051250577768240074,
                    0.02294613035792146,
                    -0.12497339825115267,
                    -0.0540692183933568,
                    0.05042601011227638,
                    -0.09189872652633466,
                    0.007771709417786354,
                    0.03778798076186286,
                    -0.03703330968707931,
                    -0.0841835230632258,
                    -0.06717657538666769,
                    0.030265791371863103,
                    -0.057706943370643596,
                    -0.07773000939811034,
                    -0.04688500586835491,
                    -0.018944035596285574,
                    -0.06559279515383766,
                    -0.10800074125347325,
                    -0.07849911525950183,
                    -0.06925164951333715,
                    0.07259844990394404,
                    0.007744204510236664,
                    -0.012958565752529011,
                    0.0006224058998966246,
                    0.0314830270680151,
                    0.05783795130395917,
                    0.15489168783588614,
                    -0.03659940446880212,
                    -0.034192816316886664,
                    -0.03634932390168105,
                    -0.016545470178750556,
                    -0.027767908090544614,
                    -0.05765116640974252,
                    -0.03450804285800823,
                    -0.03629266027800373,
                    0.022475997272001346,
                    -0.051529325915261506,
                    0.0070849674417313435,
                    -0.05933426083513611,
                    0.0057168389112443605,
                    -0.021829971924634175,
                    0.07769310358804815,
                    -0.028864764359757617,
                    -0.037664372120454113,
                    -0.10551131260983128,
                    -0.05860906187305837,
                    -0.051225463245728936,
                    -0.0008192116354633978,
                    -0.015356195994369362,
                    0.004727215207163748,
                    -0.0034380985373688396,
                    0.12076004236363432,
                    0.03836410621997234,
                    -0.008409724258206765,
                    -0.003576949247879003,
                    0.06913363656324162,
                    -0.005842404809965102,
                    -0.011135381387434078,
                    -0.0833945286029734,
                    -0.04791584840267302,
                    -0.060314891503262656,
                    0.019419061544895744,
                    0.00704611663121993,
                    -0.03553083381334622,
                    -0.016218491181954068,
                    0.0657172825923484,
                    -0.0128955082560623,
                    -0.04632765385927047,
                    -0.11797472147218756,
                    -0.10876328112771069,
                    -0.09802091452197134,
                    -0.05300616415249757,
                    -0.050588967616003185,
                    -0.12672893355473808,
                    -0.04234769320416882,
                    0.04972788347213659,
                    0.11761182818811998,
                    0.14030493757420495,
                    0.0932391529403536,
                    0.10265847357628942,
                    0.0860803101994603,
                    0.049547645911161384,
                    0.0331236960810511,
                    0.028654645979818046,
                    0.018934115294415164,
                    -0.008136835946480592,
                    -0.029350322525757037,
                    -0.04678326717010503,
                    -0.1064455918195129,
                    -0.07776338214211058,
                    0.08646348703249296,
                    -0.0593999272585994,
                    -0.020926933795007444,
                    -0.017492598647341085,
                    0.0016347679754861884,
                    -0.034821284512900896,
                    0.05730611367959548,
                    -0.12373329737718033,
                    -0.009497367573111985,
                    0.00033279444128470634,
                    -0.03621238655492037,
                    -0.010426541050158479,
                    0.02550250251451273,
                    0.006557773771192088,
                    0.047194052302670944,
                    0.001746380681989552,
                    0.13569129896740056,
                    0.2851879323502307,
                    0.15505581635621105,
                    0.08947067297674036,
                    0.0886756281365955,
                    0.1326135423257101,
                    0.08328592582711512,
                    -0.00546151499304247,
                    -0.08234679063855767,
                    -0.08354056914400085,
                    0.11169517870041111,
                    0.096225137994613,
                    -0.0599758848851907,
                    0.043712806753732195,
                    -0.1227042865368996,
                    -0.07763353776292016,
                    -0.005344355059515202,
                    -0.0012750866643586654,
                    -0.08622448937106658,
                    -0.030594714182909967,
                    0.01891636071027302,
                    -0.15811600431767325,
                    -0.07604262198591902,
                    -0.05343151811110504,
                    -0.09066213562698353,
                    0.04416067775838347,
                    0.07765983941126439,
                    0.018720689518170627,
                    0.029745978340712038,
                    0.13967270775141377,
                    0.05951677326198433,
                    0.09826152891930769,
                    0.15835156335794595,
                    0.12019319698585311,
                    0.06697175876823439,
                    0.015329741398652683,
                    0.057717491357565355,
                    0.02795683783483863,
                    0.023467723597437568,
                    0.017322539729633313,
                    -0.02741553244135522,
                    -0.045694958834592056,
                    -0.10814467144884306,
                    -0.021659875826741424,
                    0.021118411095273553,
                    -0.04420174415456757,
                    0.11841563922065929,
                    0.04680465029833889,
                    0.02753512176258582,
                    -0.08709751132381811,
                    -0.051246264369624504,
                    0.03145920300465657,
                    -0.058524451985899825,
                    -0.04433013116469865,
                    0.01199185623959907,
                    -0.055338192013435476,
                    -0.00986823936550961,
                    0.10523349820119446,
                    0.11904233398406439,
                    0.22899194002365267,
                    0.1409077521435965,
                    0.05190563349509171,
                    0.06634682111001537,
                    -0.006234222413076293,
                    0.06713789793108052,
                    -0.09889651589764899,
                    0.041307991923178376,
                    -0.09134005284744112,
                    -0.11016073951303894,
                    -0.11543779389584675,
                    -0.06000000025199081,
                    -0.009776123023736672,
                    0.07102222977243215,
                    -0.06945150315438543,
                    -0.021101842364230485,
                    -0.01298969482842341,
                    0.05695821490920865,
                    -0.001210840736524695,
                    -0.13757957052477923,
                    -0.18469060529789383,
                    -0.0888183910128059,
                    -0.1410214775089632,
                    0.02553086040178494,
                    0.002962732374300114,
                    0.09162638965378773,
                    0.2021083029207628,
                    0.13039616918922894,
                    0.13142061568306063,
                    0.17272171773411246,
                    0.11040300202465012,
                    0.06530195111839363,
                    0.0054544183151492166,
                    -0.0545539975860504,
                    -0.1698117147994072,
                    -0.10767701724424558,
                    -0.07052260457383489,
                    -0.12749462801092934,
                    -0.075017502620514,
                    -0.07552350562977635,
                    0.0056399241601052695,
                    0.022503261597343494,
                    -0.05249203346114627,
                    -0.1176117372033035,
                    -0.12563456552203764,
                    -0.010373169812156535,
                    -0.022779302077878,
                    -0.036409400650204995,
                    -0.09293170628221388,
                    -0.05193124573512362,
                    -0.06131399802630846,
                    -0.05306472493911072,
                    -0.01166052822740586,
                    -0.03284852885784414,
                    0.08915167703602549,
                    0.15551182728670307,
                    -0.009767070138553276,
                    0.13204391974383767,
                    0.08040424803878682,
                    0.07951610110519343,
                    -0.0985864176690931,
                    -0.1167914697936255,
                    -0.06163510550062325,
                    -0.07922628576704543,
                    -0.21375876220683337,
                    -0.09797708094227482,
                    -0.04952454977441081,
                    0.002651997999689295,
                    0.0009496441670356786,
                    0.021527443349632757,
                    0.09549599736557615,
                    0.07801523833826639,
                    -0.09033727526729786,
                    -0.10211354324855683,
                    -0.03886845899659597,
                    -0.017380738191340304,
                    -0.18566492743129584,
                    -0.12295512232098989,
                    -0.025090126506630013,
                    -0.047791596393641694,
                    -0.0017689571881980037,
                    -0.03364762172040912,
                    0.09147877184019684,
                    0.011334447963081976,
                    0.044876821768975485,
                    0.02082362694348672,
                    0.10130946503075654,
                    0.004987803406207931,
                    -0.06628664677449791,
                    -0.16298021426934758,
                    -0.011995321197399584,
                    -0.12000628141934142,
                    -0.17906310621298005,
                    -0.07836403414121945,
                    -0.011584766574331174,
                    0.0202882545531438,
                    -0.0056882607868036185,
                    -0.1295921649615055,
                    0.0326570040784198,
                    -0.014365867503891693,
                    -0.02332702040819585,
                    -0.0003977374409338894,
                    -0.03386727467491213,
                    -0.1946042381268022,
                    -0.010899223698209597,
                    -0.1055138270414105,
                    -0.0880087804685231,
                    -0.07338566515891883,
                    -0.016998893992631558,
                    -0.04899681599199933,
                    0.051325793490247004,
                    0.08216162444789853,
                    0.06420538576046778,
                    -0.09061631239965812,
                    -0.012586619614374328,
                    -0.17285445575104152,
                    -0.10194990768670563,
                    -0.12451698997358307,
                    -0.15902232159054494,
                    -0.07515236796468633,
                    -0.07122854575499799,
                    -0.0500704470012911,
                    -0.04630019988164572,
                    -0.03823409004919638,
                    0.00022461614708855216,
                    -0.08585619768215068,
                    -0.0062137869188707085,
                    0.02065313622041794,
                    -0.06413039562723351,
                    0.06610635414299922,
                    -0.054299472253096843,
                    -0.1353967139120667,
                    -0.13857126643928705,
                    -0.06324989580426095,
                    -0.07129449317750045,
                    -0.12157857125546374,
                    -0.0865596741783849,
                    -0.04017157258257327,
                    -0.016065142069545818,
                    -0.06912267464895104,
                    -0.008550528473684604,
                    -0.030501214781142934,
                    0.044907408707847096,
                    -0.05153072621148856,
                    -0.09737543264963094,
                    -0.24176512974601608,
                    -0.12187161878565198,
                    -0.185054881593216,
                    -0.1098866452944277,
                    -0.03678490356887153,
                    0.04045575842106916,
                    -0.0023204155172750363,
                    0.013645197880937297,
                    0.06006029442112385,
                    0.048196829267282686,
                    -0.022684141468352435,
                    0.05650340053207171,
                    -0.08699075605217955,
                    -0.06230237997407333,
                    -0.04737482950201011,
                    -0.012160596762517979,
                    -0.1676630137571935,
                    -0.10833821923727616,
                    -0.12450218213800918,
                    -0.06667341855869234,
                    0.0428768762075634,
                    0.024636946821555077,
                    -0.0628314508421775,
                    0.02003849099062645,
                    0.006187299421530221,
                    0.014364599712003061,
                    -0.06111491211503044,
                    -0.0014147098540194315,
                    -0.13958651454933285,
                    -0.10453693432757796,
                    -0.13375815234664526,
                    -0.10690411734426827,
                    0.013244739669600698,
                    0.008175621962745308,
                    0.005395014415856764,
                    -0.04498302436357464,
                    0.036793635808962444,
                    -0.032759750069033984,
                    -0.0023722981523486494,
                    -0.019266337802839543,
                    -0.039401769682452646,
                    0.014610790044577214,
                    0.005015307621941719,
                    -0.0455917418958299,
                    0.009043694373799909,
                    0.05338158421199243,
                    0.031514065766540166,
                    -0.004419061491397046,
                    -0.021176057886473903,
                    -0.034246193085211374,
                    0.027293836517257156,
                    -0.13070582207137177,
                    -0.013714171331223803,
                    -0.028910874952742714,
                    -0.08307578452907828,
                    -0.03500549811217489,
                    -0.105900217491235,
                    -0.07260615769214648,
                    -0.051099576919603464,
                    -0.040252575615156716,
                    -0.10420767012918851,
                    -0.11307642183485093,
                    -0.06732515638826828,
                    -0.05501129007969827,
                    -0.028736294484677655,
                    0.06193140391114213,
                    0.028023436648573395,
                    -0.036145221924549546,
                    -0.012168434654879988,
                    0.05345313213692057,
                    -0.04547265671240446,
                    0.021906762740940836,
                    0.017771599744206463,
                    -0.010465964941906231,
                    0.10282070801662024,
                    -0.007324304807784061,
                    0.11855388886987714,
                    0.08419674124973361,
                    0.06029658327208399,
                    0.056912843117394,
                    -0.006093812798401483,
                    -0.022214716792411195,
                    -0.02019920278229861,
                    -0.0058526276816595535,
                    -0.0683890727600623,
                    -0.07247557297327659,
                    0.07683655897323619,
                    -0.035877066045321204,
                    -0.06722339534392249,
                    0.008643390648821732,
                    0.029606602871267835,
                    -0.026653160489481843,
                    -0.019269459205999397,
                    -0.027067466996967812,
                    -0.027546718472292415,
                    -0.018206959984448035,
                    -0.06595782588095997,
                    -0.13335381710688304,
                    -0.0679766851912423,
                    0.0178654822158038,
                    0.1016190103133167,
                    0.059855233651956705,
                    -0.014275221147193698,
                    0.04640445305670768,
                    0.07961174742964552,
                    -0.029590683457760537,
                    0.166105057434007,
                    0.025470647535500022,
                    0.12411559649621802,
                    -0.052889435772956135,
                    0.03784739367069564,
                    0.057683850859685866,
                    -0.018159345860063215,
                    -0.05472576481081343,
                    -0.11986610040253193,
                    0.014971178346798932,
                    -0.007027597138509891,
                    -0.10360540457053749,
                    -0.05338048180715517,
                    -0.01188371725874735,
                    -0.05650312186957431,
                    -0.025608232670453576,
                    0.07620762184026147,
                    0.04575476383346538,
                    0.05371156452471213,
                    0.003700579101495196,
                    0.09914677025315645,
                    -0.06320136899137103,
                    -0.04619849454307667,
                    -0.012544892324490612,
                    0.03070656139193475,
                    0.0532088594478887,
                    -0.03407096561210552,
                    -0.009385146013537305,
                    -0.06000337300800222,
                    -0.07835745139539785,
                    -0.09653558351959658,
                    0.011048130661244231,
                    -0.039070454277781476,
                    0.0459318132750198,
                    -0.036612021394740416,
                    -0.0016537312109284564,
                    -0.004257524991781361,
                    0.02987409987583752,
                    0.02545001278706104,
                    0.02430770492667414,
                    -0.09196413234648419,
                    -0.028371252331394713,
                    0.011197057522731249,
                    0.02754144951992203,
                    0.03729546511411558,
                    0.027359722936605997,
                    0.09157169646925953,
                    -0.037237375593287096,
                    0.013823533055994094,
                    -0.05345667384610309,
                    -0.018144057778774647,
                    -0.05416409637354254,
                    -0.03855027021301636,
                    -0.054321739934983695,
                    -0.02399520406480334,
                    -0.0738861591986287,
                    -0.035917343281403676,
                    -0.10771998262366338,
                    -0.02063014120504009,
                    -0.024260123026651006,
                    -0.08084224725077847,
                    0.03595927779001003,
                    -0.053382478237545807,
                    -0.011911033595174206,
                    0.04391473573371802,
                    -0.03025774933803463,
                    0.027883394257510834,
                    0.04735477737029855,
                    -0.06251702796476856,
                    0.004940128886278579,
                    0.04262344694874867,
                    -0.029835526204014612,
                    0.06899890409169392,
                    -0.12013657574206428,
                    -0.004332849377564731,
                    0.005768480373671182,
                    0.058282122272769826,
                    0.0818182502352787,
                    0.03585535086649819,
                    -0.08306543324810939,
                    -0.06502597874438502,
                    0.06922326597653945,
                    0.019415761915795277,
                    0.03072768378671068,
                    -0.05446277293818264,
                    0.07243844282301365,
                    -0.01081667456915268,
                    -0.12922978295539053,
                    0.09124256827938818,
                    -0.04861766229365359,
                    -0.025860533280309513,
                    -0.01612454806193329,
                    -0.07238081215324649,
                    -0.025848069945214786,
                    0.17411900840959602,
                    0.012609497184605772,
                    0.05570877539402124,
                    -0.013515860064120934,
                    0.017602870290406875,
                    -0.07160187731188837,
                    0.077439944933727,
                    -0.06604629101968003,
                    0.06508619940793903,
                    0.0023816155342881525,
                    0.012359030096206503,
                    -0.048394168398770795,
                    -0.02793782452591973,
                    -0.04143470983722903,
                    -0.03852203862895956,
                    0.007604705602419833,
                    -0.0419903852011284,
                    -0.07533776036948327,
                    0.028978216483270817,
                    0.08949914833107157,
                    -0.004375015608472293,
                    0.07379405217997928,
                    0.019196206378921363,
                    -0.0028825679495434117,
                    0.07331242313893603,
                    -0.03128074926622801,
                    0.015278198300169719,
                    -0.09669966876221152,
                    0.07797995031690855,
                    0.08504729689842819,
                    0.04305876691089685,
                    0.030352655281587673,
                    0.03293710200884499
                ],
                [
                    0.05333227743752542,
                    -0.04800797192197181,
                    0.04714770250167595,
                    -0.017937577243587823,
                    -0.005968329259957627,
                    -0.08353511357279494,
                    0.0345013472389604,
                    0.07111696527059934,
                    0.00472606998432377,
                    0.016595663919641526,
                    -0.04854359538374346,
                    0.11486201064467556,
                    -0.018464180886533788,
                    0.0024947871934658584,
                    0.008002456007543653,
                    0.04844819703261044,
                    0.030168658381616836,
                    -0.0076204066885022185,
                    0.017641484773729454,
                    0.0511512709556393,
                    0.05653324914488809,
                    0.03750491203636815,
                    -0.017283166718661463,
                    0.054596785887849594,
                    0.04236615306191872,
                    -0.01700022608349055,
                    -0.058219982691590066,
                    -0.061412521093402894,
                    0.025821938775641203,
                    0.05739559565603021,
                    -0.07450089366626858,
                    0.00006205416504988223,
                    -0.03873111281698494,
                    -0.0041155191058653865,
                    -0.05263874584912535,
                    0.08409358095401043,
                    -0.037314583010274266,
                    -0.0031228445918618144,
                    -0.10459220227887907,
                    0.036524810733487886,
                    0.019167178351008615,
                    -0.08308743292532285,
                    0.006517561563264999,
                    0.08822855958590992,
                    -0.06946149618223375,
                    -0.04184771921531977,
                    0.0177450934868318,
                    -0.00878247480714615,
                    0.09443710648294014,
                    -0.08848546522898469,
                    0.005674376170778582,
                    0.10255230080461594,
                    -0.046568702021836356,
                    -0.06757974890370938,
                    -0.003371966691831914,
                    -0.02409410452787353,
                    0.012903631836680505,
                    -0.08628320081440964,
                    0.019687161312374152,
                    0.05463458744705493,
                    0.0038568563210667046,
                    -0.024012522323941375,
                    -0.09115407680785878,
                    0.03366238633620431,
                    -0.04442807879741339,
                    0.014303007354179362,
                    0.027032702160767065,
                    -0.007084755695269863,
                    -0.01820783294516593,
                    0.04775553362663649,
                    -0.0901773891201197,
                    -0.049407149701940725,
                    -0.031219806789479686,
                    0.003427646170930686,
                    -0.05981087281130961,
                    -0.01745145451426856,
                    0.08824268573868008,
                    -0.02639851020398904,
                    0.015038330417371529,
                    0.033024941056927895,
                    0.11660803692289926,
                    0.06075065845716116,
                    -0.0071603793450482804,
                    -0.0285211383045632,
                    0.00378176011036697,
                    0.04027995318665981,
                    0.02891712640538822,
                    0.05229546461199321,
                    -0.09458197433299544,
                    -0.05610682758180091,
                    0.020500562367779477,
                    0.022841345733622526,
                    0.0547780843872568,
                    -0.005497339079707404,
                    0.010591798614510034,
                    -0.01710791101610311,
                    0.030094098649353175,
                    0.05273672850855474,
                    -0.13785872915965108,
                    -0.04110642204890521,
                    -0.09310299447125771,
                    -0.12900842057092118,
                    -0.030673348092712844,
                    -0.07634276703263373,
                    0.030633121297399667,
                    -0.03552241219346509,
                    0.07470037542499817,
                    -0.05873940851265299,
                    0.026459321679297758,
                    -0.04192396627631188,
                    0.04474615647383627,
                    0.0681925743980588,
                    0.0503317865667037,
                    -0.005923495593081732,
                    0.01619351061324023,
                    0.06313622288837542,
                    0.0073686340782695625,
                    0.018104287914726763,
                    0.0756104466299172,
                    0.05739718943015548,
                    0.05659892937688162,
                    0.007967199610724226,
                    0.02432058631225177,
                    0.003332138858729279,
                    0.0035932753329167328,
                    0.03039560111061199,
                    0.005835810886772043,
                    -0.07247575112700538,
                    -0.14324564777105192,
                    -0.17265333096237212,
                    -0.18921474554050335,
                    -0.1751993503069778,
                    -0.06674736465743986,
                    -0.028545247524492213,
                    0.01546274368386372,
                    0.08241270800746792,
                    0.009540966359676793,
                    -0.0419212171724059,
                    -0.032597374750068166,
                    -0.05607814561832072,
                    0.050287261633013745,
                    -0.009094657942213544,
                    0.06776565678085432,
                    0.0006437745779731121,
                    0.024251878288619536,
                    0.06603038394861228,
                    0.0806538528567357,
                    0.00577311458807773,
                    0.0313989457183283,
                    0.1441961856333538,
                    0.06267245441492354,
                    0.1433938800790182,
                    0.0506920978735386,
                    0.1002256005686766,
                    -0.08661583378809028,
                    0.049667596312048284,
                    -0.10007920669614867,
                    -0.1581515283757401,
                    -0.20475568088256405,
                    -0.1212274689333693,
                    -0.15975641511717198,
                    -0.15751150327598362,
                    -0.01904377390600195,
                    -0.0980512595039102,
                    0.035230043231947956,
                    -0.004403656469758477,
                    0.057488319718345456,
                    -0.04903790572517064,
                    -0.04597669051752349,
                    -0.002646644986212394,
                    -0.014933718617783405,
                    0.00564929745776487,
                    0.059423586449823866,
                    0.051793019608144655,
                    0.01857675315868069,
                    0.013406696488242794,
                    0.050328173415994173,
                    0.038265983704958595,
                    0.117488362513142,
                    0.09270123284043597,
                    0.006003109885933908,
                    0.00435503704265241,
                    -0.06986274071131754,
                    -0.06914430011333225,
                    -0.07096459826335846,
                    -0.062496438143838165,
                    -0.27331222212428175,
                    -0.20426418934579707,
                    -0.10198025604903256,
                    -0.056711409873451364,
                    -0.060384862340443525,
                    0.022395807023119007,
                    0.011962721024335427,
                    0.05949317291725878,
                    0.04017557476857539,
                    0.07118591593576229,
                    -0.1067599478870196,
                    0.042978512592361004,
                    0.08004999774244823,
                    0.06330182234443815,
                    0.023508615730622743,
                    0.06170464543611537,
                    0.1352239861597979,
                    0.03192468369875628,
                    0.025359188147052986,
                    0.12592436872333948,
                    -0.06040951610001462,
                    -0.026367182140929764,
                    0.12244188725516897,
                    0.053125427644727635,
                    0.09445482892325295,
                    0.02615724152479107,
                    -0.07483670059995927,
                    -0.05061728133597512,
                    -0.2274674342464342,
                    -0.23306538042686195,
                    -0.1417989431242685,
                    -0.17489869404434716,
                    -0.10862505051667698,
                    -0.002203860979299963,
                    0.003005202491503804,
                    -0.047714141936452424,
                    0.013079053729388529,
                    0.03680169407802989,
                    -0.01601265115535487,
                    -0.019096841216546836,
                    0.006502291965165901,
                    -0.02919170166380699,
                    0.03027644967145497,
                    0.05073606355495915,
                    -0.04550480328149828,
                    0.08242805826279397,
                    -0.07810017584731195,
                    -0.12115863161259473,
                    -0.023927702478076743,
                    -0.07381417616723679,
                    0.030308778924958396,
                    0.09541396814733506,
                    0.13237915194878244,
                    0.10715379702691558,
                    0.10994471602689342,
                    -0.05691212363042198,
                    -0.23744634121003785,
                    -0.16955265347126683,
                    -0.21806962938246638,
                    -0.1461133787121376,
                    0.03382834069710275,
                    -0.0742563498278964,
                    -0.09251602537905268,
                    0.018672653330234955,
                    0.04012169472226445,
                    0.03898942790898743,
                    -0.0754740040396826,
                    -0.060700140994674946,
                    -0.06626691543126956,
                    0.006383886719623829,
                    0.01706703725006592,
                    0.011562832284935017,
                    -0.0549940631647595,
                    0.02709946149882085,
                    -0.06856071086107066,
                    -0.05208471351005902,
                    -0.0732006022834723,
                    -0.024447414317793147,
                    0.009896990038848679,
                    0.16934899980612217,
                    0.22656523076621535,
                    0.2234552036939868,
                    0.17065569471604247,
                    -0.17612475851928258,
                    -0.17727421739628363,
                    -0.23147406486858688,
                    -0.2101150301617717,
                    -0.08504903306278526,
                    -0.01054396898278813,
                    0.08117075206489525,
                    0.04047473051669037,
                    -0.0492522418977998,
                    0.007696560692657767,
                    0.08304378048649136,
                    0.009450521859662287,
                    0.1058017119873671,
                    0.06781880873692851,
                    0.012997667665220316,
                    0.02748424409473448,
                    -0.030962306074873974,
                    -0.10710128038869617,
                    -0.06486014389762136,
                    -0.03778403945349213,
                    -0.03320367078115657,
                    0.06926962156916255,
                    0.05067373638598629,
                    0.10771907074644443,
                    0.28405435122764433,
                    0.2503554773442307,
                    0.22453689289585627,
                    0.0009719013402161488,
                    -0.13757046765818548,
                    -0.1482260983748267,
                    -0.25691247490559,
                    -0.12488808124344919,
                    -0.14941285871098936,
                    -0.07875880523677818,
                    -0.06435818729325195,
                    0.0007154540663098958,
                    -0.03453341618518791,
                    0.05754575127862453,
                    0.028666615933287332,
                    -0.018075317828322456,
                    0.06642228698641278,
                    0.025002114539612947,
                    0.10111264070477963,
                    0.03504899388361841,
                    -0.054609830597226176,
                    0.04767032162294521,
                    -0.015753120375962326,
                    -0.0642436121092168,
                    0.04845180776538884,
                    0.0820778151514301,
                    0.08894567918729418,
                    0.1474053432853028,
                    0.28805927359701444,
                    0.2547639170821247,
                    0.11065763212089076,
                    -0.0171629805003987,
                    -0.13029529537573614,
                    -0.20511483902793617,
                    -0.1602204114989048,
                    -0.07583304284477825,
                    -0.0013758915904506974,
                    -0.03556248097778299,
                    -0.0548386501605103,
                    -0.13600989674793315,
                    0.015250540423407666,
                    -0.0240529812176347,
                    -0.015852786964516495,
                    0.043276033479527756,
                    -0.019719923180611165,
                    0.03307423280197227,
                    0.019133792869729084,
                    0.034797872781430095,
                    -0.07972435585277257,
                    0.008348329602173831,
                    -0.02566945418109667,
                    -0.024067752519895853,
                    -0.01856804195643411,
                    0.12460867055720658,
                    0.03516213633489652,
                    0.18416843952939332,
                    0.2108972595263447,
                    0.121826372930274,
                    0.017185416614722067,
                    -0.12819699228532677,
                    -0.10801926595802881,
                    -0.13208588983498906,
                    -0.212887900091221,
                    -0.06140549541181188,
                    -0.074202031505344,
                    -0.10158069066610428,
                    -0.06101874521772843,
                    0.04102657390425626,
                    0.00079976428601906,
                    0.17506976300440208,
                    -0.06588966122645767,
                    0.0023462328632608115,
                    -0.01717199984371798,
                    0.0022135522143374733,
                    -0.0513087987544408,
                    -0.060303084888152815,
                    -0.01045681144072285,
                    -0.02957511938177309,
                    -0.07824056782365868,
                    -0.05782047698829376,
                    -0.02563808378148697,
                    0.11411883143539159,
                    0.017257261916838098,
                    0.03432090897244511,
                    0.10059723186838372,
                    0.1068151183927783,
                    0.011496375313273317,
                    -0.05029871357972429,
                    -0.022370290825950365,
                    -0.1511419000972196,
                    -0.05141997944988564,
                    -0.049507857215886276,
                    -0.05609789710629789,
                    -0.04046697852475905,
                    -0.00092756916976842,
                    -0.0228059541672334,
                    0.08992670801478563,
                    0.005126212468083895,
                    0.05789519213811164,
                    0.0497626465165775,
                    0.006303008259673914,
                    0.06630702773325146,
                    0.022607422187264692,
                    0.0727830679879274,
                    0.031259655395832385,
                    -0.002709058265296705,
                    -0.07159115851618554,
                    -0.03171936019536932,
                    -0.06381922676993339,
                    -0.06981678246804068,
                    0.088954164368418,
                    0.0772795590965709,
                    0.03922727268609574,
                    0.09171500122381421,
                    -0.13753068104986982,
                    -0.08921137975063591,
                    -0.10160711788202019,
                    -0.07175231647296931,
                    0.012262481948214877,
                    0.00732523537071193,
                    0.0933042962232394,
                    0.049575204655794944,
                    -0.0004899527255492059,
                    -0.018677339720777966,
                    0.04568086518301633,
                    0.0665026218604736,
                    0.06502593222155086,
                    0.009132819580570467,
                    0.09501291635986664,
                    -0.01736261432626578,
                    -0.011075245443785839,
                    0.008443390994700218,
                    0.031678798540496204,
                    -0.019278213924996866,
                    0.014127823431463843,
                    0.06727986340907495,
                    0.05197657672317203,
                    -0.012257707243725503,
                    -0.024994754322900565,
                    0.020764954158690986,
                    0.000028411100268774697,
                    0.03126519078675247,
                    -0.0474205660422266,
                    0.00043317204901656707,
                    0.008417222032123787,
                    -0.01700276885171834,
                    -0.03587482783207219,
                    0.13491763994168227,
                    0.046522476843442614,
                    -0.017946032413118543,
                    0.13404953812759937,
                    0.11345959867421143,
                    -0.0014013684786533499,
                    -0.019157968611368984,
                    0.031304406936149616,
                    -0.0028421723028115493,
                    0.015378512168577285,
                    0.06342628525377257,
                    0.003994354185373877,
                    -0.028921021110515012,
                    -0.09356134601761669,
                    -0.0266015508689054,
                    0.053251811308075436,
                    0.08778165558899524,
                    0.06981584162816035,
                    0.01975725032554741,
                    -0.013902816771570136,
                    -0.06327379809019967,
                    0.00933988688318938,
                    0.11920346357806179,
                    -0.04708086620795192,
                    -0.0030531232288040365,
                    -0.05615750825797745,
                    0.07444916520022668,
                    0.029878088623784122,
                    0.07548165985212908,
                    0.04056044035389017,
                    -0.009906287762980208,
                    0.025925639066439427,
                    -0.021335748198542583,
                    -0.003076385938129534,
                    -0.08605895918039132,
                    -0.025402357379484052,
                    -0.0052847886985273596,
                    -0.01935207237632449,
                    0.06793664959387857,
                    -0.09818635866906875,
                    -0.01922995788358706,
                    -0.03687014655556811,
                    0.03900396114631421,
                    0.0015900248934619197,
                    0.0624079432138629,
                    -0.0004552477028168004,
                    0.035229008058733836,
                    -0.06588881888626304,
                    -0.09782339835184506,
                    0.00749486180281677,
                    0.02715257592229125,
                    -0.02986890175110956,
                    0.004717833639805857,
                    0.006442210437041613,
                    -0.010094943272861525,
                    0.06947125936053282,
                    0.046570496570181634,
                    0.17556552048379212,
                    0.0846738625207052,
                    0.04060996113036827,
                    0.019369355582163624,
                    -0.022422330079750422,
                    0.00999943946192597,
                    -0.00029273013635517026,
                    -0.009367482389022712,
                    -0.023401894383034662,
                    -0.033212132068156396,
                    0.11294600714027112,
                    -0.10812140704114474,
                    -0.031030392130889765,
                    0.033334381425767994,
                    0.0031902875624720164,
                    -0.015216328036562818,
                    0.012362203522027928,
                    -0.051210850844181005,
                    -0.10497705950204678,
                    -0.005695783552627834,
                    -0.05695252962166814,
                    -0.032710567802912975,
                    -0.023724756658039792,
                    0.0019061666521628625,
                    0.11046891133742383,
                    0.04319783812783289,
                    0.0367810505325573,
                    0.09082087844649593,
                    0.07925357597112147,
                    0.011868452564417693,
                    0.05597866493578138,
                    -0.07114831439488657,
                    -0.011342938066962275,
                    0.03849786473172178,
                    0.1323894589485641,
                    0.046201028316302475,
                    0.0014230106102614986,
                    0.029395408102138407,
                    -0.14269782183484075,
                    -0.085364920955804,
                    -0.011151104188476485,
                    -0.06649596829952217,
                    -0.08340093964210882,
                    -0.04234301444615755,
                    0.023492227334000554,
                    0.10379825884098876,
                    -0.14945182024639156,
                    0.0006864817696578322,
                    0.0012806496253814266,
                    -0.02639979828511345,
                    -0.06390403904606479,
                    -0.009703183592298843,
                    0.037568182053629696,
                    -0.03719682139798747,
                    0.06838734642907533,
                    0.033437712546857006,
                    0.0941061274434277,
                    0.09001325747741262,
                    0.008303420226522498,
                    0.06971405734692886,
                    -0.04219440407583042,
                    -0.022899850390831044,
                    0.025940496692697594,
                    0.020120459568474216,
                    0.007966377602551842,
                    0.00789918437389085,
                    -0.03985711294619407,
                    -0.03579665239875506,
                    -0.03195570783073099,
                    -0.08502814892232323,
                    0.09840181764679869,
                    0.0486285635035141,
                    -0.05255234587123969,
                    -0.031053085541181275,
                    0.03793626684108642,
                    -0.006734722468638837,
                    -0.01809054484444917,
                    -0.16227068544572362,
                    -0.08841188900878418,
                    0.108755369573573,
                    -0.08108146617003023,
                    0.0999655004976217,
                    0.03007784121465257,
                    0.14052134691030227,
                    0.024511711859452806,
                    0.1037503403574918,
                    0.015405965255189188,
                    0.009676483142110833,
                    -0.0431102198143097,
                    -0.021372583252177415,
                    0.013168739756650437,
                    0.021754714227871987,
                    0.07418636663024201,
                    -0.09027499223808716,
                    0.07889209491124136,
                    -0.0723809825535259,
                    -0.017236545196017777,
                    -0.12532534344056726,
                    -0.061802620010455965,
                    -0.07983721057335254,
                    0.022722685919428217,
                    -0.03657910156614483,
                    -0.07245015413946633,
                    -0.04543334399001338,
                    -0.0037004320698168685,
                    0.03706460414060255,
                    0.029833936171661423,
                    0.011422300624471093,
                    -0.038625242265008776,
                    0.09597710600615657,
                    0.06571550076954517,
                    0.01061257221794205,
                    0.05574674959223968,
                    0.06015558488740266,
                    -0.03813631141965285,
                    -0.07836624201507295,
                    -0.02928636873824098,
                    -0.015178571432465121,
                    -0.003595730142045896,
                    -0.1090478591702264,
                    0.03968712329123982,
                    0.031248404297541436,
                    -0.03336012156154335,
                    0.042267513187061526,
                    -0.01483763662842435,
                    -0.06556751074699911,
                    -0.01420573978680904,
                    -0.1243612528019783,
                    -0.005663553981886171,
                    -0.035747590249619696,
                    -0.051441558000637724,
                    -0.00965832607807778,
                    -0.05231533973749931,
                    -0.028240925845450366,
                    -0.025984418783288016,
                    -0.08946733242401442,
                    0.003980712762311371,
                    -0.015184207171321058,
                    0.006106492423816245,
                    0.050830948452799576,
                    0.04352240436044397,
                    0.012574424423534335,
                    -0.033731252731668125,
                    -0.026492910207820894,
                    -0.11469424456671569,
                    -0.008405988446908161,
                    0.007667240368956166,
                    0.014035807636822894,
                    -0.020887154459753594,
                    -0.06660818117957822,
                    0.03498482830323929,
                    0.031767680621617014,
                    -0.036113205816363625,
                    -0.02937028303812974,
                    0.02174232845997633,
                    -0.058197672623993196,
                    -0.06091035536429,
                    -0.06176250711670955,
                    -0.05341481648179653,
                    -0.07800519211868398,
                    0.00045870379038670707,
                    0.0318434306638999,
                    -0.009581641810456202,
                    -0.06146224968664349,
                    -0.026483810577821565,
                    -0.05595323809521454,
                    -0.0007737585625265877,
                    -0.018985558562362084,
                    0.04709434301618701,
                    0.08554778557055172,
                    -0.0847736276243722,
                    0.05322040188145192,
                    -0.03358183066496309,
                    0.01516909269590517,
                    -0.027431049736405352,
                    0.024729561702142817,
                    0.07997521938495965,
                    -0.01611410486364885,
                    -0.05320157039975491,
                    -0.06027269952797205,
                    0.05806653210430249,
                    -0.06465273025893249,
                    -0.08195572469590608,
                    -0.06317808688345262,
                    0.07940785463273173,
                    0.014899698578845664,
                    -0.07057877028569405,
                    -0.017817799152749083,
                    -0.03644823456815046,
                    -0.04279996253534843,
                    -0.035042905368694026,
                    -0.05171101328931882,
                    0.07005170257267782,
                    0.06316664778102311,
                    0.0147064292478422,
                    -0.04345311801728054,
                    0.10343603393069616,
                    0.010849815034567238,
                    0.01913496062608896,
                    -0.03901435502069941,
                    0.08787058860659323,
                    0.07743650480270237,
                    0.025534344233765344,
                    -0.014831980700050427,
                    -0.049005861169903096,
                    -0.0421357848285486,
                    0.01929128319472285,
                    0.010127151005089345,
                    0.05894916185089058,
                    -0.047149568664685886,
                    0.0033700457713101237,
                    -0.005872776123935671,
                    -0.08817658010216856,
                    0.00756552783520361,
                    -0.03330238767476442,
                    0.03624794985778418,
                    0.08099313744971946,
                    -0.03755041317859355,
                    -0.012376097954773643,
                    0.03216315020558399,
                    -0.003968505858652632,
                    0.03713387638250721,
                    -0.006721362634541722,
                    -0.002984616105335006,
                    -0.08396369180553911,
                    -0.015449805342260415,
                    -0.03416411413866815,
                    0.006461871378345183,
                    0.02360358513617059,
                    0.04617887421586644,
                    0.048681110278201115,
                    0.08456967104707525,
                    0.023296040195628483,
                    0.0074654592462376265,
                    -0.019142977996790104,
                    -0.010549764814315089,
                    0.05138093487524941,
                    0.1061510228371025,
                    0.014632508785522457,
                    0.020110741410824334,
                    0.04250670987574565,
                    -0.010208410199696647,
                    0.02592937777392615,
                    -0.09109479040315076,
                    -0.055277574004064384,
                    0.020591440904687647,
                    0.0129402253506843,
                    -0.05028472824843898,
                    -0.04575445704353864,
                    0.038850428434429825,
                    0.03418122081953868,
                    -0.0642850102548415,
                    -0.05014818885411451,
                    0.02944326601444549,
                    -0.09685824331147189,
                    -0.008009252091672888,
                    -0.1383364424497563,
                    -0.015068999643535346,
                    0.029164256750881794,
                    0.02636461146985403,
                    -0.014800883541892657,
                    -0.019377028189333973,
                    -0.02570957269904963,
                    0.019931037084872143,
                    -0.04353536711874608,
                    0.021325466535793487,
                    -0.015443041959798674,
                    0.019170805583893693,
                    -0.016763742678802433,
                    -0.02652021909983534,
                    0.01782535794900021,
                    0.03234591307487752,
                    0.023102543752848325,
                    -0.11243897898758526,
                    -0.006094147559350065,
                    0.03924910519859542,
                    0.06614781937774163,
                    -0.02978878967646568,
                    -0.0004452417098024134,
                    0.035851091976947906,
                    0.1033866139935563,
                    0.12529242053249873,
                    -0.02066724540478235,
                    -0.08776688333217679,
                    -0.012162150866536808,
                    -0.047517396781978354,
                    0.06450118514760268
                ],
                [
                    0.014059283451242001,
                    0.025712632518094376,
                    -0.01605153457568053,
                    0.021579367554013264,
                    0.03697094067108169,
                    -0.03996961005223781,
                    -0.07539060451065557,
                    -0.02650415464322324,
                    -0.05482136253838277,
                    -0.036656741864291215,
                    -0.04594323676422158,
                    0.017963413440343124,
                    -0.05660387999200874,
                    -0.01576787467490361,
                    0.0030308053214470883,
                    -0.027772019166121382,
                    0.033146196138873554,
                    0.03506570862519411,
                    0.061867831897941226,
                    0.025502699793488223,
                    0.004641280681252061,
                    0.01169896809474198,
                    0.04292537157664261,
                    0.008870005107129915,
                    0.014235823517743348,
                    0.013994072521827196,
                    -0.01595465936673997,
                    0.09919331471850702,
                    0.07212237746485395,
                    0.05871290217696199,
                    0.0958679340514588,
                    0.03710616499718345,
                    0.08468566612764393,
                    0.03538463825158646,
                    -0.07031880049271537,
                    -0.05090397582911966,
                    -0.08569754079374522,
                    -0.0743941100182237,
                    -0.034054556569794316,
                    -0.05862034202720984,
                    0.028525961748285342,
                    -0.023614502374746157,
                    -0.05727121621023932,
                    -0.02288988731700934,
                    -0.04965394514748082,
                    -0.014517776154207402,
                    -0.10606914322484702,
                    0.018257357378740457,
                    0.014601932077092162,
                    0.019220428632873248,
                    0.03895633737828505,
                    -0.09338294957543507,
                    -0.017683876563849257,
                    0.005014194113913446,
                    -0.14394869698216897,
                    0.0746815006484474,
                    -0.004912878130895712,
                    -0.05268125882616017,
                    -0.02995383614775516,
                    -0.02080806474927701,
                    -0.009262152737075431,
                    -0.07593085408388793,
                    0.04684230450689892,
                    -0.08558578979425654,
                    -0.0643730076625495,
                    0.057008112592678024,
                    0.04342549950039819,
                    -0.012803373970260466,
                    0.026962615971269293,
                    0.016476044017098432,
                    0.04432631866628393,
                    -0.04949857227446591,
                    -0.021654454089828787,
                    0.08185448876638059,
                    0.06716919453342939,
                    -0.042393953612431694,
                    -0.0669814277869934,
                    -0.002013079934716486,
                    -0.05870024269504509,
                    -0.0653968077535943,
                    -0.017577920280154744,
                    -0.04864054159341508,
                    -0.0060852516812119565,
                    -0.046409446453628114,
                    0.011540808371614362,
                    0.07248213325661024,
                    -0.006596551674357824,
                    0.061858605701974954,
                    -0.015690418116493944,
                    -0.03771567540878073,
                    0.0023568846939706722,
                    0.01631743529065953,
                    -0.013057604877667406,
                    -0.03273833646441357,
                    0.026657618990868888,
                    -0.036980223049776786,
                    -0.010857840458591131,
                    0.06337429172587276,
                    0.004875702494574442,
                    0.011255591754300845,
                    0.0062340765303974316,
                    0.010548125800139422,
                    -0.07380282693714067,
                    -0.015958376046464433,
                    -0.0036312529054480583,
                    0.009583563156933267,
                    -0.006399517400807318,
                    0.04661598484129124,
                    -0.021838010114501937,
                    0.0496579394191143,
                    0.05297104379180356,
                    -0.0820238984975321,
                    -0.026980265744322315,
                    -0.030874255301979087,
                    0.01633395908987389,
                    0.08491846187587115,
                    -0.03876590862217678,
                    -0.08487561028030141,
                    -0.08086309711365679,
                    0.020897336116361628,
                    -0.03217863198912008,
                    0.10942272106424325,
                    0.16720161202553258,
                    0.07583340691828146,
                    0.14680286630606698,
                    0.0411430508441177,
                    0.052481776598849256,
                    -0.025423761438945227,
                    0.0337502925905457,
                    -0.04804695994853883,
                    -0.01570496192730398,
                    0.03511714511217143,
                    -0.11629220611362752,
                    -0.04608163633012772,
                    -0.060508293222813,
                    -0.010686060608799149,
                    0.021614528803928713,
                    -0.09853976509291962,
                    -0.03133664957467202,
                    -0.049162684901219694,
                    0.012898441916903633,
                    0.10465538700429325,
                    0.028484719371804364,
                    0.09200601991866877,
                    0.06835688112182786,
                    0.021565979807536377,
                    0.020268022489042185,
                    0.16230791502875264,
                    -0.035758225470758194,
                    -0.08139568191420544,
                    -0.004170229183354611,
                    -0.0014426416721666031,
                    0.0727716810669266,
                    0.06130305603767008,
                    0.027143583321527217,
                    0.06479602256063313,
                    -0.04094114159495477,
                    -0.012062027851456516,
                    0.004140106398135314,
                    0.04007995278759884,
                    -0.11670015875609945,
                    -0.0009732229742531948,
                    0.029553867802126974,
                    0.07208057330808686,
                    -0.09608912617596574,
                    0.05085773222689287,
                    -0.020476101262327618,
                    -0.012801535754395417,
                    -0.04499516784277532,
                    -0.022332076106325104,
                    -0.006549525067498106,
                    -0.020509072329774523,
                    -0.05011488449968629,
                    0.015981030162441612,
                    0.023446954267530785,
                    0.09756979217525216,
                    0.00005788746258361926,
                    0.034254957269792614,
                    -0.05592170550347671,
                    0.008756503559520082,
                    -0.08666622393910602,
                    0.06253465701639305,
                    0.1151463160891061,
                    0.017472845483756258,
                    0.1241774385717162,
                    -0.028712983213404566,
                    -0.021871909219332162,
                    -0.08320702155306839,
                    0.049052327571746476,
                    0.01841151452680857,
                    0.0772342265695688,
                    0.02894761923505974,
                    0.01884711435638893,
                    0.10079059787097958,
                    0.07025620074761871,
                    -0.03058934156003737,
                    0.0719970773226657,
                    0.012688490812894039,
                    0.006493867859693005,
                    -0.009595382693254172,
                    0.04188850303532158,
                    -0.031326808872799636,
                    0.0016511055870021662,
                    -0.007104849149560313,
                    0.007279133593179138,
                    -0.09038839802854237,
                    -0.027301035679185664,
                    -0.04050765469861782,
                    -0.009027840150643333,
                    0.0002730229191387124,
                    0.07300491375066426,
                    0.08314134979613137,
                    -0.05262850232493761,
                    -0.07033175699141048,
                    -0.0936366073103206,
                    0.0042932367102457535,
                    -0.0298076734069428,
                    0.11591586430362959,
                    0.027355432370417602,
                    -0.09028239089415249,
                    0.1504938219315025,
                    -0.04524021454671459,
                    0.045936485263655874,
                    0.09654274686380282,
                    0.023825243391580868,
                    -0.02185035888111728,
                    -0.09271055087683966,
                    -0.0020555283690259682,
                    -0.08158573199027798,
                    -0.020934875265689542,
                    -0.031154655986074028,
                    0.07665861585008178,
                    -0.003965827717171874,
                    -0.03524714411990485,
                    -0.08910433971390692,
                    0.00608732812261446,
                    -0.0028461773540356737,
                    0.010817935409950385,
                    -0.033070417111567184,
                    0.05617187245017392,
                    0.050181007951788446,
                    -0.05863025317084485,
                    0.012738060154626394,
                    -0.012994904004703432,
                    0.0776133101003988,
                    -0.02054454093002381,
                    0.06899613205730495,
                    0.007781486575802635,
                    -0.11986429684435755,
                    0.033576752936749416,
                    0.02539551746865528,
                    -0.03520922377253919,
                    -0.03889110737881885,
                    0.04781572409289389,
                    -0.12910869927979624,
                    -0.037268924111115646,
                    0.06380184071357317,
                    -0.0022001108674817214,
                    0.09032773715001832,
                    -0.026736591308085002,
                    -0.06490550103557988,
                    0.06551205148746835,
                    0.05557531815487954,
                    0.05413834548713149,
                    0.06294926077514673,
                    0.05271635377104374,
                    0.009580594742026858,
                    -0.029913327742076196,
                    -0.1668961168312721,
                    -0.10221687736027658,
                    -0.05537834874566528,
                    0.003246057800483501,
                    0.0009182849628239495,
                    -0.012410799714339041,
                    0.04651386723372573,
                    0.08710462089764144,
                    0.07328853229493687,
                    -0.08570084854017129,
                    0.11010299329195933,
                    0.049843218611837874,
                    -0.01605761197550065,
                    0.021345065571391427,
                    -0.03835668802243155,
                    0.008254492354311692,
                    0.09919875931641245,
                    -0.026689486598033788,
                    -0.016175932329186158,
                    -0.017223527000835064,
                    -0.047819033489610654,
                    -0.034545742806635554,
                    0.07018033799317731,
                    0.0714985220238741,
                    0.01693936016702954,
                    0.05764434396084653,
                    -0.016111276487118176,
                    -0.11110466534313858,
                    -0.029828723380971922,
                    0.042469088260548675,
                    0.08938391491308816,
                    0.11896328230891215,
                    -0.012661207843630838,
                    0.00727731008265147,
                    0.01950129085387327,
                    -0.005443840969916608,
                    -0.019314958837880904,
                    -0.0065712633046774325,
                    0.13239171881339037,
                    -0.030217106054587897,
                    -0.03793253226011522,
                    0.03874819814551727,
                    0.04590548506711752,
                    0.0950168485128308,
                    0.04339405504638302,
                    -0.06862408053968634,
                    -0.024716751309216096,
                    -0.027675393857654915,
                    -0.017862366926809186,
                    -0.03188497806508549,
                    0.07652220612525429,
                    0.06662593790705058,
                    0.046096288532653115,
                    -0.04590190363770995,
                    -0.07744406412184728,
                    -0.07590039728923681,
                    -0.034708741045205084,
                    0.07265686268809048,
                    0.08837245334949569,
                    0.009678677226684747,
                    0.03138543279135622,
                    -0.07012457905009961,
                    -0.006070870746365456,
                    -0.011626094659772693,
                    0.058451933578686444,
                    -0.005568413148906845,
                    0.004358645433985483,
                    0.0012649825751937752,
                    0.03777646811333146,
                    -0.020441377959818704,
                    -0.04325513369087908,
                    0.08396450590725245,
                    -0.013395033134092488,
                    -0.06076663507103615,
                    -0.1257976609777435,
                    -0.021275213524143095,
                    0.047784294972537014,
                    0.06154391859787051,
                    0.09264555216859587,
                    0.05490257980892432,
                    0.0009313130210493959,
                    0.06310935596688955,
                    -0.0697407242194692,
                    0.10947379103968202,
                    0.05720986344633033,
                    -0.004352142310825136,
                    -0.002116234276789892,
                    0.10041057376223173,
                    0.005635093980514046,
                    0.02383507185675903,
                    0.061034128653701204,
                    -0.09271259704715942,
                    0.03420814144130311,
                    -0.021586668902437295,
                    -0.1442520672326164,
                    -0.04611787494960181,
                    -0.06781604815455355,
                    0.007693282918074036,
                    -0.03497328153089281,
                    0.07138372827042362,
                    -0.0040579223491788935,
                    -0.06717093677564484,
                    -0.02565405786483258,
                    -0.03515737093389654,
                    0.08103349260710425,
                    -0.0395389737703803,
                    -0.0003317509499204766,
                    -0.0341360987144628,
                    0.10730832437597564,
                    0.1771971339091753,
                    0.08484776359408913,
                    0.20549615207819108,
                    0.08938504028808658,
                    -0.00756397531675611,
                    -0.00962483529954845,
                    0.04829738987312151,
                    0.01013387965318135,
                    -0.041595852429938615,
                    0.08077758157528646,
                    -0.007630764782884907,
                    0.011055782324138497,
                    0.026492252705774516,
                    -0.07877550413087542,
                    0.12136263743879133,
                    -0.042911199909147275,
                    -0.07017796721785742,
                    0.0013081909797112655,
                    0.03963239156881861,
                    0.0253914076152008,
                    -0.09519166437238413,
                    -0.005365316213361446,
                    -0.06494009034508583,
                    -0.1113612816069907,
                    0.026417009627187852,
                    -0.019562791173681145,
                    0.04543929271906674,
                    0.11788618883716363,
                    0.02114521363358038,
                    0.0841444094980245,
                    0.04672727695725227,
                    0.10529441308658133,
                    0.010734728361833517,
                    0.021472485039593904,
                    -0.07496232747474563,
                    -0.03737364587719499,
                    -0.052609974279383215,
                    -0.006036599404651521,
                    -0.00326609064313559,
                    0.008837780900835533,
                    0.04937323390464308,
                    0.0327802867680086,
                    0.0218144464181725,
                    0.010253998950367481,
                    -0.054104961584570926,
                    -0.06137582087270388,
                    0.05041026587385239,
                    -0.030410630058185423,
                    -0.09133619247023723,
                    -0.11011393227962461,
                    -0.017242367786196443,
                    0.007562525676674483,
                    -0.02787106513099119,
                    -0.048601925773072,
                    -0.0003713781051947783,
                    0.01874669953709423,
                    -0.010781862143393455,
                    0.03752516817229281,
                    0.030085229464851794,
                    0.059723828267886525,
                    -0.10177095076822701,
                    -0.05810593601803649,
                    0.03360317809856537,
                    -0.030860081919190357,
                    -0.02112458475238922,
                    0.07586434391648221,
                    0.04475208232484331,
                    0.0022254478552541598,
                    -0.002876811138276597,
                    0.014535460940868564,
                    -0.04268798724301342,
                    0.026974463763535503,
                    -0.029012513663039065,
                    0.0025408706100941195,
                    0.0029064060204685963,
                    0.0463176430432984,
                    0.038145333296301404,
                    0.04206905087179227,
                    -0.017501828036075105,
                    -0.07333417896897129,
                    0.014357409173810608,
                    -0.12427461777699367,
                    -0.10547812025173815,
                    -0.03468585443042093,
                    -0.10146528496922667,
                    -0.012474140938137198,
                    -0.029476083909320907,
                    0.01410905063182074,
                    -0.11166741227646558,
                    -0.08673869499867942,
                    -0.04760306901715784,
                    0.11666738762086223,
                    -0.04628593660262852,
                    -0.061230425740966384,
                    0.04043723739800596,
                    -0.04159100628264036,
                    0.024512394545351108,
                    0.038839581780847184,
                    -0.024278929368120136,
                    -0.03833426484047472,
                    -0.028705474265290406,
                    -0.010434880276658974,
                    0.11867244560086576,
                    0.04786469763754563,
                    0.014902481238436066,
                    0.004698980374182813,
                    -0.05592335922341521,
                    -0.007066710142663334,
                    -0.00457379971612504,
                    -0.05019490540597175,
                    -0.10090103310232174,
                    -0.03272334432824528,
                    -0.06294705520556215,
                    0.07102750119609968,
                    -0.006612271901576857,
                    -0.1236932055184044,
                    -0.1462595849467184,
                    -0.0848175787978624,
                    0.037903466932519,
                    -0.04744225062867726,
                    -0.0069290487409647845,
                    -0.031426757597739545,
                    -0.017942339446767666,
                    0.02396815165532849,
                    0.008883612211454367,
                    -0.08510820372272174,
                    -0.05424259585255293,
                    0.04352165729585918,
                    -0.05248909930539818,
                    -0.01952412866551706,
                    0.06669515020069243,
                    0.013221222452512725,
                    -0.04107668465410487,
                    0.015651586942188937,
                    -0.07585153786817668,
                    0.015105313249806,
                    -0.09831051605663252,
                    -0.020829502580236695,
                    -0.10222029803337458,
                    -0.043034959134607705,
                    -0.10460540691190312,
                    -0.11252247348633837,
                    -0.09324464319897371,
                    -0.09739223080543849,
                    -0.07147809221558046,
                    -0.1064324069530263,
                    -0.02054138185492205,
                    0.004950221629993193,
                    0.039126936651062115,
                    -0.06234022392831772,
                    -0.015366708001586862,
                    0.018883866622122086,
                    0.016364701460614958,
                    0.000989350363999874,
                    -0.06401457540132689,
                    0.01588405119484054,
                    0.11479179424333871,
                    -0.017888378821657263,
                    0.011596726817268806,
                    -0.07076434699390387,
                    -0.008414734635866835,
                    0.019919512300720726,
                    -0.08346550388813148,
                    -0.03231935219740067,
                    0.04101758969169924,
                    -0.00538559695161949,
                    -0.007041822962284133,
                    0.062266831940443496,
                    -0.03327687530328444,
                    0.020960974651495334,
                    -0.0002535501411583713,
                    -0.002822540974176126,
                    -0.039065822351702334,
                    -0.03152027877110471,
                    -0.061028106299939655,
                    0.010291072000800655,
                    -0.021772686172401537,
                    -0.02343546210357429,
                    -0.028728613290060663,
                    0.02728062283355545,
                    0.026412459236786864,
                    -0.03288262841260848,
                    0.007264488796221546,
                    -0.06964982239852724,
                    0.013751457684413092,
                    0.019300590522602884,
                    0.02264046217797853,
                    -0.04335689123708806,
                    -0.016499668743240423,
                    -0.04323919659121346,
                    -0.009124079609566954,
                    -0.04147583763623083,
                    0.033986185459677076,
                    -0.0010565027321427414,
                    -0.025037102270999836,
                    0.03135999186997822,
                    0.09817739176211325,
                    0.10769017313131499,
                    -0.06296951293632791,
                    -0.06351991981809493,
                    -0.04715054349799781,
                    -0.1316629320547902,
                    -0.031452776996337896,
                    -0.021451896400253797,
                    -0.03956435587447264,
                    -0.05494389694320918,
                    0.05476962145242779,
                    0.020820859020211895,
                    -0.041061214266091314,
                    -0.06615800676239879,
                    0.03243721602644674,
                    0.04097980377993354,
                    -0.033350739704637505,
                    0.014784096178351152,
                    0.08936763887664866,
                    -0.06010264977380678,
                    -0.04610919496403122,
                    0.02491961182879898,
                    0.026830532357861387,
                    -0.010520900941760789,
                    0.05251413440918761,
                    0.07806355386172538,
                    0.013723835838049361,
                    0.00502232174674383,
                    -0.0016139747040321607,
                    -0.06955148763951496,
                    -0.05006059703442789,
                    -0.05514505918053698,
                    -0.04780561516455623,
                    0.017531800734174444,
                    -0.0025381507051129345,
                    -0.09053752054630612,
                    0.15717455610509182,
                    -0.08130832840807134,
                    -0.01572466761223793,
                    -0.018732668028831743,
                    0.02467481960913572,
                    0.016443579248651332,
                    0.007899253002186194,
                    0.018892769479625964,
                    -0.039540631712628595,
                    -0.02327782487837132,
                    -0.08676229216743743,
                    -0.08760938771926025,
                    -0.021975029945917587,
                    -0.06340769075921311,
                    0.050462793176577626,
                    0.10234445670191901,
                    -0.01103816396313987,
                    -0.008958516491938549,
                    0.17613482828749605,
                    -0.00432020980067013,
                    0.06371557106644174,
                    -0.06536818400838787,
                    -0.10845140917289267,
                    -0.06609004726523977,
                    0.04724226441918452,
                    -0.06075397351041549,
                    -0.007763304739238404,
                    -0.13993789987766747,
                    -0.04116719222879894,
                    0.012729001268563089,
                    -0.004979846989880864,
                    0.06262106573103648,
                    -0.0550853071423133,
                    -0.07545259975929124,
                    -0.004300646189420601,
                    -0.036207415909179044,
                    -0.027878705228079417,
                    -0.03816059406662586,
                    0.028650716451861492,
                    -0.019655785820293252,
                    0.0016300309749408594,
                    -0.0910651927859705,
                    -0.03420043717938121,
                    0.0980434735011023,
                    -0.025921264575104432,
                    0.08740789207445024,
                    0.008143267505733328,
                    -0.013731635043153615,
                    -0.08017593956866266,
                    -0.040195151019107214,
                    -0.025871664871755375,
                    -0.01862404811668445,
                    -0.108490188008969,
                    0.05524025474933557,
                    0.014052221787317373,
                    -0.019540464345797707,
                    0.05329097360701189,
                    -0.024990924282920917,
                    0.02580690003777003,
                    -0.08310015205226898,
                    0.014019416624522985,
                    0.053937704316358276,
                    -0.08323693848498204,
                    -0.05246237337449496,
                    -0.12002368290951695,
                    0.007516041356545566,
                    0.0022009161884495383,
                    -0.008778114852471593,
                    -0.08414915258889855,
                    0.007351523418842985,
                    -0.06169004764591395,
                    0.017498675281350733,
                    -0.03581592723111385,
                    0.009395343125880333,
                    -0.01359751303481231,
                    0.01966135115440152,
                    -0.02129652114278458,
                    -0.08746540928900912,
                    -0.02067075607588539,
                    0.02146192570248807,
                    -0.042850321843137695,
                    -0.038933559822958735,
                    0.0584435640282261,
                    -0.03522762688064744,
                    0.039663682599269084,
                    -0.0017726057176495839,
                    -0.045677995510388356,
                    0.01599784280178279,
                    0.039835916557108324,
                    -0.06512003445169019,
                    -0.06191538715171336,
                    -0.005226224793345057,
                    -0.07043892372514443,
                    -0.011834786653646658,
                    0.07410932531703197,
                    -0.018728864702025352,
                    -0.03929522320980747,
                    0.037475636668435036,
                    -0.035118081113685216,
                    0.051029268284416396,
                    0.13186490081666666,
                    0.028028145449710676,
                    0.06486961718367976,
                    0.027761781992186027,
                    0.045650615529394256,
                    -0.05318748513209638,
                    0.007713210292694094,
                    0.027149325870849412,
                    -0.10551529125649159,
                    -0.0050262626345875154,
                    -0.005696756024437729,
                    -0.007444996862663619,
                    0.05549694607805108,
                    -0.002457037201070218,
                    -0.01488504561412434,
                    -0.10960634825471487,
                    0.01961008364879341,
                    0.06971650148076157,
                    0.019589570104596114,
                    -0.04976463234326963,
                    0.03357329562088848,
                    0.051628301711058845,
                    -0.022989466452895364,
                    0.11449716738038476,
                    -0.048802357475048914,
                    0.03369465078828118,
                    0.0249497553589435,
                    -0.08761788322340802,
                    0.02772420176595488,
                    0.03574573562552397,
                    0.026054973710904282,
                    0.10930795998224725,
                    -0.004970726393881089,
                    0.006255495981965036,
                    -0.03638075003894795,
                    0.003710325227159062,
                    0.06233586017543009,
                    0.035955895852330465,
                    0.012052621864211119,
                    -0.011611776860921151,
                    -0.059882221794384884,
                    0.04502248975575288,
                    -0.0491621337860937,
                    0.0224039583877573,
                    -0.06202662475145998,
                    0.028781165456813553,
                    -0.01681864849948582,
                    0.09123750966684958,
                    -0.09933174007797835,
                    0.03211138448306318,
                    -0.03884102505271769,
                    0.012310525505587751,
                    -0.03538033347642716,
                    -0.004379612982418383,
                    -0.025245962004949402,
                    -0.00792041066093949,
                    -0.008359708278267302,
                    0.09839623420139945,
                    0.008343828188888342,
                    -0.057472247156117665,
                    -0.028346067549158884,
                    0.11875343938325046,
                    -0.019116664109974837,
                    -0.09665899736386079,
                    0.028554113734175143,
                    -0.0005901519573653306,
                    -0.08703628738920603,
                    -0.03125374548965031,
                    -0.05797152978143626,
                    -0.004915935425298788,
                    -0.02726168888559875,
                    0.01730651518393586,
                    -0.0042672246039896266,
                    0.013212400636759993,
                    -0.02721652754581778
                ],
                [
                    0.05377118030475745,
                    -0.0469574461661401,
                    0.011763087126198758,
                    -0.032304898893663,
                    -0.044643288848408035,
                    0.040764548742096875,
                    0.036812781443300635,
                    -0.068467557079451,
                    -0.016861512088412505,
                    0.09153789886017652,
                    -0.025098777370910135,
                    -0.0013692082496460875,
                    0.057337766211785116,
                    -0.03925213416713742,
                    -0.03244577228352393,
                    0.03008107320871895,
                    -0.0115373021416102,
                    0.032442353448108294,
                    0.09928422475713704,
                    0.048966280946775236,
                    -0.0698571929188936,
                    0.05116825203360822,
                    0.015432503923699766,
                    0.07118021179624036,
                    0.008849424241115376,
                    -0.05038904781890871,
                    0.009417567577798103,
                    0.02991659026786693,
                    -0.03723341859840931,
                    -0.04538555953206049,
                    -0.051599911656360395,
