{
    "Layers": [
        {
            "Weights": [
                [
                    -0.013299016506072943,
                    0.0006976405093129551,
                    -0.01726558131935943,
                    -0.024802881848384233,
                    -0.005574900859435716,
                    -0.014682209463772565,
                    -0.020547286305305994,
                    -0.00008535107067338785,
                    -0.014102649350910136,
                    -0.0012175547739241386,
                    -0.007452175122502397,
                    -0.02859356091524318,
                    -0.031672056959493065,
                    0.002791166402837784,
                    -0.006092244584725635,
                    0.015251234911421987,
                    -0.03989026842770852,
                    0.010258951458687186,
                    -0.004181070185508767,
                    0.00641851986869209,
                    0.027337923088864676,
                    -0.0007389040781604881,
                    0.003153060432644166,
                    -0.022458062935314577,
                    0.022574220854202937,
                    0.012632532688865737,
                    0.01153536894894964,
                    0.0006440131760053372,
                    0.03668613480738162,
                    0.018592955972875122,
                    0.004313641855194607,
                    0.0022058431253901825,
                    0.005047112736161251,
                    -0.005284863312223285,
                    0.016805038034193507,
                    0.016280208029290085,
                    -0.018320114718376086,
                    -0.0030380888465466158,
                    -0.02230812626498949,
                    -0.014452602172820626,
                    0.015297836612357986,
                    -0.0031944874677280136,
                    0.005085757835663787,
                    0.030200586585418385,
                    -0.01570144291005484,
                    -0.0038921411585906276,
                    0.0030162673560092715,
                    -0.0004803775260572309,
                    -0.009293252005805015,
                    -0.010765917629926878,
                    0.003763669901801254,
                    -0.014380200861157322,
                    -0.02399074498770555,
                    -0.0016842086796672665,
                    0.03249629322257141,
                    -0.0019982701897462356,
                    0.01432327484514384,
                    -0.012351107642839098,
                    0.03616547057731217,
                    0.006072872066519345,
                    0.006540977682083174,
                    0.03382634192989578,
                    0.012238580564043634,
                    0.005036310038953519,
                    0.01700708182359636,
                    0.02518668109918707,
                    0.02901607522829128,
                    0.05646354578937031,
                    0.057406074503751486,
                    -0.009435462494379557,
                    0.03872485587235017,
                    0.02319778282791335,
                    0.019091755519780106,
                    0.006498352302000227,
                    -0.0009181099590603827,
                    0.008170986562944588,
                    0.011151571294257742,
                    0.009073499638250054,
                    0.0006343073667011964,
                    -0.01700890973839811,
                    -0.024496093374494744,
                    0.0029051554663456483,
                    0.01013725086593041,
                    -0.017193906783224105,
                    0.014326956370416434,
                    0.003428344527909748,
                    0.01199486620801738,
                    0.00030617164789329364,
                    -0.01289288299460333,
                    0.001807040763476236,
                    0.01972891090483425,
                    0.0035229127040367694,
                    0.0025768518074440884,
                    0.010418324141129606,
                    0.06925680965661339,
                    0.060185719877179494,
                    0.10115033836007013,
                    0.0952555957659569,
                    0.05066576592545649,
                    0.019664246079446956,
                    0.05485728660848554,
                    0.028888583820784304,
                    0.027602531547977545,
                    0.008588823238552654,
                    0.008313119567051748,
                    -0.01873526062409144,
                    -0.037842732708129316,
                    -0.031436673514015426,
                    0.011258806308765077,
                    0.012811310084129404,
                    0.012867750327692377,
                    0.0010855146095568454,
                    -0.006786521919966117,
                    -0.017672870834993894,
                    -0.01704060645222783,
                    0.023112627554131803,
                    0.029500625198916428,
                    -0.0026791925105981674,
                    0.027826725857633464,
                    0.05086867423138151,
                    0.06436275078619863,
                    0.06715028457114443,
                    0.11386130169072188,
                    0.15263668668905286,
                    0.16441946123747966,
                    0.14715789454832168,
                    0.11204311308348187,
                    0.09864369256188414,
                    0.11244221804277238,
                    0.07236633488768116,
                    0.07347141085408805,
                    0.03987548150411016,
                    -0.042099006082023535,
                    -0.04493216130183093,
                    -0.04541015858240613,
                    -0.03576274949772914,
                    -0.01904867552001077,
                    -0.001097914244385207,
                    0.007487052634341304,
                    0.012689206181772664,
                    0.007868634446931352,
                    0.006535246255593058,
                    0.0048323673024143745,
                    -0.020610769309413943,
                    -0.02442578108869546,
                    -0.0028468134510056934,
                    0.025950932962056424,
                    0.07022994694501368,
                    0.08308705581527619,
                    0.13679968161513034,
                    0.12270046642796548,
                    0.19354551075476287,
                    0.17840467650298944,
                    0.20762551252907913,
                    0.21257737929486042,
                    0.20722886684840802,
                    0.23452741575326677,
                    0.1824911927969121,
                    0.07700776714806748,
                    0.04941537769012678,
                    -0.014628265617697289,
                    -0.0554141256228734,
                    -0.1435630971188772,
                    -0.0786015347161168,
                    -0.03373952313677019,
                    -0.03324575743032105,
                    -0.010131691947534526,
                    -0.011841397386196023,
                    0.004566081007753869,
                    -0.021097786213650712,
                    0.019395749912351674,
                    0.017346725697890426,
                    -0.0005418994329020872,
                    0.018386598645217946,
                    0.03575445871328547,
                    0.0671759160862292,
                    0.0965343741493172,
                    0.09055589259450512,
                    0.13130524822792888,
                    0.1866420139741141,
                    0.1920412337856647,
                    0.22574418844621746,
                    0.24830483556173102,
                    0.26331574168461686,
                    0.26720840395504913,
                    0.15967928948723353,
                    0.1164701477616428,
                    0.0365714907768883,
                    -0.005003114379741018,
                    -0.0620003705987464,
                    -0.12357409231837166,
                    -0.1170445942990092,
                    -0.050302248465864806,
                    -0.02877037703584293,
                    0.01076168575550237,
                    -0.004783319739293319,
                    -0.027913582326962515,
                    0.00041979983380247585,
                    0.0018100252490457428,
                    0.021468305817507083,
                    -0.0030664009768913785,
                    0.03279271971653045,
                    0.05551507196099161,
                    0.04762093099205178,
                    0.06865890584646936,
                    0.10705455962184023,
                    0.1880538774374995,
                    0.2208295601101858,
                    0.20105109456980488,
                    0.21102739259161749,
                    0.21456462486045577,
                    0.22905275049696472,
                    0.20730215695029178,
                    0.12074256861509133,
                    0.04271354736313131,
                    0.030438472303518614,
                    -0.02407384233607227,
                    -0.03144317017078057,
                    -0.09055739985193005,
                    -0.0867010253170353,
                    -0.07811232274080501,
                    -0.04489344575191154,
                    0.005959490362260812,
                    0.014856499569083212,
                    -0.01921503985741951,
                    0.00035782779985775703,
                    0.007139154906954231,
                    -0.006508480820873781,
                    -0.007393607347485088,
                    0.0223011909823649,
                    0.05961805011742347,
                    0.0706207772449822,
                    0.10588231082406935,
                    0.12727246280422186,
                    0.19150720443518585,
                    0.19565197957477468,
                    0.15708097345707792,
                    0.12697813131016983,
                    0.16226030353792636,
                    0.19278974741190147,
                    0.14094192765989036,
                    0.09328452321648126,
                    0.04011670250035496,
                    0.000626056385393262,
                    -0.03860456163708543,
                    -0.024659682759850594,
                    -0.046156975878150465,
                    -0.07922281052432562,
                    -0.08692587238254483,
                    -0.047127885944715245,
                    -0.040651881503425524,
                    -0.0020132448240102827,
                    0.02800090282738823,
                    0.0009044676615000493,
                    0.030668532154268145,
                    -0.006001283313048496,
                    0.03540848469673383,
                    0.017352862278095783,
                    0.02542686082341142,
                    0.05588085585801609,
                    0.07366666416672107,
                    0.120144261570602,
                    0.18285051462216714,
                    0.1165213034574158,
                    0.1151650752804969,
                    0.07762263916378943,
                    0.0925678966808182,
                    0.06813791122726809,
                    0.08807665964052439,
                    0.04225908795277064,
                    0.04438354223011357,
                    0.017172562817017525,
                    0.03329858334347707,
                    0.0015763148122019542,
                    -0.03157734353096846,
                    -0.028537971735307067,
                    -0.021709792506186633,
                    -0.03053512598927269,
                    -0.0034095663992931976,
                    -0.00014981700887671602,
                    0.002745780524966146,
                    -0.011167978686773827,
                    0.009025229732825059,
                    0.014143134107186109,
                    0.021283588283156397,
                    -0.03388479564994125,
                    -0.028684709288713105,
                    -0.049136235803846164,
                    -0.002375142609856872,
                    0.02941884332275246,
                    0.10258145854050241,
                    0.0059170923192395,
                    -0.04567076407640611,
                    -0.05908062136144757,
                    -0.01481584262773889,
                    -0.008922161856042709,
                    0.08097111313862763,
                    0.06516772513731779,
                    0.12235632562597816,
                    0.06627307617343012,
                    0.04218223284814492,
                    0.04899037861319314,
                    0.05892422588383719,
                    0.027373775342392378,
                    0.0054394812562238905,
                    -0.0036626813163743253,
                    -0.006759050550251991,
                    0.004133069068137845,
                    0.030240373431168126,
                    0.008070337073353384,
                    0.0022162720971878242,
                    -0.01797788041202102,
                    -0.009882200254024717,
                    -0.05348291068413451,
                    -0.11062930165195227,
                    -0.10163258363329666,
                    -0.04838170284755052,
                    0.0033775671994623517,
                    -0.021580946120874796,
                    -0.10390470291191917,
                    -0.1825265575058628,
                    -0.10223203818451529,
                    -0.08987015661530018,
                    -0.044759122901371656,
                    0.047787552888490625,
                    0.10465111327843436,
                    0.11354751620723058,
                    0.13343168045557494,
                    0.10893399699803676,
                    0.09961248675420012,
                    0.04676136010811661,
                    0.04162147473818976,
                    0.01081101616823931,
                    -0.016112417386956984,
                    -0.007103421724851911,
                    -0.014033624031732911,
                    -0.02888840956686202,
                    0.0260183139340454,
                    0.021500892390553295,
                    -0.027128292120263256,
                    -0.021547208937821954,
                    -0.07473713616267688,
                    -0.19073858429390364,
                    -0.16755490032622555,
                    -0.11821065422301687,
                    -0.06621230472549348,
                    -0.11528458117831443,
                    -0.19321955319193643,
                    -0.1892775667317495,
                    -0.1411001853745197,
                    -0.082010927758834,
                    -0.021738290277633972,
                    0.009292025079739618,
                    0.0956780812757443,
                    0.10120393772913731,
                    0.11207666299731756,
                    0.12030833163852944,
                    0.10076082109023246,
                    0.035457765195686705,
                    -0.008282466837405718,
                    0.00532294312637783,
                    0.012466051359671609,
                    0.002600629309154185,
                    0.015823266852316675,
                    0.0005663838168709866,
                    0.008712602290970123,
                    -0.009412041913112786,
                    -0.007298620692057618,
                    -0.024137664950367746,
                    -0.14747246300945036,
                    -0.19968654483721404,
                    -0.20395653458023452,
                    -0.14340038160247381,
                    -0.0801825833356133,
                    -0.0912070858353566,
                    -0.10133379183699329,
                    -0.06698439889186379,
                    0.047968926285427135,
                    0.04266232720889658,
                    0.10360717768416798,
                    0.10985486177297743,
                    0.09622472576361395,
                    0.04121824877549431,
                    0.07569249854460504,
                    0.054137300745370265,
                    0.026608600306853525,
                    -0.03070438636791324,
                    -0.016686236554537617,
                    -0.017813038603784536,
                    -0.012382808789045737,
                    -0.027782522653907207,
                    -0.007349519857904076,
                    0.005454090966369921,
                    -0.0023037210867653504,
                    -0.011563539097973821,
                    0.0072696469154960915,
                    -0.027690320594074946,
                    -0.13928473953982096,
                    -0.17378991939388613,
                    -0.13531892640307464,
                    -0.12029349254029398,
                    -0.04488349443718095,
                    -0.010478873906382332,
                    0.024576462532597744,
                    0.08884583884043898,
                    0.16625198118819906,
                    0.22160067850459086,
                    0.2346518772517718,
                    0.16567966807720788,
                    0.07348885751459223,
                    0.06711596917992668,
                    -0.02354675757507287,
                    0.013904190791019047,
                    -0.03325124419408393,
                    -0.05142493382765035,
                    -0.01571500069931862,
                    0.005265378051544454,
                    0.03684278474420344,
                    -0.029824010482867043,
                    -0.006808660839911539,
                    0.027003869194546504,
                    0.011852354472180814,
                    0.01385744742158315,
                    0.006466705658455079,
                    0.017174919005854352,
                    -0.1013867545778382,
                    -0.1442901125042575,
                    -0.0917859113898895,
                    -0.053271514120049074,
                    0.0563372341864402,
                    0.12540237951650138,
                    0.15592657683559383,
                    0.21656596803968584,
                    0.28011347898697514,
                    0.31694653799607747,
                    0.25221413368154455,
                    0.18837821034731705,
                    0.060144647075524554,
                    0.027417283691815,
                    -0.08072870196735288,
                    -0.04395320665474466,
                    -0.02379750535769246,
                    -0.09942453155040874,
                    -0.04234791606914453,
                    -0.011319074520918702,
                    -0.0025423576511191944,
                    0.02166510616970719,
                    0.018536226984853015,
                    -0.0015657640406784962,
                    -0.014672325437535636,
                    0.012318393975954769,
                    -0.003027368724302018,
                    -0.012064849445107637,
                    -0.05063491501983643,
                    -0.03985721594122073,
                    -0.03438196607434964,
                    0.012962769752840017,
                    0.06941802487554556,
                    0.18604376678287587,
                    0.21638366045495583,
                    0.2705432168002328,
                    0.26648867127703785,
                    0.228764085263226,
                    0.17136696330348145,
                    0.14288880406342347,
                    0.07093535809773044,
                    0.020171786681761693,
                    -0.05458551751314643,
                    -0.058652958072194415,
                    -0.020816952405861067,
                    -0.03207555748777452,
                    -0.010881799743977157,
                    0.01791961962740455,
                    0.03617801884644032,
                    -0.003958978833604842,
                    -0.004515437644410968,
                    0.005192470448400988,
                    -0.01705998219294696,
                    0.01974552628249175,
                    -0.01612772424159859,
                    0.008216286798774184,
                    -0.0019401573761304765,
                    0.015938478579386114,
                    0.036157508964674984,
                    0.07579659631328166,
                    0.17901241379182528,
                    0.22031610315272784,
                    0.2933646837581712,
                    0.27155671883802973,
                    0.2755616735684461,
                    0.20021244304823785,
                    0.12314757745621005,
                    0.11754684561457732,
                    0.09380146965575438,
                    0.07556705686290226,
                    0.05718895371010603,
                    0.025511171072660457,
                    -0.007594146396480514,
                    0.015296106565659226,
                    0.004990071344744504,
                    0.02993738622333527,
                    0.04906734822519007,
                    -0.018467684811591074,
                    0.008159033368665847,
                    0.01181427806358365,
                    -0.01302794857733163,
                    0.01236002271095381,
                    0.02409125961062653,
                    0.0009546227598892249,
                    0.08164843204781698,
                    0.04564655908841444,
                    0.09964816968775846,
                    0.12524255434457965,
                    0.1961296271998975,
                    0.29383514750776674,
                    0.3703707241732193,
                    0.34992420863160606,
                    0.26077019135497215,
                    0.15206204023391398,
                    0.14660463529107376,
                    0.1630867707576981,
                    0.15951565432067527,
                    0.1592850122063561,
                    0.10660907093377264,
                    0.06117605054381834,
                    0.02837357244019816,
                    0.06772589025538032,
                    0.11293175441247244,
                    0.10030277288954195,
                    0.04062616398993388,
                    0.017344283941874355,
                    0.015653390360577293,
                    0.02178729289850805,
                    0.04786907086083569,
                    0.02356475841830806,
                    -0.006464546670451991,
                    0.05024869502030746,
                    0.0645925367295038,
                    0.051026276156709474,
                    0.11451634554657807,
                    0.15899209358580063,
                    0.22467265203197279,
                    0.28431094311405947,
                    0.28525857077030425,
                    0.2768784234511283,
                    0.16167594720265,
                    0.11451128953271078,
                    0.13683166468935976,
                    0.16568461351804115,
                    0.16088130630369732,
                    0.15361183466558984,
                    0.12619357474219853,
                    0.08736556126448981,
                    0.0962952140180913,
                    0.09646173100676067,
                    0.11375706664464173,
                    0.07622155230449813,
                    0.04581191829343246,
                    0.0205171965355638,
                    0.003399342943424538,
                    0.015991986485968276,
                    -0.00895913016361483,
                    0.003060338698347808,
                    0.04252640955110378,
                    0.06153698573461523,
                    0.057128436196912415,
                    0.06935996205619481,
                    0.12679387816411694,
                    0.1405155661327171,
                    0.12546449119132191,
                    0.2008317122819544,
                    0.17616779355496143,
                    0.1553214854041435,
                    0.09723230562663375,
                    0.12157067263447627,
                    0.1309486116380152,
                    0.15771107975354126,
                    0.1487042076413812,
                    0.1533833716041031,
                    0.12145353939594233,
                    0.1044873557528964,
                    0.13081480424707756,
                    0.1349581069335005,
                    0.14264221935893612,
                    0.09808681925986236,
                    0.062422803800534166,
                    -0.0007889218645865426,
                    0.008675264886051108,
                    0.013960578496253139,
                    -0.001256339602261402,
                    0.0010545282322622174,
                    0.03382254322464079,
                    0.04669882762098018,
                    0.05020562042808418,
                    0.09243522130122771,
                    0.07671709257053938,
                    0.061072549231768934,
                    0.10903792133953247,
                    0.12681614651737697,
                    0.13240340199551717,
                    0.12774712036276822,
                    0.12641386579020153,
                    0.1361395411768052,
                    0.10707607664352425,
                    0.09286971641781987,
                    0.13088560016035514,
                    0.13511733359390432,
                    0.1326872781890491,
                    0.11605818805148352,
                    0.1298235081164432,
                    0.15979843917764427,
                    0.08950311912919105,
                    0.07393550225586354,
                    0.015834289453309103,
                    0.0034960260866647498,
                    -0.02223618693950113,
                    0.008003211355561804,
                    -0.028090293165641076,
                    0.02370323773451352,
                    0.021139932706926767,
                    0.02511004665117774,
                    0.022590518746362868,
                    0.07287836063929212,
                    0.09577924001601175,
                    0.09084261278327671,
                    0.11688988749505327,
                    0.0817839914987422,
                    0.10414173830254553,
                    0.11792763724952027,
                    0.099798837459076,
                    0.0706321195602772,
                    0.033923035049967264,
                    0.039464295018825674,
                    0.04092623208705924,
                    0.06693156837084954,
                    0.05711669946861996,
                    0.06906220434674241,
                    0.10919327921268138,
                    0.07809652698196472,
                    0.058893517065434726,
                    0.014190364050578852,
                    0.005641406669153413,
                    0.008378338427827646,
                    0.024810609215028163,
                    0.0002919852435312265,
                    0.006131191969466244,
                    -0.033933702797258776,
                    -0.006930857997040356,
                    -0.015858406014478337,
                    0.012461660456743668,
                    -0.025356271006833683,
                    0.000427411684835044,
                    0.061506591123917494,
                    0.07770577742649133,
                    0.0762813897240119,
                    0.09212724015655153,
                    0.08528957313602864,
                    0.06841672302982225,
                    0.019666415530487206,
                    0.0004656385216087737,
                    -0.03508579239212839,
                    -0.030329144840540223,
                    -0.02039775677159375,
                    0.04736978958681422,
                    -0.0007637452409271237,
                    -0.0013254747132133806,
                    0.028404586606802017,
                    0.02951437756558439,
                    0.008166241459166224,
                    0.009899675471049424,
                    -0.030014940867466897,
                    0.008555048793389051,
                    0.030507356503452696,
                    -0.015039585870514962,
                    0.004887031811150332,
                    -0.024921227748831477,
                    0.008276526372288628,
                    -0.039797455889007294,
                    -0.054081732534358655,
                    -0.048548782057679,
                    -0.017548140161904154,
                    -0.022115247466557814,
                    0.0073284939285364545,
                    0.013474361319428722,
                    0.038800572868621604,
                    0.012153731307598663,
                    0.04319293045075731,
                    -0.007618146592695145,
                    0.009470740131231439,
                    -0.013207455445177213,
                    -0.050631863653340936,
                    -0.020847450207770145,
                    0.005591622631671047,
                    -0.013541918340453086,
                    0.012194261350758179,
                    0.023829495681098576,
                    0.02278720551442323,
                    0.015337566308900116,
                    -0.01827774032526241,
                    0.0004774182022230929,
                    0.005163173262868087,
                    -0.012110763860771706,
                    0.015289339188449453,
                    -0.0033829924271417027,
                    0.0026398610009132225,
                    -0.008392755813062284,
                    -0.007464265521561837,
                    -0.01038946301815429,
                    0.007525646722462101,
                    -0.02918435599638711,
                    -0.03003538475468199,
                    0.014608969867856135,
                    0.004264242157835838,
                    0.002734457798308706,
                    -0.00010278680561500707,
                    0.005146533737984017,
                    0.03385429028545406,
                    0.011210802044301357,
                    0.008111399770910315,
                    -0.00003008015876249059,
                    -0.00611445138180529,
                    0.006610978458195821,
                    -0.002161779794624569,
                    0.0092761538491851,
                    0.015139370574645459,
                    -0.025788276022771343,
                    -0.027426941481234944,
                    -0.00010038667484250396,
                    0.009333996130400002,
                    0.008621474112082384,
                    0.003307666295467795,
                    0.02221985409492593,
                    0.002422789185619595,
                    -0.018048495412375666,
                    -0.016905123615530048,
                    0.00797075564906784,
                    -0.0061802689510325965,
                    -0.011407920095673896,
                    0.004358281757807676,
                    0.0007633519855237351,
                    -0.005285713797369447,
                    0.009356036456215066,
                    -0.0006201257115075919,
                    -0.022380022789907354,
                    -0.034959418580068784,
                    -0.025420026684913187,
                    0.03734669459039005,
                    0.010227814595881884,
                    -0.013907826074690665,
                    -0.009482542425057876,
                    -0.01419522205983708,
                    -0.013014642918420805,
                    -0.026760644069516858,
                    -0.05080600327712038,
                    0.007842321471944079,
                    -0.01665833316479447,
                    -0.024814538217379018,
                    0.02949701898074792,
                    -0.010366587013454616,
                    -0.010933050791946486,
                    -0.01870531556682409,
                    -0.011284937362154069,
                    0.006005243219463591,
                    0.00009823497006267039,
                    -0.0038811765128691353,
                    0.010872264184880232,
                    -0.0021106608650444587,
                    0.01710145608577127,
                    -0.0003446239412031496,
                    -0.01730834402914594,
                    0.0035653000244939355,
                    -0.00763290109740312,
                    0.01451819226149796,
                    0.004455402842099933,
                    -0.012483304325864465,
                    0.0002000464198072864,
                    -0.00010866660841849787,
                    -0.009069517913402804,
                    0.013633091856243467,
                    -0.002563665756626761,
                    -0.0027913631977665803,
                    0.024997095231411224,
                    0.014651081713353557,
                    -0.00259518914211953
                ],
                [
                    -0.019381172401502115,
                    0.015189315095052782,
                    -0.008171173978977401,
                    -0.01917736274324769,
                    0.006007145757920066,
                    -0.012965179764432637,
                    0.010422231899079351,
                    -0.005109910881928245,
                    -0.010281989408311544,
                    0.00001595246763600475,
                    0.006944860402236344,
                    -0.007586314051502927,
                    -0.022955681023534683,
                    -0.015805779327225038,
                    0.013169575954062714,
                    0.0038097739188581066,
                    -0.004345748487399647,
                    -0.000125961584617803,
                    -0.0005779686349863088,
                    -0.0002070427202243878,
                    -0.002792397633557098,
                    -0.01015705744528782,
                    -0.009251633664519915,
                    -0.01113444868983231,
                    0.01495790866643979,
                    -0.02363010847765236,
                    0.0010376492972219873,
                    -0.0031134439212476537,
                    0.00795946477305021,
                    0.005562618501177935,
                    -0.02027019166591002,
                    -0.025128434276263864,
                    -0.010261997962850591,
                    0.0023146469851515234,
                    -0.011068257087413592,
                    0.010802845302929099,
                    0.008054536127586606,
                    -0.006897569228248965,
                    -0.01769076637901328,
                    0.019469287019698397,
                    0.0038741476669189854,
                    -0.005063158767582992,
                    -0.001029328606128725,
                    0.003175720780759383,
                    0.003175032854952099,
                    0.0007381810268431321,
                    -0.016672053103721367,
                    -0.010102370945094575,
                    -0.0004329235429182532,
                    -0.009393444153218487,
                    0.007909770239464334,
                    0.0027242743540863566,
                    0.010046367282672927,
                    -0.014778220898323929,
                    0.011754162972478839,
                    -0.013894749244831469,
                    -0.004575367128917387,
                    0.010811036826186586,
                    0.02110700425211306,
                    -0.011967325419476583,
                    -0.034423691236674187,
                    0.008151675482850684,
                    -0.006699861252374688,
                    -0.0022048726832799774,
                    -0.00006033707251125514,
                    -0.019326028560345116,
                    0.008915530360513879,
                    -0.020659429260009677,
                    0.000611899879115799,
                    -0.010534195524651237,
                    -0.04718683340197841,
                    0.01265610575800499,
                    -0.018982673139609326,
                    -0.027016780666388435,
                    -0.009988268156529994,
                    0.004032714863536612,
                    -0.02571583290724429,
                    -0.008041716605227914,
                    0.02089173514288366,
                    0.014300140117749237,
                    0.015760179541613625,
                    -0.01709797551919975,
                    0.015133522326466966,
                    -0.008642244741620644,
                    -0.01134253412467962,
                    -0.005471769856367757,
                    0.0051984611115361646,
                    0.013965717584820991,
                    0.009802213576346842,
                    -0.0007500061057793489,
                    0.02867328269229733,
                    -0.023681078188930883,
                    -0.01923844217026392,
                    0.0010530944954862175,
                    -0.005015690081831964,
                    -0.013056259564787665,
                    -0.02905647149535956,
                    -0.009037433936174663,
                    -0.00867018807004318,
                    -0.030918610232331903,
                    -0.0328276051497316,
                    -0.00493071287853877,
                    0.001947888677769964,
                    0.0037301957144187077,
                    -0.004700969275150363,
                    0.010832539656801515,
                    -0.022901552395396325,
                    0.004255435185656709,
                    0.0020182009766245403,
                    -0.006483437208896607,
                    0.028049951815259475,
                    0.0015611224386734611,
                    0.009862489228531885,
                    -0.013571104837654136,
                    -0.007811568903157172,
                    -0.0057582859327466795,
                    -0.0062116325329486305,
                    0.00448555444849953,
                    -0.011967192888093794,
                    -0.03718322220287108,
                    0.016085638627710966,
                    -0.0507563104058101,
                    -0.018014960236428842,
                    -0.018775589645191968,
                    -0.03682383593376234,
                    -0.025905655291254406,
                    0.006482883847071739,
                    -0.025581026627238757,
                    0.0037257345929963505,
                    0.00021984101451485343,
                    0.022721020993521034,
                    -0.002417488458922545,
                    0.014570987242316504,
                    0.05482971400392315,
                    0.017513863415928248,
                    0.01109601430800759,
                    0.008814277758748374,
                    0.02036169450214848,
                    0.01932154124103031,
                    -0.007073894800921232,
                    -0.008693621191629116,
                    -0.0228766817829024,
                    0.0014200710581445015,
                    -0.00044865007181977255,
                    -0.013924255687489277,
                    0.02131038057792052,
                    0.019489323627047382,
                    0.007483802707050987,
                    0.003917393134438809,
                    0.032733803175460825,
                    -0.005208561232530587,
                    -0.013250091146587296,
                    -0.007167726086017467,
                    -0.015201927691772836,
                    0.004037446555885471,
                    -0.008033213351108414,
                    0.015849134339962666,
                    0.023790091731794118,
                    0.07609849687190659,
                    0.06818553082490973,
                    0.049286523124362346,
                    0.0633280079884259,
                    0.025460556890536393,
                    0.01275573072369079,
                    -0.008903155998479663,
                    0.015951474867086014,
                    0.004803960226333218,
                    -0.014324722403341004,
                    -0.00881703727008751,
                    0.0066336960837055595,
                    -0.013134447081002006,
                    -0.01165207813642713,
                    0.019100988191591783,
                    -0.002246204163777772,
                    -0.017591446188227916,
                    -0.009942632231538358,
                    0.02431225234632138,
                    -0.00398934792762952,
                    -0.012581014633990193,
                    -0.02050030530922918,
                    -0.03408162367182009,
                    -0.022493119178779542,
                    -0.07206459724335157,
                    -0.06723493697751683,
                    -0.04277045374855655,
                    -0.008278020888872034,
                    0.06100113498209269,
                    0.05849467372423098,
                    0.058518655626430195,
                    0.09319706209513877,
                    0.02242125707489279,
                    0.03230446145216513,
                    0.0161089471047187,
                    0.0007588030875942013,
                    -0.01147886618584929,
                    -0.0000352714818224236,
                    -0.0025740004623804207,
                    0.006945304014881568,
                    -0.010612761902730864,
                    -0.00736049447280017,
                    -0.01810006784248725,
                    0.001427751877702388,
                    0.0013527782360452957,
                    -0.007129468969364287,
                    -0.02761986691560271,
                    -0.034644675390520824,
                    0.007952319791330128,
                    -0.021926728854853115,
                    -0.035315748391844023,
                    -0.06098083366429308,
                    -0.07820365361428862,
                    -0.05980494403524264,
                    -0.052016469851031304,
                    0.0335919394378917,
                    0.04191710892056478,
                    0.08152059199523921,
                    0.08112816863207936,
                    0.057277691739754485,
                    0.031678944402910816,
                    0.03402317971106793,
                    -0.00450914670935637,
                    -0.006543556658676315,
                    -0.03299325480565845,
                    -0.0020400638745919,
                    -0.0036427662324878827,
                    0.0033118941331585273,
                    0.031247225623816693,
                    0.015458653478159525,
                    -0.02720138945001142,
                    -0.02563704772069792,
                    -0.00047989717090354177,
                    -0.011851838844164872,
                    -0.026384760742041383,
                    0.007571857791159784,
                    0.03666868341662606,
                    -0.011329343318872812,
                    -0.04006649139707126,
                    -0.031007310998563457,
                    -0.0756222991333054,
                    -0.07762439708373602,
                    0.0018308013222886233,
                    0.05552613297777124,
                    0.06183858421329985,
                    0.045020902691622296,
                    0.04038076041821454,
                    0.015938416563447026,
                    0.04151487458141209,
                    0.000778217160941183,
                    -0.027153955520963762,
                    -0.03983967193036612,
                    0.007209422927715893,
                    -0.016603482192031293,
                    -0.0020137726535219627,
                    0.0037380157860906742,
                    -0.005115485672122362,
                    -0.03055299692196685,
                    -0.007506706220287144,
                    -0.021935882266843915,
                    -0.011417811705926423,
                    0.0008162322308844941,
                    0.021604253477870414,
                    -0.00002728383227906878,
                    0.019771564449199246,
                    0.0036234557839489754,
                    -0.0026656888270853627,
                    -0.047110474129481474,
                    -0.12143501026351623,
                    -0.06755291143444281,
                    -0.006882575520033977,
                    0.06249083810831228,
                    0.06275503191135,
                    0.09404776171413924,
                    0.009590715540502146,
                    0.010893584341870509,
                    -0.03466993674659029,
                    -0.0006754966723555359,
                    -0.006098827785972695,
                    -0.008787831315321688,
                    0.013255531692524114,
                    0.00372725784752068,
                    0.02521997211466391,
                    0.002671457300967835,
                    -0.003243237708989011,
                    0.016769188590868442,
                    -0.005037136121183191,
                    -0.014888684859169323,
                    0.011322050655043858,
                    0.025792700373680796,
                    0.04459385786148509,
                    0.08604532216248593,
                    0.06004337757451159,
                    0.044939740491736775,
                    0.031373929431721716,
                    -0.04355853366230495,
                    -0.0740191419785165,
                    -0.02268419486836561,
                    0.03246194825118888,
                    0.09706641092236913,
                    0.06684317683497445,
                    0.017245834975100884,
                    0.003669156100480315,
                    -0.037594426625794215,
                    -0.0034342322298077884,
                    -0.024968314086002922,
                    -0.010242366332242112,
                    -0.011278990950051967,
                    -0.015224232422257015,
                    -0.010204433448280616,
                    -0.003868916449967239,
                    0.012897291200106962,
                    0.0010593205948600983,
                    -0.007580797410079028,
                    -0.02581272381534071,
                    -0.0076200762101344835,
                    0.006957205534940467,
                    0.05452136287313226,
                    0.08828300023106234,
                    0.09284264963734928,
                    0.11327796032748659,
                    0.09839471829656986,
                    0.009666574938372557,
                    -0.04039520575276957,
                    -0.05063931343160486,
                    -0.0034552380530763187,
                    0.06140202455106444,
                    0.08251309189985537,
                    0.06064466920741486,
                    0.05846559846769181,
                    -0.016081816259938306,
                    -0.02015985471114189,
                    0.0017466941689182067,
                    -0.015363768503116083,
                    0.015385710876746604,
                    -0.0020577136707467655,
                    0.01663088096858505,
                    -0.005991462499159518,
                    -0.005848229389087744,
                    0.00507972373994656,
                    -0.003054654854710369,
                    -0.024454265976574806,
                    0.009162853494916232,
                    -0.01335497402857703,
                    0.016633365696521855,
                    0.02871304925069788,
                    0.10554346397562628,
                    0.10966185398788364,
                    0.08450057940882816,
                    0.08488393932435413,
                    0.04093188189584345,
                    0.00555873677349378,
                    -0.02343549990788692,
                    0.025310929469951966,
                    0.08658511675320807,
                    0.11245266071520879,
                    0.06047391864343537,
                    -0.004552137101357127,
                    -0.010784349946968589,
                    -0.015665284849768656,
                    -0.01358689919359657,
                    0.004761176492428367,
                    -0.0003035936991138521,
                    0.05563280120701198,
                    0.005180034498163088,
                    -0.013811211553104427,
                    -0.007284265149978678,
                    -0.012396180010281976,
                    -0.014499136584880525,
                    -0.018517237374534503,
                    -0.0060356513577473426,
                    0.025823410498768705,
                    -0.00401145917670166,
                    0.07361537460523979,
                    0.11766010273514009,
                    0.10094976564134564,
                    0.12827856985935143,
                    0.07076603219112958,
                    0.055276024650449646,
                    0.048855219518022776,
                    0.036710122673456906,
                    0.05603866198250355,
                    0.12370368059585551,
                    0.11230135842325897,
                    0.06055569117911915,
                    -0.004660184495798823,
                    -0.003988168184098466,
                    0.01136654638926341,
                    0.009945646106146771,
                    0.027776421694242444,
                    0.0006552594497962695,
                    0.01290381278496247,
                    -0.009371868771804851,
                    0.0006298519870615947,
                    0.0020604750970456102,
                    0.01571852274558154,
                    -0.0010153159750651264,
                    -0.004903275118052647,
                    0.03800580832987455,
                    0.026911825648682493,
                    0.03233485852518267,
                    0.09412947442512053,
                    0.08260706876630845,
                    0.10557228670343519,
                    0.13504487938115953,
                    0.12234950587896098,
                    0.11793705104094075,
                    0.10927150231874685,
                    0.09439525997230502,
                    0.1035512924945766,
                    0.10693133973928293,
                    0.11578339896482662,
                    0.07110200633445139,
                    0.027164004677517197,
                    0.01753472987714054,
                    -0.006918044691203659,
                    -0.011157962611845136,
                    -0.0023390714342366352,
                    0.01585274032590965,
                    -0.013522108700213373,
                    -0.0015608753557079032,
                    0.01201974779343199,
                    -0.0008043831431284277,
                    0.04267801958638937,
                    0.011400902877827317,
                    0.006099001580344432,
                    0.029469828901315064,
                    0.006925961532058776,
                    0.033551434067151005,
                    0.07196461738643381,
                    0.09853638617639185,
                    0.09117673279926607,
                    0.06798039370905583,
                    0.11142239673251336,
                    0.10330020637197591,
                    0.11021479909202865,
                    0.09931437977496767,
                    0.09659667290623664,
                    0.10574189492613804,
                    0.12085523403290067,
                    0.022867562596119297,
                    0.03486294394217988,
                    0.018181725563891377,
                    -0.012485713008404306,
                    0.006013399679728728,
                    0.002391920592343359,
                    -0.014396151738345079,
                    -0.01000649658768582,
                    0.01605928573167113,
                    0.023620777523313756,
                    -0.014747985721774349,
                    0.0035623789517200788,
                    -0.0010791276698871547,
                    -0.02036564075075078,
                    -0.026376296397284067,
                    0.022508503687988186,
                    0.04900649274782185,
                    0.0411461967853455,
                    0.06418991781882818,
                    0.04825855429776208,
                    0.03658848955942051,
                    0.07603399199666237,
                    0.09687293640232952,
                    0.10015212407228061,
                    0.11850541713627306,
                    0.08799645188046482,
                    0.11587043072845543,
                    0.07005864262454793,
                    0.04920049237737932,
                    0.004814732212966239,
                    -0.019942641333108944,
                    -0.015941387545016686,
                    -0.012223062881911485,
                    -0.019766489851583642,
                    -0.015210409153157472,
                    -0.0037813781769669213,
                    0.025908666703627615,
                    0.018593069265855446,
                    0.021423382514168886,
                    0.0076136408825317,
                    -0.006277430932554301,
                    0.000202203595480677,
                    -0.02922243494830492,
                    -0.006796733181152108,
                    0.0026098074313873313,
                    0.03934792292419625,
                    0.04551836996033121,
                    0.040194179362950645,
                    0.019957371830395337,
                    0.04487494468988183,
                    0.06998332791712247,
                    0.034418036540845,
                    0.06814699007552871,
                    0.09678772602160483,
                    0.06413632021690562,
                    0.04413150516221769,
                    -0.0018341401411970837,
                    -0.030471076830237215,
                    -0.04187882813339365,
                    0.0016613494527010354,
                    -0.011437574779342747,
                    -0.0133017091254957,
                    -0.0284432727639086,
                    -0.023202111458476754,
                    -0.012595003790112838,
                    -0.0009216639606838948,
                    -0.014557334450048693,
                    -0.0021312156009463765,
                    -0.011394082050456403,
                    -0.023660183820314498,
                    -0.02908602335008722,
                    -0.01372616347153544,
                    -0.04178768055512085,
                    -0.009923542512124526,
                    -0.00417978607429609,
                    -0.018458355775365767,
                    0.022754604478476388,
                    -0.01662306577144548,
                    0.021753327437793655,
                    0.0025750708729971065,
                    0.013680450537224964,
                    0.056232930852940045,
                    0.0205901394964861,
                    0.0018909958614835452,
                    -0.03204603776794665,
                    -0.027692990594718084,
                    -0.04905321762910411,
                    -0.05018697556946387,
                    -0.050820707434220534,
                    -0.03544366191289851,
                    -0.004467317306518862,
                    -0.010146205490068533,
                    0.012948005725072962,
                    0.013239585341574885,
                    -0.02332304293588922,
                    0.0099775334143295,
                    -0.0009936388541547882,
                    0.01941345462417043,
                    -0.02584367158666893,
                    -0.03469312410548383,
                    -0.019432767437475535,
                    -0.01690670304927103,
                    -0.025271317204742027,
                    -0.03316242965102573,
                    0.012649866445773606,
                    0.0015879532696591887,
                    -0.03521712790226046,
                    -0.029755216975448508,
                    0.010802974666065113,
                    0.016193565175103692,
                    0.0015477331528180728,
                    0.01983030839942081,
                    -0.026945250115754733,
                    -0.038407599437459736,
                    -0.01201437758726617,
                    -0.03958226944063148,
                    -0.04402214694950475,
                    -0.032765258517590636,
                    0.010335990983378198,
                    0.015987535303208896,
                    0.010942281367264148,
                    -0.008181321259553969,
                    -0.008705861710841974,
                    -0.015436120976977068,
                    0.012016525460708388,
                    0.009372915709760985,
                    0.0047739053900695706,
                    -0.017748510611596595,
                    -0.04044483903819161,
                    -0.06761853182581784,
                    -0.05313097178606221,
                    -0.026926909176948274,
                    -0.0306198792127964,
                    -0.011198052897292742,
                    -0.027795102065439798,
                    -0.019043352832691617,
                    0.0225894596542658,
                    0.04298468056993119,
                    0.009603991205750718,
                    -0.023390945461865476,
                    0.004355141432109907,
                    -0.06139228803450514,
                    -0.013540697250242352,
                    -0.005422695583859251,
                    -0.03588099636277693,
                    0.00028845369578187643,
                    -0.017007218596688915,
                    -0.022660928616194807,
                    0.024786924132272254,
                    0.018587594414116067,
                    0.002753024224186861,
                    -0.0038562453401424605,
                    -0.0037693954265846253,
                    0.014979021511626195,
                    -0.0036580806954100804,
                    -0.001685764471948279,
                    -0.022614731632579023,
                    -0.04941282592038883,
                    -0.005923441858191103,
                    -0.02647750364398933,
                    -0.01799031197863195,
                    -0.004041270856593605,
                    0.026080810182752146,
                    0.023218125860714905,
                    0.03957397202407136,
                    0.02513549451583387,
                    0.008078937659293836,
                    0.04604074015146084,
                    0.009365415971515845,
                    0.003329079559815964,
                    0.004676251153935771,
                    -0.03146131885360272,
                    -0.02370732537964088,
                    -0.025190837849348172,
                    -0.01121111902641641,
                    -0.033733943564092886,
                    0.009801973801289849,
                    -0.013645631643662497,
                    0.02373596484562193,
                    0.00966949251270813,
                    -0.014433339681352122,
                    -0.004527351461419191,
                    0.011289217336226315,
                    -0.03263626633604232,
                    -0.008488898728514754,
                    0.0036401768419010937,
                    0.009364764386439815,
                    0.03148362423807333,
                    0.022675921043002232,
                    0.008783221933575664,
                    0.04373713850927319,
                    0.06030092664562117,
                    0.07099299776440046,
                    0.04457686435929996,
                    0.05038224862022472,
                    0.01123014496988193,
                    0.027641704868068412,
                    0.03597265045432507,
                    0.0002718370168953718,
                    -0.014035848286490137,
                    -0.018956726861152774,
                    0.01819913258535185,
                    -0.00371363019028266,
                    -0.009810718382305197,
                    0.018844119591053,
                    -0.02312294899000511,
                    -0.026968879298064023,
                    0.039280527365862086,
                    -0.00682704616266606,
                    -0.011492711330389673,
                    -0.030532379253948912,
                    -0.03700947917762518,
                    0.005796242102040118,
                    0.005331053843038843,
                    0.007715644523667354,
                    -0.0029197958636849554,
                    0.030015123257030266,
                    0.04641375755104286,
                    0.03142452373828159,
                    0.06190782936535989,
                    0.05523312359441239,
                    0.07064723156876794,
                    0.05506946162616345,
                    0.022842996423649693,
                    0.051663789350568035,
                    0.056081463237007675,
                    0.007580049425069757,
                    0.0017458948233080663,
                    -0.016178712568101394,
                    0.00911335386860432,
                    0.005566814119187574,
                    0.0040705661423348196,
                    0.03567604009094124,
                    -0.02954385797828586,
                    -0.018205714844201082,
                    0.01271774418518762,
                    0.01969283857948478,
                    -0.013378451954982225,
                    -0.011500959962803476,
                    -0.019679595903052474,
                    -0.0021396309096225266,
                    -0.0011294101171206363,
                    -0.005481888739725629,
                    -0.03730068322545483,
                    -0.011355991951080625,
                    0.02667618466584688,
                    -0.0018908446662868894,
                    0.02295986683941711,
                    0.06349687323406525,
                    0.027032775734845124,
                    0.025332361618100402,
                    0.0205104988292566,
                    -0.016412408503346847,
                    0.005022202194095913,
                    0.010277143223700727,
                    -0.038904891561170385,
                    -0.016708749077019445,
                    0.019454344810376847,
                    -0.04382230354690632,
                    0.005436379363328633,
                    0.004195658374826371,
                    0.010204053138627493,
                    -0.03144229860725438,
                    0.013532080655597842,
                    0.017939263518660868,
                    0.013154777164307083,
                    0.0071388184487125505,
                    -0.008126744809875849,
                    -0.032419851193496725,
                    -0.004696555022729008,
                    0.00019162040422268713,
                    -0.019877567127015994,
                    0.0016680438154722944,
                    -0.015456313268271413,
                    -0.002837356331830196,
                    -0.026423919206564055,
                    -0.007701031990596601,
                    -0.013101733551791176,
                    -0.007723467543799872,
                    0.0006773574372112872,
                    -0.016323469784372203,
                    -0.007210288616804267,
                    -0.007813517705133574,
                    0.01755917695721591,
                    0.02584453462678433,
                    0.0010759775696290853,
                    -0.007960772809523812,
                    0.015258137666444039,
                    -0.029945056293901266,
                    -0.007230541010781949,
                    -0.007825161846945108,
                    0.016883537333683207,
                    -0.0005826457863989354,
                    0.005235911676862601,
                    -0.0146938983810512,
                    0.0017560993016526281,
                    -0.014094520786533688,
                    -0.0016823919376674431,
                    -0.038878061284418404,
                    -0.024576150465951335,
                    -0.026568402242471034,
                    0.01906121165202943,
                    -0.02297126028621404,
                    -0.027674007200994534,
                    -0.023393316489328336,
                    0.022909664359576275,
                    -0.007808484784224409,
                    0.007088412863390245,
                    -0.01539235053718923,
                    0.0038463498879749646,
                    -0.001039141253109363,
                    -0.008355552311378814,
                    0.006529297922970641,
                    -0.012438067527001584,
                    -0.010380492107440914,
                    -0.02081368195824474,
                    0.02184307284538658,
                    -0.025368497727164038,
                    0.0022331878647010583,
                    0.00695633760436216,
                    0.014210388593485317,
                    -0.022021084039316113,
                    -0.0032566610050689493,
                    0.01726118250298897,
                    0.021035506568944918,
                    0.01595696349205685,
                    -0.010494635494058494,
                    -0.0025577679923588716,
                    0.021453493555997544,
                    -0.019609893418218286,
                    -0.009726475366872137,
                    -0.02952310543790067,
                    0.006696427156884017,
                    0.005803289198061842,
                    -0.0017280521078415383,
                    0.013906474492166487,
                    0.006736372509470175,
                    0.02887724504810877,
                    -0.006364565964804285,
                    0.018616665346680047,
                    -0.03356942152447152,
                    0.018462302095952458,
                    0.008454859932095772,
                    -0.011050730091512745,
                    0.00939696788772055,
                    0.0025217649579320485
                ],
                [
                    0.0038483438383334675,
                    -0.025526633652763336,
                    0.018740900867599938,
                    0.0009838388737262818,
                    -0.0036714155621832226,
                    -0.024271608561864378,
                    0.007944591127261811,
                    -0.007064855824751013,
                    0.02977601894987688,
                    -0.00033134103449523753,
                    0.0020764998340727673,
                    -0.014436214843844969,
                    0.006921851169028194,
                    0.0010767821846575697,
                    -0.007227365981893358,
                    -0.012922993936099053,
                    -0.004341757063318801,
                    0.01845877208675933,
                    -0.0008998608929002114,
                    -0.006920569557582565,
                    0.008656462404207487,
                    0.028916332808351552,
                    0.0050627978405891295,
                    -0.010043310093630211,
                    0.008631520280991439,
                    0.03252101000712771,
                    -0.0033154417989372477,
                    0.024059213273161295,
                    -0.013370922162921716,
                    -0.02911620642324398,
                    0.011414851224236704,
                    -0.018747978445302328,
                    -0.013968671899927135,
                    0.006436125393551698,
                    -0.02438700910883992,
                    -0.030747398208863262,
                    0.0005158228761335763,
                    0.02510769338655756,
                    -0.018455511662020384,
                    0.02200626600970827,
                    0.014830021401686024,
                    -0.022871036737214377,
                    0.014366004950745378,
                    -0.03777952964298024,
                    0.024321579241724255,
                    -0.017595807810817904,
                    -0.0052160996307058114,
                    -0.004799469226026979,
                    -0.006334819674333277,
                    -0.004030325905093087,
                    0.01907524442627092,
                    0.0016808432848875938,
                    -0.01587798641940004,
                    0.01912828652777442,
                    -0.029710504391673137,
                    0.017861306813961954,
                    0.004935634055509632,
                    -0.012035782507438558,
                    -0.0002533040797113743,
                    0.028586003614291238,
                    0.020127277491518863,
                    0.02675428117262216,
                    -0.012435649405696305,
                    0.009546861263496948,
                    0.004083229896715744,
                    0.018405558871353686,
                    -0.00782018324524285,
                    -0.00924915107683054,
                    0.010935815261723474,
                    0.008696670459072055,
                    -0.011314695970619753,
                    0.010150528124368613,
                    -0.003073042320429463,
                    -0.0034486345319712217,
                    0.007850284694737171,
                    0.00023918456874915222,
                    -0.008893748964659004,
                    -0.020264248628105885,
                    0.0013450084156719127,
                    0.02769670364736407,
                    0.00977055617345691,
                    -0.009946541605820331,
                    -0.009383895125739929,
                    -0.010958132129134402,
                    0.035536540480148995,
                    -0.0024519588317902037,
                    0.018622569760304783,
                    0.0011675840142275828,
                    -0.0010821923584603936,
                    -0.008407236754648289,
                    0.006613770572071097,
                    -0.019267368206576107,
                    0.028908787606576287,
                    -0.008600346736237465,
                    0.007488579673407675,
                    -0.002777268685802326,
                    0.013972112024188785,
                    0.004552844869139641,
                    -0.014074682433280554,
                    0.007699349165504029,
                    0.024010582390875154,
                    0.003560100506850011,
                    -0.01609055198876808,
                    0.002402492207002834,
                    -0.011112438736166698,
                    0.016666930231776997,
                    -0.020674338698580947,
                    0.017332542002664108,
                    0.0029782210352107285,
                    0.0014572958951119866,
                    0.02566645395607786,
                    -0.008859953479785507,
                    -0.006874735452822516,
                    -0.0017473410920447793,
                    0.008265635513865782,
                    0.011349862103992534,
                    0.01890013295397447,
                    -0.012282508206995255,
                    0.0038368312873643777,
                    -0.009414376823300537,
                    0.006607254842677352,
                    0.008442913954331588,
                    -0.004427252190431575,
                    0.009414282361836208,
                    -0.0011621560514736,
                    -0.0029971063219881573,
                    0.013377912527603907,
                    -0.00017569272341193373,
                    -0.021251370837471497,
                    0.016735215147838177,
                    -0.008725476606769185,
                    -0.004452231467311897,
                    -0.023258134098999798,
                    0.015483863008129668,
                    0.017204217437385143,
                    -0.02137277182950918,
                    -0.009780857671825545,
                    -0.03454389735275548,
                    0.0156422577807832,
                    0.015418155860159854,
                    0.019290626043744177,
                    -0.004768783058509574,
                    0.023535369379308387,
                    -0.0029978702623844836,
                    -0.002180497545871812,
                    -0.0011538364475066106,
                    0.007590165059219542,
                    0.021533024108040894,
                    -0.00433165210796553,
                    -0.012219758816470397,
                    0.006690583066378682,
                    0.02637773785087949,
                    0.023462261255409907,
                    -0.0035964979209457963,
                    -0.0010065991214026346,
                    0.01194608541834255,
                    0.001065835736592268,
                    -0.034050902659321,
                    -0.03297869852960088,
                    0.0018021597877605987,
                    -0.0004089752591150858,
                    -0.010715722949299993,
                    0.008161798734942055,
                    0.019895739752677787,
                    -0.03850919124379729,
                    -0.008638623209625107,
                    -0.016682242120911094,
                    -0.007018936404534707,
                    -0.0053702552146913185,
                    0.00749694006157547,
                    -0.03440426537437472,
                    0.0162755783545068,
                    -0.013712718990066172,
                    -0.008776785839174185,
                    -0.00008415371107833534,
                    0.026384931779353752,
                    -0.005749580333608791,
                    -0.048277962245617714,
                    0.041220517448484296,
                    0.028968621905001855,
                    -0.014347982838009908,
                    -0.0005560636331125588,
                    -0.03325629194528889,
                    -0.003215553537324822,
                    0.003392011734869749,
                    0.030106717138662486,
                    -0.008680957378867876,
                    -0.028075930980665065,
                    0.005829570971909848,
                    -0.013761113362375435,
                    0.03227195576551517,
                    -0.012763513649125969,
                    -0.03797685166088776,
                    0.02393619313695593,
                    0.017680016812327174,
                    -0.014629005306410536,
                    -0.0028715578884553135,
                    0.007042429792953683,
                    -0.01022867188464159,
                    0.015052178505763325,
                    0.010269568802562343,
                    -0.03304868701332794,
                    -0.004286409550233402,
                    -0.01121323848747285,
                    -0.014259869135822804,
                    -0.010404280655006893,
                    -0.0026203035664505046,
                    -0.020851995740657537,
                    0.006913255062678089,
                    0.0453978288154761,
                    0.01790898526679641,
                    -0.00511718325913023,
                    0.018194184393344526,
                    -0.005141559156223819,
                    0.0006821345470268551,
                    -0.018159710438274468,
                    0.02628786688351755,
                    -0.010232376959267762,
                    -0.00346237649634489,
                    -0.00267400611165635,
                    -0.010118124217609185,
                    -0.023349504103529716,
                    0.007093666011046351,
                    -0.012059411152244744,
                    -0.010812334863361805,
                    -0.01133079545045518,
                    -0.014408311896026175,
                    -0.017443380019587704,
                    0.0011335077963158836,
                    0.013702366875264877,
                    -0.00967223690936854,
                    0.006099262228555406,
                    0.019384535050598294,
                    -0.000789066640758865,
                    0.009451889137470141,
                    0.00878823242973652,
                    -0.004043644729458992,
                    0.005940723134383522,
                    0.021325984874686905,
                    -0.01643844131126767,
                    0.012225642811001995,
                    -0.03793877209728567,
                    -0.007137302141631895,
                    0.009511832903698208,
                    -0.01492729527772064,
                    -0.03011236003923066,
                    -0.004304462304727901,
                    0.023102291350468214,
                    0.0002975484971192026,
                    0.012654388182506904,
                    -0.008073554433802184,
                    -0.013655420474193432,
                    -0.02132854061513766,
                    0.02132615855312571,
                    0.005647361580516275,
                    0.024451659014786787,
                    0.009540715201431156,
                    -0.01026346246791845,
                    0.004070894781637929,
                    0.030035968859448318,
                    0.004698336856383846,
                    -0.004073274353765219,
                    0.014686746811066659,
                    -0.019944627661883055,
                    -0.0171405656849645,
                    -0.010233779963506008,
                    -0.00877700618666115,
                    -0.007991128004097455,
                    0.0037305060090871206,
                    0.005803759010023464,
                    -0.0006174715683722535,
                    -0.0319633338170453,
                    -0.002461014458570019,
                    -0.02005025775313277,
                    0.023015437049969674,
                    0.0033738842629284583,
                    -0.0009152651820921871,
                    0.016267051257806597,
                    -0.013109907403567229,
                    -0.004042384728114354,
                    0.020925587456085002,
                    -0.006442892362797507,
                    0.023416643066308918,
                    0.004458935339447708,
                    0.005127783744451536,
                    -0.010557066610053827,
                    -0.005846774496270258,
                    0.00912834301946243,
                    0.003662668969585382,
                    -0.02133338657471995,
                    -0.00030463572224172664,
                    0.0027837892615896432,
                    0.022796404077009728,
                    -0.0027910384689322798,
                    -0.009026592342360138,
                    -0.014866091741433293,
                    -0.010959782549895472,
                    0.017840911636430055,
                    -0.007196745833300834,
                    0.024033263964372786,
                    0.024810900198311593,
                    -0.0029342561157680706,
                    0.011521352476559691,
                    -0.0018167065137424461,
                    0.014292259151017781,
                    -0.003266788495690949,
                    -0.006702280824682135,
                    -0.010938075932397234,
                    -0.02181733709071766,
                    0.005068194086056865,
                    0.0010956312174526042,
                    0.002925120826845372,
                    0.010293228083889851,
                    -0.00468405539808666,
                    -0.019817848995326102,
                    -0.013190457559404664,
                    0.01773616546111532,
                    0.018859918366653135,
                    0.014063996512514268,
                    -0.0038761554674843234,
                    0.0019102363617876912,
                    0.04309647830455813,
                    -0.004243394179375106,
                    -0.007003162155370614,
                    -0.016381627960348005,
                    -0.001666428656659999,
                    -0.014661971059803887,
                    0.006683483520547218,
                    -0.03139095071973802,
                    0.0028118925417565774,
                    -0.01674605672825662,
                    -0.021694607693060104,
                    0.012393603462437366,
                    -0.002927006754758375,
                    0.0029437985819404924,
                    0.0028455226761967658,
                    -0.03908383549109664,
                    -0.008338447192151191,
                    0.01746452457102083,
                    -0.009025240904231084,
                    -0.0038817998436562395,
                    0.009134778919116921,
                    -0.01238850523932847,
                    -0.008724822181912216,
                    0.014582196672020244,
                    0.00014822378379099704,
                    -0.026384822147905752,
                    -0.008984589329749097,
                    -0.004182045564970786,
                    -0.029091625932583076,
                    0.013521401145744726,
                    -0.0009062348640636401,
                    0.01224173314605288,
                    -0.0005027428591482785,
                    -0.004034141161929843,
                    0.006533706238740824,
                    -0.003590349961843534,
                    -0.011029312901344427,
                    0.0029853174006980784,
                    0.015089189713000961,
                    -0.006061680361530518,
                    -0.027404393351574807,
                    -0.01647135843809118,
                    -0.017675039728424286,
                    0.003563593880931308,
                    -0.020562957005858615,
                    0.005438303621856955,
                    -0.017410292120933733,
                    -0.021202708784504035,
                    -0.004327568512610703,
                    0.014589159823737218,
                    -0.0006497531631897869,
                    -0.01699732072037522,
                    -0.003799386142921854,
                    -0.00038229178633851214,
                    0.01521243899185562,
                    -0.011531585625708638,
                    0.03193684636977244,
                    0.021464783363772846,
                    0.0008602728158084547,
                    0.023411258412900083,
                    0.005049993485677626,
                    0.02175495613344893,
                    0.02332053611681984,
                    -0.0033959382474668745,
                    -0.009664830499080188,
                    -0.003517362534699082,
                    -0.011474111127548906,
                    0.0033435980719373035,
                    0.0012512713905403505,
                    -0.007759109578220541,
                    0.009007376188728326,
                    0.023289380387110818,
                    -0.008678642781015013,
                    0.009378788676447565,
                    -0.010589840012051701,
                    -0.016765756324561336,
                    -0.01597624563045733,
                    -0.014271472172788612,
                    0.012501679003504365,
                    0.0021963963409959396,
                    -0.008363941135337283,
                    0.01454359391544981,
                    -0.00025593311204584457,
                    0.01636793836480666,
                    0.01028834210563842,
                    -0.02370739997034442,
                    0.00872044520497386,
                    0.003744281747998075,
                    0.018457469112503743,
                    0.024950552387498676,
                    0.013867156613797917,
                    0.038024006391858045,
                    -0.00016349071262631537,
                    -0.015015399741285339,
                    -0.013387227439454964,
                    -0.0033297848993971454,
                    0.01320177052793347,
                    0.0052619778832575645,
                    -0.02841194687692486,
                    0.005391198533022607,
                    -0.019600887843392145,
                    -0.006775017644491598,
                    0.002534799501437732,
                    0.004164327344431278,
                    -0.001802413014603746,
                    -0.006709219249932929,
                    0.007966316866901416,
                    -0.0008551354898344247,
                    -0.015693008069612567,
                    -0.02243559355170955,
                    0.006985085884184289,
                    -0.014311117996056192,
                    -0.03832639097383564,
                    0.005799057361951479,
                    0.008093985172825266,
                    -0.0021676632917428384,
                    -0.03151604150481212,
                    0.01393380612494432,
                    -0.018915786249401455,
                    0.02023636971578343,
                    -0.0014136231337763937,
                    0.017292058530061875,
                    0.010271765900514564,
                    0.01400485799624147,
                    -0.0028628914261237264,
                    0.022051797226075077,
                    0.011111136959462574,
                    0.018928798445513997,
                    -0.021550269988796614,
                    -0.005461794145022766,
                    0.0026542943600172692,
                    0.01898400421093307,
                    0.002337427118135959,
                    0.01507364873714503,
                    -0.0034923365027563083,
                    -0.018097452346719264,
                    0.02352361787313323,
                    -0.007728179110313296,
                    0.04154890992867669,
                    0.006964980876878304,
                    -0.015301837535870092,
                    -0.002423803397266652,
                    -0.012839008416954838,
                    -0.028855371517513332,
                    0.0003173506236612992,
                    -0.004124597153114763,
                    -0.0024751078930927177,
                    0.021923506322730896,
                    0.023537463355816968,
                    0.006117054678138045,
                    -0.023528308727298546,
                    -0.019801212587980992,
                    0.03751142862397429,
                    0.01058994983904666,
                    0.0015593105217339902,
                    0.025440264517046066,
                    0.018256044555840015,
                    -0.002712785950798018,
                    0.005957618870469569,
                    0.011468617112767403,
                    0.01428035922422918,
                    -0.006072654825965515,
                    -0.0005705295437885289,
                    0.006872072577875343,
                    0.012324936768420757,
                    -0.025482549055158114,
                    0.007982868616066695,
                    0.003690144358373948,
                    0.008058885390054414,
                    0.009702964325299436,
                    -0.0164541573145923,
                    0.004012511200248655,
                    -0.03281577784752366,
                    0.009596641539822582,
                    -0.04003222987181068,
                    -0.006346937817816721,
                    -0.012946433657826278,
                    -0.016668347880390746,
                    -0.023886149695558193,
                    -0.0028912278086513725,
                    -0.01767931491358352,
                    0.014603112216383727,
                    0.019219000653912948,
                    -0.023842557040414852,
                    0.010327934542453909,
                    0.030188911458667478,
                    -0.00599628124708317,
                    -0.0030546656714299913,
                    0.02207971288679093,
                    0.0021485431320907005,
                    -0.021724981817416947,
                    -0.004215387950130925,
                    0.003155414547791689,
                    -0.014296859043774238,
                    0.025116232186786516,
                    0.05456296319543259,
                    -0.017335712678277687,
                    0.015008300554077156,
                    0.00819513480331708,
                    0.0028823612327786344,
                    0.01735361825367295,
                    0.011821529644232859,
                    -0.007043069969775393,
                    0.03239868447851808,
                    -0.006045557864008131,
                    0.006246084064286196,
                    -0.004236755804701155,
                    -0.019615336612592984,
                    -0.0070793486005509155,
                    -0.025062820674312206,
                    -0.015550557857510354,
                    0.00009554316000581859,
                    -0.020824525815575645,
                    -0.010251632075380565,
                    -0.014216457673052196,
                    -0.02417824861878538,
                    -0.007632336682454898,
                    0.037390215826611284,
                    0.014369506468263935,
                    -0.010646679565509262,
                    0.005469566436961858,
                    -0.026283012905091458,
                    0.014872634876950485,
                    0.008359882419121995,
                    -0.001390741414478182,
                    -0.011771721974656714,
                    0.003459240525559024,
                    -0.0008878669068947268,
                    0.002431168081702427,
                    0.018898510403166847,
                    -0.018176690372390666,
                    0.002053631039377818,
                    -0.009907899716325245,
                    0.008014218634614462,
                    0.006920139763044687,
                    -0.021954205539651016,
                    -0.007689686160763298,
                    0.013133921477392493,
                    0.004591681685113243,
                    -0.002391402805117316,
                    -0.010003349321537324,
                    0.022311599782113306,
                    0.02711440756452357,
                    0.012839287898003544,
                    -0.024440900518819236,
                    0.018809315419011558,
                    0.009211491212570743,
                    -0.001197117431093067,
                    0.018263861439710035,
                    -0.008321753951039084,
                    0.007406322822109251,
                    0.008463632464052673,
                    -0.014369286788443266,
                    0.008826935139499335,
                    0.0013571698999253875,
                    -0.0025403818938205514,
                    0.016397217226998093,
                    0.013031194191948727,
                    -0.035544016227767636,
                    0.010863004798957647,
                    -0.0281327911822605,
                    -0.0006929426143422672,
                    0.011971736792381244,
                    0.010259721056091766,
                    -0.012057788172444522,
                    -0.02432524053293899,
                    -0.038173320377293325,
                    -0.01704431192249607,
                    -0.01023368073999225,
                    0.013691244511234298,
                    -0.015530319513968893,
                    -0.016252261119437724,
                    0.024146238303920934,
                    -0.00413758012474611,
                    -0.006412668438331912,
                    -0.007181416287190826,
                    0.030733544604820168,
                    -0.00476444596454568,
                    -0.01954993106433728,
                    -0.022709286135952005,
                    -0.019605882397544978,
                    0.010337178904587805,
                    0.03677784209430242,
                    -0.03627479394004086,
                    0.015168236812661464,
                    -0.011635908081475292,
                    -0.025458206329971127,
                    0.015026542374437093,
                    -0.027077502295336592,
                    -0.016178293986617538,
                    0.037803977924425254,
                    0.01911655505555169,
                    0.0007954835311843508,
                    -0.021503426499265413,
                    -0.013644302604037364,
                    0.001297720043990098,
                    0.0005816215614765871,
                    -0.021546896215895256,
                    -0.000842932412316538,
                    -0.003234188204001343,
                    -0.006731767138135834,
                    0.01993993258542651,
                    -0.0026673740588612103,
                    0.013366255605713903,
                    0.0017843794439437375,
                    -0.008522150637945357,
                    0.021130910171591886,
                    0.004556002245192474,
                    -0.023359689917588085,
                    0.0010628920840503545,
                    -0.002100781435038611,
                    0.00826683896436814,
                    -0.009134955152454136,
                    -0.0407647353940536,
                    0.027722552815058855,
                    -0.002625599119127171,
                    0.019522005350346323,
                    0.0033029601944323294,
                    0.01373371083110465,
                    0.03512937311532832,
                    0.02411208916398617,
                    -0.012377193249105594,
                    -0.013922122568141128,
                    0.025669749382644564,
                    -0.0021307650075002493,
                    -0.014396606648242268,
                    -0.015150667291538505,
                    -0.0036638816795547787,
                    -0.007405569466544803,
                    -0.006342068999022172,
                    0.026098067726373533,
                    -0.01521051835965166,
                    -0.014633893140626129,
                    0.0010020634686924972,
                    0.0015633316811958524,
                    0.00027569467139449197,
                    0.0022155104010674075,
                    -0.0376759541054605,
                    -0.014824431130654729,
                    0.00933356545203048,
                    -0.03637919561549188,
                    -0.007247153798756971,
                    -0.004708480893931563,
                    -0.00545631168478725,
                    -0.01606122666797092,
                    0.010860216028328241,
                    -0.01557387971683795,
                    -0.024972263405450317,
                    -0.028479780639285517,
                    -0.00572789440181582,
                    -0.009353283989922988,
                    -0.013153756034609965,
                    -0.012931148877435553,
                    0.003565292269335267,
                    -0.021158966824186137,
                    -0.005340818442522691,
                    -0.0029213375631570036,
                    0.012537708237540905,
                    -0.008382662137501742,
                    0.014610711321802593,
                    -0.0004994528750745676,
                    -0.01572990321949414,
                    0.008687174809643592,
                    -0.0070381897708255035,
                    0.010680219997708504,
                    -0.0064797906272210624,
                    -0.0064301283328582395,
                    0.008370488566942308,
                    -0.0023167710648523583,
                    0.017580956602741726,
                    0.00008551776932453614,
                    0.00477704882733128,
                    -0.01253253152465435,
                    -0.016343857282900793,
                    -0.022859985244324674,
                    0.013247446918128269,
                    0.009712565730584597,
                    -0.02360164263906819,
                    0.026180331130947025,
                    -0.028106537200982214,
                    0.024971523252564777,
                    -0.017186423511682612,
                    0.004163093714828151,
                    -0.02095699354264596,
                    0.0030883019636380083,
                    0.005679541605949954,
                    -0.006302063440696286,
                    0.020509993310701354,
                    0.015054462531889107,
                    0.003932000306697254,
                    0.008325093973526593,
                    0.040328578434508815,
                    -0.002326436934249822,
                    0.0030394634594450086,
                    -0.01630026567171515,
                    -0.006209224920943399,
                    -0.004975356316048102,
                    0.005287845234141302,
                    -0.022437321223374808,
                    -0.019060597089132804,
                    -0.00889613590628878,
                    -0.007790085718232574,
                    -0.014039033239147066,
                    -0.022755342422092872,
                    0.001436400302620538,
                    0.01201742827444568,
                    0.014382209281211982,
                    -0.019803758617909912,
                    0.00511852217216198,
                    0.0047899583606405205,
                    0.029156380285442696,
                    0.011166421700932993,
                    -0.017074709771787832,
                    0.0039015386362833753,
                    -0.006036379493490435,
                    -0.016088161573387615,
                    0.007026151385152801,
                    -0.009417391396589262,
                    -0.010308467569278302,
                    0.030865716345985117,
                    -0.04634852068564204,
                    0.012755125269809304,
                    0.005660820234377987,
                    0.012633021061831012,
                    0.013458643780751359,
                    -0.00808028557540461,
                    -0.005083475581645909,
                    -0.01630909715561384,
                    -0.0033280946132250113,
                    -0.008044613002650457,
                    -0.006730044941544912,
                    0.023232565143980047,
                    -0.0031584622326494747,
                    -0.02143069100431767,
                    0.007030363210889377,
                    0.013174894786016184,
                    0.017721474293084988,
                    0.011955637212703187,
                    0.008493165272099179,
                    0.00971269456279915,
                    0.0069030623748482485,
                    0.012189661176747905,
                    -0.008520270652481548,
                    0.010917300496233235,
                    -0.020295549045055945,
                    0.012550451815120852,
                    -0.017556360659193547,
                    -0.011710577114714417,
                    0.007071011401950086,
                    -0.013287713156894334,
                    -0.016320555328597483,
                    0.004741002048538665,
                    -0.026913801174094913,
                    -0.026031027928393815,
                    -0.004128501497533392,
                    -0.0014507713284301876,
                    -0.01813667732529831,
                    -0.03506473480972548,
                    0.027734313045621108,
                    -0.033866526530432796,
                    0.012917978573068215,
                    -0.008882085060238893,
                    0.008838493583999078
                ],
                [
                    0.0004889486385120621,
                    0.014912483743179368,
                    0.02939230175106455,
                    0.018165426792038128,
                    -0.0012153223164729683,
                    -0.019789756165349746,
                    -0.019121636203201956,
                    -0.016028149607546647,
                    -0.025395626731275413,
                    0.011954628033974402,
                    -0.026049735753082316,
                    -0.020480698954529985,
                    0.014771137357108277,
                    0.017843114503450785,
